3.168230 0.231801 11.318545 3.513932 0.697216 -9.765444 -2.019483 -1.087219 0.002079 6.527678 -8.913053 14.036621 12.495278 -0.857933 -6.312359 -5.647422 4.310209 0.596870 -5.017141 2.657026 -0.295668 9.384851 -7.841858 -0.008160 -12.825299 0.196987 3.864843 0.994229 -5.731203 -9.377541 11.955665 4.058422 -6.258678 7.713315 1.016894 0.511254 -7.178346 13.920086 -0.305302 -10.212282 -3.607228 1.562179 4.128897 -8.652590 8.995129 9.545339 4.416874 -1.781518 -15.864256 3.823338 -2.129754 -5.801188 -7.675824 -2.196665 4.922569 -4.313918 3.200292 8.990209 -7.496597 9.634764 -7.205323 -10.422548 -3.912631 4.260515 9.161903 -3.113359 14.707079 8.241006 -2.399304 8.100485 -10.239780 7.353269 15.245896 9.289234 -9.637020 -0.871351 -10.287498 0.185657 -6.378047 -3.765896 7.517118 3.087158 -14.411061 17.309967 -4.230692 -7.032226 -3.932274 3.077854 6.383151 -12.033810 -5.686432 7.898648 -1.387816 -8.868175 1.868913 1.223985 -4.533071 3.594414 12.526604 -0.509517 -0.181504 -1.738582 9.877900 -2.646922 1.368158 2.463432 5.962629 -6.625259 -0.856984 -4.689032 7.981071 -3.569015 -0.294017 10.482783 -4.820038 -0.584782 12.831434 -6.904655 -8.459674 -17.920200 4.215768 12.876375 -2.368988 5.591850 -17.299490 -1.045288 -6.672268 -7.062830 -5.479050 -5.003768 -16.432123 2.840415 5.813617 0.845725 8.157611 -4.829034 1.399837 -3.989750 -9.126503 3.178932 9.951073 -6.432338 -4.915948 3.999058 -3.346211 1.735935 -9.141059 11.511797 2.523517 9.359534 13.150249 -3.270600 10.005805 -4.456960 9.529627 -8.833141 1.468536 9.507506 2.449147 5.700558 -5.745940 -2.139164 -2.276952 -2.376874 -1.813894 -2.202653 1.651547 10.763637 5.897419 -4.348586 -5.325960 15.001071 1.770440 -5.390752 -0.018822 13.496011 2.094788 14.686558 -8.972783 4.476563 0.360145 5.168570 7.517784 -6.344241 -10.156369 1.085124 -7.693730 7.702554 -15.618113 -3.270586 3.621172 0.231762 -0.689438 -6.956435 7.240321 0.183061 17.174944 -1.350814 -1.664717 -3.922757 2.099412 -0.107706 -4.235042 -15.585419 10.809241 -9.699905 1.198006 -5.416476 -4.897549 1.046401 13.083478 3.392339 -6.024642 -12.711521 -15.491014 -12.777105 -3.963012 -5.609559 -6.014688 -0.753508 0.163667 -10.035783 -17.091364 -0.090152 -1.420676 0.039390 8.442152 -4.411750 1.162146 15.011237 -7.220407 5.841111 -0.411089 10.052712 3.470724 -8.992508 -1.690822 12.394051 1.044211 6.729808 -0.118031 17.075987 -18.020149 7.195392 0.183721 5.396349 -10.585457 -6.081028 -2.107704 1.790757 2.413351 -3.192326 8.027466 -5.400202 12.652562 -2.494144 -10.338096 2.885476 -5.732868 6.225053 -7.312730 -9.694049 11.132985 0.867297 0.071250 -8.993745 8.411045 0.572777 -1.033460 -5.956618 -8.811773 6.036787 15.910820 6.305739 -3.191853 8.986273 -0.651700 -16.669346 8.261905 3.713623 -1.345475 9.997951 2.096562 7.554484 1.104871 -4.077589 5.197128 -10.137787 -7.767592 -7.920393 8.719384 16.183254 17.525852 -4.281527 -0.712105 -4.369462 3.305265 8.610961 -1.177494 11.415416 6.729881 -9.325504 13.286672 -7.339688 -6.157169 11.681847 -1.668996 -2.380169 -7.695584 -6.343327 5.323333 1.587831 10.759260 10.868766 -3.494886 -5.785200 -0.455580 -2.348349 4.242301 -3.543394 3.856887 3.871248 0.828111 4.032162 -13.054374 -15.808122 -2.126721 -3.484125 4.468472 -7.074299 -10.480396 1.569289 3.789312 -2.406037 4.609389 14.032298 -9.896820 6.214347 -6.015704 -5.653926 3.762156 8.138805 8.118869 4.517981 1.950386 -9.895281 -5.962924 -3.354966 -2.730221 8.345844 -3.133061 -0.541915 1.368395 5.447329 -5.133156 1.593863 5.494442 8.393376 -0.801979 5.478650 0.400457 -2.764356 -2.307885 7.232586 -8.651127 -7.314367 -0.690672 5.273154 -15.451824 6.156765 -0.137326 0.020564 -8.247944 -2.988659 13.189874 -13.573382 12.209401 8.827877 -3.610088 -9.050958 -0.139693 -13.232932 3.632237 5.670339 -3.284283 -2.049747 -15.373881 -12.857437 13.567456 5.776350 2.073441 -6.724013 0.803603 -1.916654 -0.934306 -14.244300 10.128459 -2.690170 15.554873 0.688844 10.659584 -7.233475 -2.662421 -7.861902 -10.737118 -4.464506 -10.296474 10.830779 4.835849 -5.706970 2.199880 4.316968 6.681567 2.932368 -6.443535 2.065884 -3.287417 -7.371163 -0.825447 10.827780 0.796019 3.167224 -11.935028 3.208413 -11.964540 7.007961 5.875089 2.065431 1.637704 -1.362496 -0.872551 2.371227 5.674695 3.853324 11.513639 -1.975121 4.109385 -4.644362 4.026459 -13.378221 -1.412699 0.399588 1.441543 -8.287172 0.853495 4.297220 10.352732 0.107223 11.770169 -12.906070 -8.717881 -3.975250 1.802824 8.503289 -9.634425 6.741009 -1.647671 2.567731 -7.698326 0.184928 -15.873348 -1.624328 3.307288 0.476544 -7.235752 4.391200 6.346030 4.261566 12.743974 7.594003 3.607022 10.909533 -1.846545 -5.509536 -5.904334 2.958049 4.585281 -4.563869 -0.103314 4.115570 0.075593 -13.335923 11.893898 -8.685967 -5.895444 -4.503054 4.305171 9.697385 1.392553 2.454438 -2.556741 7.132514 9.075994 8.347532 -2.607473 -6.379481 2.987007 -13.509356 -6.837078 12.948096 3.556810 0.366872 9.548111 -5.011615 -7.197694 2.321776 -4.246240 -1.680621 -1.801838 3.246673 -8.079315 -7.607006 9.422048 6.107626 -3.773858 7.402308 -3.659779 5.784536 1.531935 4.815845 10.699263 -2.654576 -9.702707 9.296177 -8.958600 -8.233468 3.393562 -0.290951 2.396887 11.031945 13.150782 -1.965346 -6.477042 2.335925 -6.560509 8.358304 1.513896 1.452803 -5.579138 -9.761274 -4.468558 -15.432154 9.405103 -10.748855 -1.667724 7.509553 2.613237 -0.926957 2.399390 -8.775222 -10.528441 -8.942188 2.130268 8.852076 -8.148027 -10.018865 0.967949 2.631683 -3.731061 7.250878 -12.402568 2.673924 -2.108490 -7.967948 -0.894146 5.064596 0.103162 -6.977498 -8.396005 10.935693 -2.539379 -20.407640 -0.396329 -10.045117 -8.673064 0.630140 5.705240 -5.767133 3.228806 5.975274 1.063826 -5.739233 -5.784081 -13.882195 1.184600 -1.611294 -3.326241 -10.957312 -12.644154 3.860150 9.077895 -0.481109 10.472859 7.628608 0.403780 -11.005285 8.803102 -7.006684 -10.618966 3.405468 -13.509330 9.686919 14.529019 -2.181330 -11.068264 13.227980 1.414998 12.547421 10.442189 4.753547 -10.098548 -14.668346 14.175545 -7.705259 -2.230605 -5.338130 4.112018 2.815599 4.389412 5.175853 6.048305 5.325616 6.512061 -5.498334 4.543295 -8.257411 5.608388 2.562481 9.881432 4.277841 1.210678 2.640414 -7.330273 3.420732 6.283264 -5.189486 3.441596 -2.423682 10.604548 5.460545 -1.129819 2.190575 2.226204 0.926158 0.977683 -6.243948 3.866057 -3.061032 -5.538327 6.918517 -1.537537 -4.879714 2.770495 1.036826 4.509096 2.551845 -7.576937 -7.435481 -6.853490 14.999235 -1.118445 0.723991 0.196419 9.212533 8.126537 -0.240415 -5.244089 9.453271 7.048298 2.409848 1.447351 2.890225 -1.981220 0.718477 -9.805398 -4.768859 -13.268559 0.228876 0.308088 -1.614358 7.845608 -4.818681 -3.614424 -8.109845 -13.842322 -11.340669 0.830740 0.150984 -9.579934 0.320302 -17.249155 10.361814 4.811719 -8.003314 -2.793631 -5.087330 -12.496926 1.016764 -8.023490 15.896442 -11.271254 -8.773816 -3.340324 3.722156 -5.397286 -3.095504 -5.612150 0.671921 12.530408 1.146953 -6.897810 7.979069 -5.212249 1.017799 -14.935394 8.539975 -1.294512 0.049916 -4.678103 -6.655042 6.685790 6.645173 6.513584 -6.282463 -3.043292 7.629004 -9.249738 1.759634 5.917636 9.774366 -2.471326 -8.266217 5.548721 4.116293 9.382506 1.613978 -9.607460 -0.623933 1.431824 -5.430691 -3.504916 1.370707 -11.208008 2.415936 -7.738489 -0.985063 8.235991 -7.979183 6.519720 -5.636710 1.826237 3.074712 -6.519660 5.493076 -1.637354 -6.697982 7.208682 -2.933575 -4.654279 -4.454237 -11.643991 -9.896192 4.939330 -5.730839 -8.937973 2.157102 2.847667 12.331720 8.286981 -4.655306 1.020833 9.454036 -4.726447 -0.220144 -1.972709 -4.984831 2.708364 6.778238 4.401238 0.150298 -5.224097 6.568580 0.273897 4.699728 3.973435 -9.859757 -3.966604 12.213134 11.048987 -2.279288 -3.426696 -7.695700 -17.470091 6.695214 16.569534 2.478334 -0.762389 -0.570479 4.153771 1.296506 5.682880 -0.611699 5.253524 3.179104 -2.945707 -1.892300 2.371400 -0.575385 -0.804723 1.722136 -7.061343 7.871298 -5.343576 -4.418540 2.588626 -13.846256 2.075079 -1.652681 2.096480 11.381356 1.594951 -8.286884 9.221938 -8.175618 9.370514 4.882552 -7.105426 -7.687433 -6.712311 -4.655156 -0.437255 3.481326 9.383577 0.227701 0.613074 -16.773460 -17.069748 10.865490 -12.285260 -7.009062 4.961577 4.241068 -4.116578 -1.254969 6.527354 1.600731 -14.137576 1.620940 -3.421763 -6.990831 16.189322 -1.427123 -5.159025 -0.473556 7.581941 2.019809 3.100055 9.216079 2.852201 -8.976508 1.782303 2.238353 15.466822 -0.483018 11.365175 -4.196273 4.510026 -1.257539 3.477461 -16.386267 13.453141 -3.225168 -10.343832 -15.230659 -3.869403 -12.878929 4.230921 5.862511 -3.662899 -9.775279 4.642918 7.265326 5.371704 -13.104885 3.629024 -5.505457 5.296463 1.992608 5.371302 -11.490481 -9.670266 -3.280685 1.700888 -0.439654 -6.593017 2.062165 12.562000 -5.675099 -3.029811 6.342875 -1.420868 0.233232 4.005609 8.937675 1.163142 -12.386516 -4.559328 -9.517592 -3.169905 8.519194 8.264543 7.221158 -7.077878 2.525732 -5.195080 2.739779 -4.990407 -7.406660 12.651906 7.500244 -5.058635 12.168466 1.531615 -0.762274 -6.071218 -9.112575 -0.661233 -2.310709 8.679210 6.183641 2.334177 5.796730 -4.685244 -3.680881 -1.837223 2.285405 3.806777 -6.076518 4.909725 9.005190 -9.071309 6.415790 6.342542 -3.597300 5.238283 -6.078512 -0.378717 -5.807756 -14.583785 -4.357481 10.729919 -9.926702 0.762161 10.591285 0.838605 -10.787078 7.148388 10.699857 3.820036 -1.315897 0.868254 -0.247702 2.145568 2.827788 0.909624 -8.972851 1.635177 -6.827121 5.238060 3.479672 -4.550358 1.061527 -8.339744 3.563707 -11.057649 0.005458 11.594243 6.631682 -3.123514 2.820428 9.935517 3.050676 -12.947976 4.581424 -13.480330 4.202825 -9.915898 2.911208 8.044204 -12.997019 3.227680 12.478723 -3.939343 -6.249314 -1.586985 4.781360 9.340769 12.952404 5.234922 -9.981999 -8.638617 -6.700558 -15.523872 -0.552284 -3.621413 4.778018 -5.000921 3.297530 -3.890395 10.130461 8.121473 1.940767 -0.976878 1.467479 6.951151 6.127605 -4.511532 -12.066109 2.989194 -0.583596 -12.278564 -0.793533 9.110897 -4.815784 -2.929958 -0.247080 -1.359573 0.407344 -4.630777 7.629233 1.112072 1.913001 -18.240662 -12.842147 8.705741 -5.130944 -4.057051 -1.222732 16.681105 0.034964 4.815539 0.532478 -11.740164 6.597310 -5.535951 -2.476664 -0.788426 2.476713 7.311921 8.709225 3.580014 0.735017 -12.235397 8.070244 4.270623 -8.475822 -7.245640 -2.826942 6.972275 13.596201 -5.005314 13.359079 -15.301592 14.157912 2.766399 -0.510877 -5.460515 -2.866537 4.326992 -6.923776 2.172745 -4.956496 -6.479601 -1.246217 6.269955 -2.944829 8.092651 8.624278 2.764539 -5.496880 1.246230 -0.353945 9.938037 5.582571 4.831019 6.537910 -4.616265 4.499363 -6.021891 2.122770 3.836533 1.004020 3.154911 1.317625 -7.747939 -6.765367 -7.761113 2.066107 9.616627 -13.771952 -6.749984 -4.357263 -7.207861 -5.466482 15.044058 -6.668774 -14.592282 -10.245792 -6.946920 -2.034269 6.711737 -2.396227 -13.968238 2.796395 -14.845735 12.940793 2.266507 -5.078297 -2.664323 2.852919 -5.476162 5.907044 5.843740 -3.724808 0.199280 3.213924 10.544496 1.002743 -2.083505 10.554950 4.580246 14.666134 4.840542 -16.710335 13.104944 -4.800680 4.241329 2.890453 -8.656035 2.799734 -9.371410 -14.223561 -2.709320 -0.765884 2.949409 -8.329802 -2.042652 7.559258 -1.987650 -4.930422 11.898724 -1.594256 6.888009 4.364236 -10.250858 -8.686754 1.292875 -12.021115 0.853399 2.523124 6.110908 10.299274 6.096871 2.014209 8.574762 2.280968 -4.820652 -1.415134 -4.904744 -5.504088 1.346588 -5.952056 -8.017860 3.218888 0.504382 5.190408 -13.699679 -4.607166 3.860577 0.976071 6.971270 -5.021766 4.100305 15.009709 10.084670 -5.525147 -0.365178 -9.751622 -7.333293 -4.107426 -13.064655 -7.160423 -7.549616 11.358704 5.757713 5.324712 -1.152344 10.900409 1.756120 -3.321752 2.332373 -3.956444 -8.714576 -1.096034 -10.144576 -6.078092 -6.561714 9.542590 -3.127337 -10.664187 -0.586207 -4.330894 -15.870828 7.192529 5.410061 5.892835 -12.179335 0.613710 -0.891672 -9.775643 -0.703171 4.294962 0.666418 -1.917980 -6.230753 -5.286941 -9.124484 4.237415 7.279896 -6.997199 7.560517 7.180588 -0.705740 4.464138 -12.323479 5.332180 -13.626909 9.522058 0.905091 -9.512842 -12.107786 -3.946614 -0.531580 -14.481215 -3.770741 12.996698 7.717519 -7.139249 -0.456463 -4.830439 -17.314676 9.336985 8.244656 -5.435534 -0.051217 -4.970679 9.728117 12.187046 6.655236 -6.198618 -4.337490 17.945164 -10.594030 -2.565044 5.905107 -1.492588 1.760434 13.217045 3.796277 7.869057 4.307440 -11.248992 -4.132813 -3.770125 17.854099 6.797817 -4.913554 -6.980137 0.895499 -6.520751 3.555877 -6.070036 -16.704969 -2.526882 11.302617 -5.142028 7.951518 3.396393 3.108022 -12.069859 -3.471446 -1.914471 0.603452 -2.999183 -14.233352 0.322155 10.603262 0.924035 -2.248365 -6.400174 0.888099 -5.987382 -13.582789 0.567636 -5.195292 12.077470 1.470691 4.993138 4.087757 -1.471226 -4.913053 1.989226 13.668031 -11.292253 -0.648503 4.160088 6.652620 3.795056 0.775282 -1.999525 -9.729086 -13.593990 -2.590381 -14.774502 0.284864 3.395308 -15.566618 6.129512 5.110536 2.184257 -11.578793 2.547056 -9.667957 12.880413 3.747497 -2.176157 5.617876 2.264330 4.318454 6.602539 -8.998464 -7.831246 -5.348435 1.546794 3.968741 -13.380311 0.374716 4.380720 4.056520 0.698879 4.414667 -3.532616 6.282981 -6.431229 -9.019998 3.060831 -8.771248 2.824784 -4.424418 -11.473588 11.544851 12.782078 1.416492 7.039441 0.349849 10.960721 2.171523 2.300012 -0.338538 13.649559 -6.119747 0.322129 -10.312201 10.850688 6.151352 12.130905 5.178246 -10.417057 -0.355258 -5.292741 8.588139 2.559652 -10.392119 7.613883 15.492266 13.478808 -6.877715 -0.553994 7.029736 -3.389672 -4.878061 9.122973 -8.508921 2.332590 7.093767 -15.322245 -6.501626 -8.571078 4.053708 10.778045 -10.306505 1.247420 -3.232006 -7.631308 -4.705177 -7.434088 -12.783752 4.737626 -1.387007 -11.294086 1.876950 -4.752500 19.758581 -6.004313 -2.518674 -3.525727 7.467479 -1.620815 1.774413 -2.128376 2.269671 4.810974 -9.193932 12.214193 -7.525747 -0.204148 -3.570502 3.274176 -6.836147 -2.920267 3.730153 -0.552665 14.367216 9.940678 0.521097 -9.826225 7.919412 1.613418 -9.985610 -6.632051 12.769209 -6.810941 -0.789466 15.309388 7.687594 -2.646513 12.237399 4.778552 -9.630095 5.339936 -0.409566 -12.203749 6.673687 -0.188693 -4.738091 -3.295086 3.981491 -5.614061 -6.186600 8.731774 11.358380 -13.671039 -8.608923 -1.410049 -5.164889 4.254227 -0.274329 -3.321705 5.815583 10.418839 -7.692425 -3.978123 0.965744 4.778166 10.486380 3.754107 -1.208411 0.916091 9.056856 -13.214156 -12.085271 -0.442925 -10.694510 -8.292710 -2.978014 8.474800 -6.018835 -6.640471 4.337656 -6.400788 -3.330492 12.004615 16.646383 -4.590595 8.996115 -11.667905 1.314071 -3.699563 3.837549 -4.708569 0.767615 -3.967263 6.986145 -6.083210 -7.069705 20.882383 -2.651321 8.576111 6.049854 1.928600 10.767959 -5.432246 -6.298265 -2.264709 3.486399 5.746542 1.649288 4.317376 3.162859 -11.867966 11.296814 7.984700 5.872906 -7.683138 5.649187 -2.254914 -1.268507 -5.251541 1.261765 -8.735548 -8.454427 -11.100256 8.806016 9.189088 8.401348 8.468785 -3.690146 3.153354 -0.701920 7.932498 -6.785995 -4.449505 -4.420714 -1.200078 9.172180 11.347792 -6.786347 1.804471 0.859660 3.440814 0.027999 8.162221 -2.619224 -0.283242 5.461902 -13.486150 5.624588 -11.494344 0.752340 -1.020903 7.953541 11.344993 1.012164 8.162186 -14.223273 5.338794 4.155046 8.195364 -1.007068 -2.550583 9.839378 11.575674 9.939881 -2.069305 -1.405660 8.737634 5.437253 -1.694715 10.057386 5.193974 -1.305188 -1.292593 -8.504477 -0.686468 -4.719884 1.955857 -7.243243 -1.126882 3.377563 7.979559 4.536105 -7.850652 6.953972 8.434485 -1.157904 -1.649679 -20.189865 -9.384392 -4.487941 -11.338799 -8.841299 4.036009 -1.308631 2.494606 6.547160 -10.689433 -5.515923 -0.258777 -5.328239 5.767486 2.232466 -8.394712 -0.372746 6.065381 -7.765241 2.054264 5.845955 -6.245374 13.336841 -5.931606 3.900016 -4.055982 -6.549682 -6.841620 -4.973668 0.236972 -10.980962 4.616029 -1.574797 -7.638077 2.517148 -3.213903 0.832110 14.805185 -8.144932 6.373153 -3.705288 1.737789 1.295707 -7.568612 0.872006 -8.349331 12.184361 7.898087 -1.109417 7.678660 -0.409743 16.108458 -11.842764 1.419103 3.853548 1.101562 4.026178 11.702033 6.677363 2.114856 1.344365 8.469049 1.971353 -8.967919 -6.684798 -5.137583 0.068005 -6.278365 8.779229 -1.856070 -5.747271 4.879852 -0.187689 9.068592 -11.373689 -8.232480 8.849376 -1.626735 -8.007861 -5.217569 -13.462214 -0.033910 5.053758 4.551283 -10.162318 2.829403 -2.224197 -2.542732 -4.899287 -1.643997 0.778926 -13.038713 4.392184 3.543828 -1.319578 -3.595810 -5.026664 11.353512 8.187841 -0.511895 8.775805 5.218117 9.089376 7.526496 2.812954 8.287666 4.425589 5.421981 4.093694 4.106665 4.969508 6.151967 -4.029345 -1.186319 11.499224 -7.744912 12.158694 3.051571 2.359750 8.937527 -7.295652 5.931738 -7.940157 -10.254019 8.730267 -4.838760 -15.348207 1.417145 -9.059516 -3.019799 0.315636 2.465458 -1.603906 11.969720 1.560778 4.758749 0.152569 12.755576 3.374573 -1.751304 3.705813 6.885897 -10.829940 -2.821242 5.438848 -14.952254 -5.029502 -12.576333 13.272681 4.089702 3.200335 2.672737 4.382541 13.967733 -13.472609 -4.619065 7.595668 3.270478 4.475505 2.669812 -0.697567 9.173700 -5.156826 2.075456 -1.974874 -1.770465 -1.112442 -5.827739 -0.749457 -2.153752 11.321941 1.249260 -11.651749 4.892047 -5.714466 2.130935 -11.157050 -4.646615 1.042522 -3.138807 2.645966 4.389329 9.299536 -12.018052 -8.328413 12.402067 -4.364509 -4.663958 2.753907 4.487626 -0.464558 -0.092244 -0.388837 -5.921427 0.413661 2.203457 1.631214 11.235173 11.949458 1.331187 -11.179953 2.106568 -2.782366 -2.514265 -7.033883 -9.257330 3.028702 2.076796 -12.878805 -5.907477 -1.602687 9.890412 0.939523 -2.082453 3.304412 -8.951193 3.865909 6.971750 9.081139 3.083979 -12.964578 0.287777 5.312911 -5.016262 2.561509 -4.173418 -2.282288 -8.167019 0.024240 11.538110 -3.258479 15.744492 -7.260897 -1.824454 5.458127 -1.697570 8.992369 -8.041573 0.173420 -3.602625 9.290169 -12.740230 -4.107084 14.641758 0.884299 -12.167403 -8.303204 0.182989 -3.136263 10.547308 -7.076019 -4.130417 -1.128498 1.412767 2.039657 10.820122 -0.273483 -4.979031 22.233929 13.504860 -5.795380 -1.894742 5.635822 4.389543 3.813230 6.838218 10.732792 3.664350 3.766572 -4.654163 7.704235 -15.982664 3.610024 -8.341716 -3.108895 4.168304 8.901508 0.460056 -2.224783 -3.023464 1.067708 12.375481 10.642990 -0.876086 -8.017079 -1.746757 -9.495426 -1.696113 -15.561234 -0.373526 5.856559 -2.714004 6.760968 4.005360 -2.310496 -8.267399 -2.724097 4.203851 -5.738079 6.246083 14.224920 -5.289123 -11.798337 6.789173 -7.393694 7.114140 -10.473949 12.396677 15.580364 7.835919 -7.692254 3.523563 8.078171 1.284887 1.347853 10.957706 -5.628207 2.047672 -6.256213 -3.606505 -3.974159 8.530088 5.730577 10.926340 13.162786 -3.515974 2.925119 4.548669 -12.594957 -3.726514 6.723068 -0.216559 -6.153556 2.338624 -5.365769 4.915090 4.476160 5.896166 -17.609426 1.917912 6.009439 9.319809 14.110559 -4.463363 -3.638218 1.746923 7.086002 -3.303908 -4.031725 8.693269 -12.119988 -0.410212 1.015160 -1.478536 8.005969 -10.939737 -8.874765 4.377156 9.735464 1.628647 -10.680851 -11.910924 -7.483421 3.072829 5.146414 2.732756 -3.422315 0.796057 -4.220444 3.190029 2.977781 1.301306 -1.597594 -1.757628 7.037096 -3.435798 3.416610 5.368563 -1.767470 4.326447 -2.912648 -1.531119 -7.106311 -10.098797 18.507441 -3.213312 -3.426827 3.112934 0.144718 -5.667560 6.202400 -8.248912 4.865034 -14.739648 3.372480 -0.674862 -0.295382 -3.425990 -11.900501 -2.683311 2.459778 2.192967 -10.239608 -0.706582 -2.450759 5.627752 -6.667280 1.645065 -6.251763 -0.029682 -3.724004 -1.609833 7.394373 3.659509 -5.914968 -1.706561 12.179781 5.188071 -5.942575 2.528354 0.320565 1.673260 -1.228471 -3.532060 5.353181 -2.188958 -3.875711 0.372223 6.868513 -2.491972 -1.438643 -2.822346 -0.014849 0.750967 5.407327 -3.147632 -4.654551 7.505878 2.332908 -5.096999 3.205143 7.028944 0.387965 5.787871 -9.653886 7.415996 1.051557 -3.514030 -2.373650 3.553734 -9.624792 -4.811049 11.233983 -12.212462 -2.215707 4.871313 -8.456903 10.203307 -0.545272 -12.496612 2.486901 -2.603920 -11.396651 3.726851 -7.310797 10.625261 4.071623 -5.062497 3.329452 -11.489743 7.785150 -3.151779 0.137981 6.497794 9.809690 -3.945400 1.910198 -3.650594 -3.813755 -7.426845 -9.763171 0.428009 -7.514888 13.330317 6.772028 -9.142748 -2.480108 -3.406120 -2.060906 13.427901 0.092275 0.055762 -1.847194 13.865921 -0.596499 -4.146435 -18.152533 -0.111306 -16.906160 4.611095 10.627158 -1.277629 -13.411880 -5.164643 4.465858 2.612771 10.395820 1.772805 11.227077 6.979344 10.974813 -5.131822 0.335355 4.210568 0.622717 -3.482044 2.193628 7.172312 -5.462134 -4.722410 -7.731426 1.740579 -2.581008 5.870713 3.012158 10.535844 -1.561069 -5.021792 -1.070781 -6.071839 7.024322 4.127928 -7.124606 -2.950974 -3.946767 6.263524 0.020471 7.118536 10.015962 -3.355518 -2.870580 -7.262105 4.307693 3.688449 -3.979367 -3.924827 -8.297271 -6.391893 -10.407640 -12.217792 2.375362 11.358923 -8.999026 4.915417 -5.505850 3.895495 -1.393761 -1.557485 11.770864 8.135090 -4.866157 -11.597631 14.913360 -9.060452 -2.437358 -12.670489 -6.442785 7.073628 5.696086 -1.010472 12.051226 -4.862204 -1.434203 6.933425 -8.378696 -3.514684 1.312296 17.271702 13.468128 10.269531 -4.420444 7.872299 -8.850188 13.872898 -5.107708 0.355043 2.361769 0.533212 -3.084905 -2.816975 8.024455 1.678880 -0.978175 -2.339975 13.891680 -6.937570 6.870289 3.011630 5.408581 -3.520337 -0.021874 2.878927 -3.003493 -3.911545 -10.882864 -8.031247 5.101915 -3.626565 16.001629 -3.047266 4.271008 -4.093841 -2.121899 -5.529160 5.556678 10.505890 -3.498978 1.982660 5.493173 6.629123 -5.536099 0.640921 -10.109078 12.066497 -0.677964 2.600529 -13.404724 -0.397782 0.102656 -2.419207 4.900671 12.634854 -12.709910 -2.664925 -3.891812 2.422434 0.304954 -5.405069 -9.402542 0.867079 0.217826 1.427227 10.887787 14.896199 1.947494 -7.194182 3.823941 -7.193249 8.519953 -7.533502 15.005735 9.855292 -4.072073 -8.397712 1.163471 -3.561906 -9.713724 0.619948 6.494341 0.656567 0.164172 -3.664577 -4.363187 14.100055 14.764339 -2.204333 -8.524393 3.311812 6.914495 10.554869 1.170218 -0.720558 1.054935 -0.707704 0.550351 12.999881 9.447717 -6.256117 -8.518711 -0.750877 -1.577917 12.176273 4.261568 -10.164762 -5.323480 -0.384439 1.725834 2.579753 10.298084 -1.703170 13.176023 2.282172 -8.829605 -15.727409 -14.618854 -6.042495 -8.156128 3.246419 -1.338415 -8.426805 -4.194391 3.021223 -16.610176 -1.252058 -6.039785 -2.946306 4.757045 -3.018065 -5.598423 5.357056 -0.931988 -7.328418 -7.873270 -5.464835 -2.329922 1.101313 1.568321 -5.076985 -11.139654 -7.684841 -7.785836 17.937365 3.799025 -1.655337 -6.230175 1.063623 -3.260027 1.074097 -0.164682 1.062747 -2.290381 0.395546 -1.351117 -1.234689 -1.427459 5.545881 6.834101 -5.001553 10.550318 0.689000 4.761746 6.502029 -4.779865 0.026514 -17.080521 -7.265905 7.579916 -4.806845 12.910998 8.015545 -4.244860 -4.055380 1.980363 -8.559379 5.681594 -2.434833 -13.217213 -10.466064 -5.018945 -2.144972 10.221479 4.941815 -5.633405 2.000152 9.744728 6.848075 6.835101 1.539364 -1.923405 -2.766315 -0.484408 2.218652 6.806456 4.773994 2.872641 12.660292 -11.785241 0.378055 5.770181 3.375335 -1.745606 -3.007280 3.945906 -4.981780 -7.865437 -3.411695 11.302344 -4.653701 -7.216187 5.174043 10.479894 14.698487 2.368399 2.817483 -10.883126 4.880892 -8.800277 6.063213 -3.875429 -2.426806 15.391316 -10.303894 9.294546 6.716238 5.696751 -2.759124 1.220168 -2.382912 12.230277 -1.507846 0.174580 -5.396250 -1.451828 -1.992696 1.178387 8.037711 0.365718 8.433351 1.029761 -6.210183 6.031825 -1.427197 9.388412 9.378097 -6.904541 5.359315 12.305988 4.592062 5.150339 10.021193 -5.839081 6.611152 -8.676652 -1.200712 -6.062520 7.376365 -11.062134 -0.812172 5.148980 9.599468 -17.072149 -0.909823 11.627814 2.263897 7.657380 1.219530 -9.270141 -1.391076 -0.563026 -12.059390 -3.160806 10.048757 -9.959139 1.464740 5.755576 -15.802470 16.905970 -1.157709 4.169323 9.032244 -3.831517 4.791085 10.489732 3.662045 -12.352281 7.098023 9.805238 -0.101087 1.540738 -0.454483 4.677904 -0.926868 7.851607 -9.759237 -4.095974 4.290876 -0.629868 -0.600074 5.799172 2.309284 9.662598 4.244798 -4.511168 1.888062 -9.242294 -8.030955 -1.308549 -0.041363 17.660597 4.139636 -0.117154 0.040435 4.414274 6.801123 -1.055083 -15.337312 -12.357348 -5.917801 13.688450 13.039088 9.408113 3.661428 -14.408439 -3.166936 17.007637 5.045222 5.065559 13.506203 -8.322809 -5.914446 -8.086221 -5.480480 -4.664878 6.161349 4.005363 -10.999611 -6.667512 5.093467 -0.335899 8.012225 -6.690246 -2.925023 -13.925660 6.672745 -11.816863 -13.732612 1.278519 14.864945 6.967359 9.360242 -8.220498 -8.450975 1.914561 7.724013 2.176625 3.021992 2.358804 15.522510 5.529245 9.006823 14.168904 1.971591 4.771538 1.050201 -0.068543 -3.703634 13.610922 4.972917 -9.650625 3.893385 -2.400152 6.253576 -15.105103 9.061049 -16.573503 13.173297 -11.046348 -4.902353 -1.960381 -5.799725 -8.717928 1.152472 -2.864309 -5.950078 -7.788882 13.263587 4.461686 11.714355 1.488828 -5.136454 0.636945 0.507737 -0.615464 -1.963505 9.350906 5.231778 13.671397 13.133955 -2.674794 -9.817158 -4.613206 1.334861 1.544825 -4.692984 0.420256 4.283336 -8.997341 -9.102736 -8.832566 4.972044 3.451404 -1.899431 1.590327 5.868484 5.511825 -14.487484 -2.903196 4.274565 -9.536637 3.336563 1.696642 0.908522 1.522185 -2.727359 -5.315808 6.895890 -0.265276 -7.694047 -10.333789 5.382109 -4.968924 3.902582 3.971824 16.902719 -9.724780 -2.651699 18.575779 2.936439 -4.450161 -12.997360 -2.931129 -7.753871 14.314675 -2.961622 -6.077260 -2.998450 10.814409 -12.276832 -6.651393 -3.298998 6.665232 3.760783 -8.253663 -1.117408 3.903609 3.040595 8.802703 -5.052876 -0.483674 1.224390 4.762086 6.720756 14.811422 4.154252 -4.663669 -1.376843 6.443267 -4.262716 -12.672132 4.034143 -1.876017 7.547629 1.550346 -5.856477 10.086712 -12.796669 3.965911 -3.821413 7.626618 -0.155578 -18.113199 2.496406 -2.272146 -4.273343 -2.711802 5.001986 -5.128693 0.521697 -2.452214 0.583210 2.517228 -1.059867 2.308436 -5.116148 -0.179393 -10.037612 1.874463 -3.923698 -5.644853 -7.798493 2.544158 9.347505 8.154356 -6.207314 -8.508828 -10.313625 16.713890 -13.898222 -3.974113 -4.283610 6.392004 -0.290082 -1.123244 1.151444 -12.822226 0.741985 -2.521305 -7.799498 -7.018101 4.881969 5.094862 1.404832 3.725195 -4.812573 -4.109481 -3.673975 -14.667377 3.678943 -6.351628 -0.431328 -14.984184 2.054744 1.545443 -4.611193 -11.564777 6.726701 1.246886 1.119225 -4.951720 3.431597 -10.909431 -5.758013 12.723806 3.148993 4.684206 -7.910806 -4.116050 5.706278 7.127032 0.855800 -6.963368 -5.437126 10.530779 -11.666273 -8.268285 -3.790367 5.349603 -1.757808 -12.009511 10.106232 13.586062 6.468353 7.813040 0.636243 1.075330 -7.991238 7.736891 -5.806898 1.533332 -2.439049 -3.103668 10.029780 -5.472895 -6.241570 5.686865 2.125536 -5.440824 -10.672322 -4.896123 -1.807374 -13.697971 -4.008547 -14.327642 -4.636608 -5.731944 9.188107 7.293179 7.731420 -0.220277 -12.691472 3.581658 -2.929943 1.242116 -6.406995 6.081670 -17.050976 -0.842891 -1.624872 -0.469143 10.525022 3.172447 0.732539 -2.447441 -2.349129 16.412874 -0.950463 10.940001 -12.022636 -1.500686 -0.964439 3.720622 1.093061 -4.496876 -0.007304 -11.485511 12.604746 3.931999 13.504421 -1.075357 -3.013083 -0.489843 6.509140 7.140390 3.620356 4.235978 0.569157 11.953874 8.023498 -4.852054 17.644331 -3.399996 -7.188679 3.140268 17.597893 0.659819 -0.749704 -3.931894 -12.008029 10.622690 6.030308 3.094891 1.505788 2.342960 9.366553 0.938579 -6.020211 7.775177 -4.302850 -2.692097 -15.615298 0.363849 -8.322431 -5.289669 -4.158877 5.418773 5.197339 0.705193 9.079617 1.103092 1.223881 0.933000 3.928731 1.265061 9.103522 0.514065 1.862465 15.678555 0.548399 -4.088596 13.801139 6.812444 -3.874081 -7.179296 0.355209 13.055686 1.817336 11.203862 5.963724 -11.445112 -0.478809 3.268277 6.995259 -4.592159 -0.711275 -9.872727 6.016950 8.730116 14.402788 -8.388047 8.663720 -1.528137 3.868624 6.701395 4.872474 7.814456 5.903359 3.883508 -1.167849 12.168132 8.292260 -7.580428 -15.245376 -5.033310 -12.258957 7.494307 -9.121510 -1.009328 -1.063709 10.182920 -12.258057 9.618402 4.406050 2.807612 3.884702 0.547397 6.568282 -3.588595 -3.715364 -7.602363 -1.983555 0.491908 2.230833 0.630959 -12.684148 3.492634 -9.153616 -3.044390 -1.859531 -6.486408 -2.842505 -9.516313 6.611702 -6.044489 -5.830961 -1.243361 6.035576 -10.425211 -0.952265 -0.186058 3.922077 5.549207 -10.391513 -3.542912 5.170165 8.190802 -5.525975 5.458476 -2.438342 -1.833211 1.739048 7.597033 9.803641 -4.140654 -10.034994 5.351015 5.798674 3.829699 -9.792062 -14.223676 4.502376 11.217543 12.291939 0.889605 -0.855627 0.410670 1.455009 -16.054031 8.293001 6.403338 -13.587806 2.687577 -7.932120 -3.045115 -2.368662 -0.994165 -7.683209 -5.366226 -4.422266 3.286012 7.840647 -2.011004 -7.504487 -4.256564 -1.074028 -3.762276 11.473571 2.892918 9.208537 7.396189 -3.427136 13.643882 6.478605 -3.257736 1.243099 -6.097786 -7.800514 -11.021572 -13.465789 -8.566914 -1.210816 4.022137 -1.013195 4.725242 -9.488306 3.181968 3.406625 -10.460749 -5.902747 4.315551 2.640550 4.382370 3.112076 -4.486647 -0.635564 -3.569176 5.940055 -13.245891 -4.369761 -3.819364 12.030543 10.235566 -7.045192 -5.536120 8.967060 -0.235510 8.606441 -1.672660 -10.627281 9.782360 -0.348241 -10.053450 3.526844 -3.076271 5.910494 2.409950 -2.473277 7.047102 -5.969407 2.084337 -10.190513 6.344717 4.036032 10.645916 -4.057598 1.003431 -5.346062 8.093613 -11.167974 -6.714747 5.671460 0.071590 7.746942 7.855880 -3.482558 -0.717934 4.331929 1.364671 -2.802809 -6.950269 -1.496155 4.740792 -16.335035 -6.945877 -0.326892 7.653641 -9.590740 4.360428 -3.894036 -1.990003 -0.232204 0.552631 8.126429 1.893127 0.928512 12.657986 6.533537 9.532829 -18.843397 -11.299177 7.088638 8.846931 4.538116 -3.735125 1.376680 -6.073231 -6.765447 2.508617 2.186445 4.118677 4.955567 11.712545 -11.177667 -0.857327 -6.660484 -6.570552 8.514665 0.227568 -0.422676 -11.374210 -5.165379 3.196982 4.170943 1.372674 10.846147 2.986588 3.822690 3.017740 9.625086 -4.278326 4.243207 -0.163162 -9.613691 -7.977698 -3.547075 -3.714140 -4.123633 0.750491 2.554026 2.994608 5.690748 -6.230922 -10.424155 1.747187 -1.697308 4.301360 1.313036 -2.284678 -4.364716 -9.354482 -2.349646 -2.965441 -0.792797 -3.006107 -2.259632 3.413673 -4.563595 10.315387 -1.355483 4.510434 4.058152 -5.317243 -2.408602 -7.261003 8.293117 -2.397791 -2.826612 5.779220 -0.071995 -11.006753 2.021978 9.571411 7.409994 -3.023910 -5.865895 10.477629 -5.588734 6.154240 3.619817 -8.692081 17.678217 -12.304299 4.360655 4.443625 -1.032757 -3.016308 3.711484 10.582438 3.950850 -3.931756 1.196807 8.218489 -0.242544 -0.989883 3.007251 -13.638161 9.192899 3.450423 -13.522940 0.635749 6.608649 6.085633 2.790559 -0.518965 -11.601978 0.082303 9.076613 5.461176 8.921929 -3.232692 -1.567495 12.445662 7.614676 9.310719 -0.985257 -10.768304 -0.677040 -6.318075 -4.976562 9.245748 -3.031975 2.040279 -1.668281 1.923627 5.379356 2.506458 -6.111166 1.362766 -0.623597 -2.636055 -10.587441 10.205062 1.448283 -4.083802 -8.547744 -5.939864 -7.555777 1.777931 12.197087 -9.312512 -1.123276 -9.299497 -0.292881 -10.366180 6.312429 -10.860424 -11.680793 9.511377 -1.869067 10.031143 4.460124 10.256150 -5.352525 4.400629 1.430879 -6.169070 2.520913 0.535341 -3.453300 4.202014 4.080353 3.060606 4.483567 -8.802049 -9.400114 -3.082567 4.579706 16.369516 -0.281796 -0.145990 -2.613785 -3.299613 -2.991112 -12.548627 2.607650 1.104202 -9.189067 4.540553 -0.686905 4.923017 1.083806 2.978148 4.640186 0.102383 -8.417036 5.479315 3.128412 1.432212 -6.885058 6.102537 0.816570 6.225520 -1.136557 -0.272372 0.317002 5.777130 -12.082376 4.598583 -15.730771 -0.156879 15.877804 6.750319 9.226788 6.757667 0.050079 -2.811733 -5.039731 -4.849092 5.470849 9.579863 -5.063335 -12.806497 -1.578403 -5.730735 -9.739038 -8.881840 8.163786 8.674633 -12.550195 8.719969 -4.438291 -14.607067 -1.026125 -2.824737 -10.237632 2.281952 2.062202 3.063705 12.160804 7.427921 8.376874 0.456345 3.702151 -2.286242 -3.448979 12.287146 5.378622 8.648881 14.643910 6.133627 3.044852 1.806922 -13.658105 7.041677 -4.976675 -2.286088 -7.439022 -2.053291 2.765968 3.686492 4.787177 -0.141896 -5.857531 3.112500 -4.434239 -13.554712 -12.380336 9.347355 5.150915 -11.630660 8.229176 -8.686837 -5.462461 4.190245 16.431040 -8.357954 -11.740664 6.030781 7.699050 -1.775699 9.606339 -1.094758 -1.332466 -4.837843 -2.426504 4.274301 -2.781276 -4.559729 3.935460 -14.902987 1.606176 0.319547 -1.480797 -11.801995 7.389515 1.614382 -10.799183 -5.516493 16.419397 -11.882522 -9.440719 2.164174 -7.085253 2.068669 -2.014959 -8.339964 -1.392318 -2.237988 12.061990 -10.376046 4.922942 1.682448 -6.008839 -2.705673 3.263752 -13.894810 4.497811 2.064288 -10.617788 -3.184461 -5.695195 -5.020049 -0.996417 -8.084675 6.066310 -6.859324 -8.144887 -2.796062 12.206856 2.114459 8.709867 9.030961 -3.788139 -0.232582 -5.098656 15.150266 7.256982 -6.164743 5.379828 5.632956 -2.220173 -3.303402 3.244685 -4.317677 5.084256 -5.331048 -3.270654 3.378549 -8.040236 11.512422 -3.076482 1.050394 9.726529 3.143086 5.781439 -9.016873 1.708023 0.379863 10.718178 -2.757194 -2.287205 8.328044 -13.438408 -4.111551 2.042572 12.286641 11.573945 -8.427522 8.174839 2.535874 -0.884833 9.819199 4.760110 -4.709857 3.786155 12.145180 -3.949276 5.074993 -0.458651 3.403065 -5.030527 -6.561312 -13.287257 5.561143 2.462418 -1.196408 9.488842 2.033994 0.255479 -6.037233 -8.237310 -5.545888 -5.952571 3.610814 -6.805007 7.258932 -2.076486 12.683010 3.041735 1.341915 -2.235501 -10.236642 -10.959803 -3.055940 -10.040003 14.281557 7.774108 9.201332 1.261401 -5.474211 -5.415432 8.404978 -0.080656 8.068960 -7.937393 4.554769 7.163850 -6.054386 -3.342478 -0.803674 -4.017339 -0.633714 -7.342781 4.715783 3.007441 2.043382 0.180890 15.090890 1.446374 -6.035776 -0.058215 -7.811494 10.124114 -11.601756 -8.064806 6.741396 -8.225606 -2.986471 5.264081 -6.609698 0.977527 -1.854442 8.193500 -9.716978 13.748693 11.207139 1.925511 12.186232 0.269798 -3.650231 1.636010 -7.334332 -0.231013 -11.821523 0.237894 -3.763665 13.186419 -9.315222 8.346457 -2.827492 -7.457041 2.889953 -3.727010 1.278441 -2.839191 5.934334 1.887717 0.908891 -4.840037 -4.409964 -7.417259 0.243261 -13.997147 11.163179 8.301785 -0.431144 -0.546047 -2.227023 0.219576 7.818420 9.547321 -2.747615 -6.403760 -10.032082 -3.248123 4.405230 -1.205777 -15.008190 -6.329810 -0.311032 -1.166211 -2.799535 7.335454 11.759819 8.553512 -5.252431 5.333599 6.132776 -9.325130 11.351356 3.616869 -0.460317 -12.850648 4.323591 0.805966 3.863530 18.512144 4.961683 -4.045424 -7.727031 -2.621436 9.780128 6.080204 10.860970 6.124218 -0.041237 1.320979 -10.712746 -4.137627 -13.384926 12.954296 -3.102247 -6.298307 5.970323 -3.589114 1.033762 1.065257 -9.339427 0.116878 5.405772 -2.487416 -9.032488 -11.798634 -11.839171 -1.332607 -6.909734 5.725245 -0.335335 1.035911 0.179637 4.851475 1.146064 9.477413 3.925422 -12.731594 -3.257844 -5.876247 1.114462 11.215154 -6.996079 13.326031 13.539956 5.734494 2.258476 3.844137 1.823650 -14.079608 12.636657 -9.983267 -4.836203 -10.025753 7.866350 -7.249443 -2.633474 6.451439 15.011525 -12.277279 -1.362847 -6.767970 0.893841 10.998658 17.583298 -6.296161 0.319477 2.675246 -5.855525 -0.172500 9.642340 -6.240768 4.651411 -4.383681 4.383393 3.893565 2.773456 4.592871 3.575766 15.200442 -15.985159 -4.093106 7.859385 -3.870490 6.621955 -5.012819 2.574904 7.598782 11.637905 7.248147 -9.212645 2.907420 -0.789818 12.932901 13.997318 -1.346335 -3.497951 11.114806 9.472987 -0.869360 -1.509732 5.700413 5.260624 8.823181 1.229374 -0.969502 7.339780 5.831240 3.018815 2.490306 -6.630192 1.116663 4.985445 3.402988 2.591774 -0.276076 0.339333 16.882013 0.201908 0.781997 3.577647 -7.042974 2.118696 2.348940 5.022373 -2.397794 3.350948 7.933988 8.243253 -8.536344 -14.358315 2.933662 4.150797 -8.967150 2.103225 -4.988985 -8.594990 -1.880930 3.469555 9.460717 5.882949 10.182894 4.219182 -10.676696 4.943532 1.972782 -4.971555 -6.865904 -10.577685 2.175153 -8.492758 2.357287 -5.695358 -5.910131 -5.494359 9.416910 -0.618720 -1.901696 5.936378 19.450893 -3.615263 -4.022901 8.864223 13.799276 13.423679 8.035389 -10.017486 -10.896866 -0.341437 -3.600297 -11.289022 -1.898164 9.947688 3.275264 -18.650221 -4.736674 -9.288583 0.923223 -13.052720 -5.227290 -12.400687 2.962904 -5.202677 -4.548127 0.305627 3.918743 -0.357842 11.116932 -4.494532 0.549348 8.850348 1.866388 7.843456 -3.852879 6.216671 -5.228476 6.666491 5.260677 1.991205 1.674070 -4.449779 4.249762 -3.253777 -4.632757 10.931546 -6.653791 5.641346 6.879493 -2.792116 -11.286499 0.565553 -2.320350 7.662865 0.496542 5.042905 9.782043 -1.248094 3.700484 3.707556 6.353918 -0.222468 -6.907294 -0.760082 -3.703634 -16.091248 -3.999312 0.303194 1.335413 -0.271904 5.670045 -13.411691 -3.769860 1.572305 6.215545 -4.094388 -12.407608 14.606859 5.587272 0.916666 -0.132119 -7.784669 -0.757635 -1.590892 6.391654 4.419820 -4.442661 6.288673 1.679272 2.372152 2.644103 7.313326 2.944607 2.915023 -8.732629 -3.464963 1.508616 8.166204 -4.249027 10.151820 4.879163 -3.701795 -0.939967 7.120264 -3.484640 -0.057435 -3.295001 6.238537 -2.005886 -5.593021 -6.645947 8.382417 -2.411703 -2.342384 3.163835 -4.239129 1.263955 1.377465 -4.899495 11.848612 -12.191947 -5.115286 0.008230 2.655191 1.946864 -5.058549 11.123682 4.363890 11.838271 -1.214818 -5.068865 12.406585 9.969129 8.930779 -3.307225 0.798987 -0.409480 3.204142 -5.944099 2.751774 9.097048 -4.076766 -0.686835 3.789225 -10.957363 -8.547602 9.454932 -6.911154 10.354986 -2.755129 7.445552 -10.318899 -1.446399 0.909718 2.635445 -1.537211 -7.468884 8.574017 0.071704 4.208546 5.842706 8.499400 -9.453693 -0.457765 -5.834054 -6.049454 -4.120778 -2.240769 2.566279 3.445275 2.703698 0.246770 -3.604551 -5.562552 -0.278185 -3.398396 12.082703 1.321133 -10.150739 5.897615 -11.663178 0.722927 -0.667104 3.740188 8.874219 -5.361969 0.024049 -1.789429 18.411982 -4.356887 2.041760 2.204490 -6.095419 -7.616291 -5.661941 -2.095019 3.557184 0.982247 -2.444433 1.572620 -6.705796 13.444815 2.767209 -12.925014 2.054585 -12.742138 3.060362 -5.854722 -1.761908 -7.024277 3.182726 -2.556558 6.696826 1.313756 -6.796438 1.670874 7.069365 -8.758386 14.714598 -7.494102 -1.340178 2.646504 4.883673 20.691788 0.942588 -1.707594 0.371694 3.490397 12.131824 1.508701 -12.196779 -5.604455 11.977592 7.443823 9.843405 3.402426 0.471330 -5.172964 -2.587008 3.057026 -11.103156 -3.124427 -14.736183 -7.526193 -1.278222 -2.503288 -7.945189 1.890631 -2.848343 7.583255 18.066725 2.447104 11.771058 -11.449358 1.553043 -9.491602 11.777616 -2.780369 -3.520930 5.497089 14.861527 1.705150 12.476755 1.220135 1.400547 3.603092 5.138772 7.165052 -9.555464 -1.249540 4.736260 -3.608874 8.516466 3.875344 -14.225653 -5.156425 4.153145 0.345510 5.986814 -6.182677 0.023879 7.215090 -0.282075 -9.635301 10.055837 2.041257 -0.440491 0.626625 -7.110049 
0.812530 0.955577 -0.004583 0.585842 -0.583816 -0.716160 -0.558903 0.554122 -0.308741 0.816557 -0.117005 0.964616 0.272868 0.238752 -0.690008 0.024424 0.767815 -0.140657 -0.361189 0.237679 0.381021 -0.641969 -0.157307 -0.841721 -0.320479 1.485864 -1.029585 0.326194 0.161518 -0.691989 1.531051 0.025596 0.173387 -0.212061 0.373433 -0.053146 -0.735650 -0.116589 1.130303 -0.455431 0.018220 -0.706701 0.939855 -0.412050 0.554347 0.419143 0.074622 0.441546 -0.304189 0.204367 -0.379012 -0.969330 -1.115931 0.117502 0.458412 -0.839819 -1.633118 1.107704 -0.462717 -0.924849 0.137478 0.332527 -0.018469 0.548986 0.296381 -0.454413 0.332577 1.167516 0.296389 0.419264 -0.779806 0.285511 -0.135638 0.794545 -0.957373 0.312095 -0.472297 -0.993556 0.015197 -0.837493 -0.543653 1.001207 -0.484306 0.529911 0.433021 -1.009539 -0.599537 0.460845 0.321012 -0.664446 -0.640913 0.415188 -0.972215 -0.313668 -0.034974 0.959113 0.141775 0.675995 0.959053 0.137624 -0.457782 -0.684414 -0.198551 -0.189049 -0.808381 -0.102691 0.610653 0.002860 0.913408 0.580781 0.216421 -1.289922 0.822196 0.105124 -0.553065 1.129424 -0.315115 0.003296 -0.855748 0.179685 -0.695218 0.904602 0.010369 0.466039 -0.194114 0.630994 -0.288246 -0.940228 -0.808426 -0.671381 -0.388197 -0.274498 0.533632 0.363783 -0.652277 -0.765488 0.521489 0.499057 0.551766 0.864103 0.367066 0.524945 -1.155241 1.011775 -0.654994 0.439010 0.579632 -0.517423 0.546051 0.570160 0.719266 -0.416865 0.360453 0.100470 -0.525977 -0.078175 0.932567 0.211105 0.608532 -0.468031 0.383019 -0.059102 -0.552839 0.431613 1.426117 -0.854347 0.585145 0.069272 1.760206 -1.468366 -0.305558 0.338152 -0.671009 0.663295 -0.299058 0.847932 -1.899426 0.034898 -0.275527 -0.685332 -0.224567 -1.182191 0.080261 -1.117461 0.387721 0.977300 1.330135 0.366479 -0.489647 -0.821211 -0.527170 -0.506864 -0.512898 -0.162459 -0.262779 0.697294 0.775530 -1.891934 -1.228572 -0.504084 1.313592 0.483638 -0.552228 -0.485895 0.183103 -1.187207 -0.821562 -0.979334 -0.584231 -1.037986 0.073089 -0.051747 0.086057 -1.072416 -0.722674 -0.955198 -0.564122 -0.034594 -0.034511 -1.137599 -1.753596 0.032760 -0.559532 0.221173 1.422235 -0.233038 0.734158 0.612478 -0.030901 0.238710 -1.455862 0.953771 -1.505974 0.771844 0.349289 0.351205 0.875830 0.726467 0.787502 -0.205222 -0.984140 0.031228 -0.272142 -1.378406 -0.900232 1.405901 -0.941239 -0.856268 -0.934545 -0.288154 -0.817608 -0.556188 0.588655 -0.154765 0.382081 -0.061754 -0.162355 0.384979 -0.149745 0.082395 -0.522339 -0.458966 0.725405 -0.711753 -0.251071 -0.123252 -0.076358 -0.385831 -0.713422 0.016679 0.369366 0.630771 0.418205 -0.413725 0.174758 0.590536 -0.770911 -0.522282 0.392233 -0.501397 -0.267444 0.358362 1.354337 1.791233 -1.268708 -1.510403 -0.410386 0.443980 -1.221380 -0.689846 0.260332 0.199909 0.433349 0.093633 1.195619 -1.446815 0.133053 0.427514 -0.601261 0.900344 0.570422 -0.522723 0.514377 -0.370831 0.233134 -0.717430 -0.432712 -0.480640 -1.566167 -0.616871 0.151167 -0.146844 -0.036300 0.829626 0.512069 -0.038863 0.441319 -1.279952 0.631129 -0.362267 -0.332697 0.844921 0.280126 1.186206 -0.682600 -0.145166 0.603350 -0.936717 0.815650 -0.489079 -0.618135 0.493023 0.086937 0.187378 0.394037 0.312344 -0.142177 0.773968 -0.291652 0.000842 0.434453 0.777946 -0.323855 1.422520 0.636374 -0.612101 0.921460 -0.813671 0.810210 0.556505 -1.378075 0.037834 -0.184780 -0.009823 -0.263008 -0.298434 0.336785 -0.168142 -0.498228 0.675838 -0.265376 0.231131 -0.197576 0.431205 -0.324221 -0.101866 -0.031710 0.519053 -0.600254 0.827203 -1.178086 1.052106 -1.113390 -0.642133 0.236956 -0.325471 1.426959 0.475910 0.246594 -0.376998 0.199287 0.468574 1.105420 -0.105641 -0.309614 -1.124171 0.257969 -0.825620 0.366553 0.589224 -0.227216 -0.800492 0.277569 -0.194827 0.330383 -0.972067 -0.126683 -1.136496 0.868196 -0.171078 0.602214 -0.864486 -1.046209 0.039040 -0.944643 -0.764481 -0.079608 0.695497 0.876789 -0.527288 0.874544 0.168547 -0.045713 0.194519 -1.002136 0.240359 -2.077943 0.026215 0.108944 0.300764 0.467368 0.435098 -1.081471 -0.078169 -0.462815 0.586441 0.699153 -0.538581 -0.338905 -0.591800 0.491678 0.875218 0.420186 0.068932 0.411017 -0.594911 -1.162957 -1.290749 1.294980 -0.777842 -0.361435 -0.310669 -0.987938 0.252269 -0.926236 -0.880818 0.485379 0.387891 0.408605 -0.888344 -0.579758 1.004325 0.449318 0.626917 0.019568 0.216471 0.310319 0.147290 -0.907097 -0.416909 -0.556583 -1.574227 -0.290135 -0.203234 -1.561775 -0.448278 1.135522 -0.293089 -0.007599 -0.314963 0.805895 1.039425 -0.349629 0.034209 1.052766 -0.240635 0.559158 -1.329110 1.134692 0.818258 -0.002343 -0.864732 1.348678 -0.097082 -1.194170 0.115849 1.557981 0.311469 0.169300 0.332559 -0.398182 -0.108439 0.079913 0.986099 -1.304018 0.281630 -0.167216 0.705721 -0.618671 0.422823 0.749867 -0.041446 0.543185 0.824678 -1.070815 0.405482 -0.402398 0.529175 0.931743 -0.414650 -0.465493 -0.835211 0.667046 0.462529 0.229438 0.579381 -1.025853 0.020139 1.193044 0.146338 0.729298 -1.163446 -0.293254 0.414568 -0.780748 -0.032205 0.769626 -0.561619 1.033942 -0.671037 1.460343 0.096405 -0.986154 -0.835562 -0.429611 -0.061487 -0.048187 0.725794 0.064140 -0.334189 -0.170075 0.791186 0.040615 -1.775838 0.085969 0.619453 1.410208 0.555900 0.582833 -1.179468 -0.217919 -1.090020 0.609015 0.063868 0.648617 -0.527899 -0.473879 -0.063630 0.378176 0.199398 -0.635002 0.320926 -1.477410 -0.304450 -0.964915 -0.083764 -0.648495 -0.200808 -1.227006 0.965761 -0.423521 -0.568900 0.959419 -0.866486 -1.118568 0.361267 0.258019 -0.688968 -0.454908 1.062845 0.704274 -1.752032 -0.190405 0.158243 0.675786 -0.238221 -1.036124 -0.452855 -0.794650 0.407345 0.708276 -0.565973 0.757852 -0.509214 0.036970 -0.813156 -0.264621 -0.014682 -0.197109 -0.453358 -1.341423 0.453809 0.803522 -1.633477 -0.969047 1.035802 -0.095818 0.249942 -0.078834 0.067970 -0.360864 -0.719125 1.244971 0.180197 -0.090835 -0.466528 -0.179253 0.465541 1.346512 0.042992 0.089118 -0.170737 0.780832 0.324598 0.913928 -0.561241 1.172940 0.414419 0.239633 1.210569 0.896959 -0.535031 -0.433288 -1.352902 0.692234 -0.595243 -0.240955 0.628690 0.138647 -0.775626 -0.028756 1.166480 1.346992 0.462991 0.238524 0.897487 0.413388 0.020738 -0.595409 0.639703 -0.301906 -1.270510 0.006524 0.821798 0.593416 0.172739 0.132341 -0.682944 -0.560193 0.333172 -1.129466 1.490070 -0.090003 -0.067933 -0.540004 -0.577811 -0.670529 1.343644 0.406429 0.352064 0.444857 0.304600 1.073073 0.354926 0.129310 -1.475482 -0.725665 0.939501 -0.297554 -1.133542 0.403426 -1.264611 -0.365715 -0.154167 -0.961000 -0.583975 -1.250272 -0.232230 -0.824056 0.543589 0.404749 -0.515126 1.206759 0.305455 0.932856 -0.700596 -0.223303 0.463840 -0.455152 0.604110 -1.164370 -0.917194 -0.513163 0.638671 -0.772169 0.541088 0.927996 -1.244471 0.740968 0.851429 0.450127 -0.326574 -0.564345 -1.293392 -0.683750 1.019279 -0.743679 0.729932 -0.128967 -0.779989 1.177919 -0.578838 0.444053 -1.657707 -0.133991 0.245262 -0.481114 -0.008140 -0.057877 0.379841 -0.762385 -0.499125 0.397482 0.493049 1.035225 0.050326 -1.121796 -0.247286 -1.169425 -1.247665 0.419982 1.422918 0.077304 -0.179722 -0.090013 -0.418748 0.133011 -0.315467 1.054087 -1.121669 -0.862371 0.142436 -0.077994 0.878841 0.003295 0.317174 0.744888 -0.178794 0.635937 -0.468329 0.094300 -0.422445 -0.312729 -0.194371 0.145884 0.995364 1.548829 0.383211 0.510306 0.836644 -0.030968 0.198830 0.152013 -0.361057 -0.848918 -1.207266 0.305775 0.590285 0.228836 -0.819612 -0.352743 0.691575 0.702509 0.820965 -0.325675 -0.832167 -0.197291 0.299271 1.612606 0.529999 -0.068719 0.198026 -0.666150 0.947388 0.974879 -0.303623 -0.223277 0.115047 -0.524016 0.303730 1.678417 -1.234163 1.653381 -0.546485 0.693841 -0.927153 0.992736 0.975169 0.093452 -0.089661 1.015670 0.720852 -1.150850 0.752898 0.611536 -0.986908 0.406564 0.133917 0.304618 0.223022 0.783676 -1.720618 0.742108 -0.596737 0.361581 0.605829 -0.275357 -0.069875 0.330884 0.054031 -0.321150 0.813027 0.318690 1.411073 -0.317669 -1.322831 -0.236631 0.525515 -0.520769 -1.012346 0.609304 0.196563 -0.474520 1.221670 0.441898 -1.678645 -1.108984 -0.439232 -1.026981 -0.080523 0.112121 -0.603859 -0.826385 0.059929 -0.067434 -1.243236 1.008264 1.044812 0.023807 -0.526176 1.024489 0.205771 -0.110080 0.508186 0.216054 0.540290 0.062720 0.157805 0.267844 -0.458509 0.425451 -0.599833 0.157192 -0.551840 0.293188 0.259550 0.284621 0.322395 0.092099 -1.225065 0.318426 1.081568 0.476428 -0.345458 1.077115 -0.215956 0.475760 0.362007 0.652945 -0.751571 -1.060374 -1.031336 -0.197097 0.485858 0.561999 -0.234586 0.358196 -0.790430 0.164358 0.033663 -0.400402 -0.977367 -1.353055 0.600313 0.877150 -0.516697 -1.035410 -0.560541 -0.241233 0.507347 0.390341 -0.379423 -0.841593 0.446518 -1.437091 -0.565015 0.028935 -0.279914 1.371446 0.110089 -0.967355 0.789088 0.698527 0.123602 0.109369 -0.351668 -0.751245 -0.088415 -0.264260 0.536072 1.338121 0.049558 0.750089 -0.552607 0.633949 -0.519188 0.554027 -0.422832 -0.112509 1.297035 -0.890733 0.021451 1.094107 -0.872439 -0.819050 -0.255646 -1.110726 0.339566 -0.821360 -0.636568 0.686479 -1.082388 -0.756104 -0.266423 0.824358 -1.238903 -0.237108 1.549007 0.121719 0.409313 -1.176162 -0.795452 -0.234935 0.742635 0.245600 -0.926932 1.041311 -0.827307 -0.140806 0.053580 -0.435153 -0.922741 1.011884 0.521606 -1.295375 -1.130606 1.189782 1.195693 0.679972 1.334058 1.012275 0.117311 -1.282328 0.192624 -0.782433 0.099156 -0.685851 0.859815 -0.233969 -0.650334 1.532409 0.891739 -1.162790 -0.142044 -0.306424 0.434216 -0.362673 0.703027 0.505064 -0.931496 -0.010114 0.206515 -0.499007 -1.106621 -0.020524 0.543887 -1.056891 -0.485938 0.160568 0.942489 1.190941 0.212939 -0.191596 0.279202 0.919624 1.115982 -0.148714 -0.161032 0.076756 -0.016465 -0.855432 -0.822865 0.148631 -0.889427 1.158658 0.225242 0.160409 -0.470920 -1.313419 -0.095997 0.883246 0.156485 -0.319308 -0.664750 1.213836 -0.033662 -0.176148 0.242660 -0.184313 -0.572078 0.219600 -1.809403 0.157774 -0.024899 -0.657891 0.225050 -0.344993 -1.297309 0.543936 0.877882 1.015166 0.600720 -0.684733 0.282499 0.329003 -1.063177 1.010871 -0.510253 0.322559 0.402630 -0.903287 0.403994 -0.148060 -0.057662 0.748850 0.981164 -0.479530 -1.138104 0.309136 -1.136119 -0.936770 -0.001344 -0.329832 0.372772 1.044133 -1.313294 0.768863 0.340699 0.088751 -0.860819 -0.251463 1.131499 0.652185 0.094680 0.331613 0.450642 -1.422237 -1.300561 -0.756134 0.868896 0.587149 -0.781762 0.308606 -0.532169 -0.807008 -0.662972 -0.188159 0.619484 -0.526906 -1.378932 -0.583200 -0.477469 -1.139030 -1.057575 -0.207478 -0.819471 -0.766324 -0.226391 -0.509946 -0.845807 0.408600 0.842485 -1.265450 -0.149404 -0.345057 0.420554 0.602503 -0.537244 -0.493051 0.462962 -0.230518 0.818692 0.446686 -0.406148 -0.920079 -0.060337 -0.481562 -0.548893 -0.009234 -0.003633 0.005594 0.582698 0.958948 -0.798347 0.490304 0.849896 -0.404919 0.996614 0.092299 0.355473 -0.343659 -0.626563 0.077279 0.488586 0.185372 -0.248398 0.435352 0.298035 -0.185837 -0.298325 0.881501 0.279509 -1.009221 1.315306 0.032103 0.530244 -1.032839 -0.921525 0.699824 -0.367336 0.649234 0.266694 0.408248 -0.520743 0.875803 0.172836 -0.265841 0.249551 -0.706438 0.638783 1.075999 -1.556236 -0.380501 -0.303198 0.762120 0.230408 -0.347318 -0.758720 1.311954 0.133020 0.696892 -0.401799 -0.734523 0.299259 0.250972 -0.975043 -0.455051 -0.430876 -1.083588 0.230270 -0.400973 -0.344690 -0.331053 0.713958 1.125566 1.941321 -1.050563 0.112327 -0.225333 -0.510833 -1.254021 -0.342287 -1.215158 0.521287 0.021139 1.002978 -0.492053 0.550187 1.177930 -0.165505 0.495786 -1.235681 -0.572132 0.476347 -0.254541 0.349458 -0.721887 0.070846 -0.222775 0.073958 0.913330 1.119015 -0.448631 1.001865 -0.141864 -0.788807 -0.830485 -0.883746 0.224809 0.275292 0.916320 0.308879 0.209833 0.252416 -0.772157 -0.355703 -1.031695 0.345069 1.849871 -0.464449 -0.342455 0.134377 -0.317312 -1.204576 0.003756 0.658753 0.445093 -0.102036 0.769268 -0.209484 -0.912797 0.659850 1.366317 -0.644688 0.571016 -0.522259 0.746330 0.383697 0.844683 -1.117620 0.287381 0.946231 -1.424056 -1.184910 0.243475 -0.450257 1.122252 0.585944 0.750171 0.934021 -0.045171 -0.273210 -0.199669 -0.266635 -0.007604 0.513577 0.462919 -1.330805 0.593935 -0.724044 -0.226575 -0.797880 -0.442452 1.194677 1.036664 -0.347910 -0.842621 1.015465 -0.463919 -0.538595 -0.722952 -0.447669 -0.415470 -0.695906 -0.939799 -0.186895 1.320797 -0.392585 -0.554311 0.725963 -0.423774 -1.030179 -0.524943 -0.313864 -0.309424 0.969281 -0.554612 0.575622 -1.125172 -1.244165 -0.611404 0.000896 0.831161 -0.693981 -0.507170 1.521912 1.547763 0.926463 -1.665098 -0.559945 -1.301446 -0.071719 0.662102 -0.651447 -0.485391 0.629804 0.632472 0.669163 0.592071 0.640185 -0.667147 0.729410 -0.001354 0.524133 -0.497958 -0.769824 0.233925 -0.278051 0.223676 0.530836 -0.063748 -0.532120 -0.554987 -0.562748 0.670326 -0.679248 -0.019324 -0.747641 0.916793 0.440107 0.878790 -0.706281 0.708349 -0.950521 -0.596256 0.905904 -0.374550 0.276464 0.600214 0.473339 0.532673 0.826493 0.203321 0.086212 1.122292 0.614466 -0.647808 0.243015 1.104842 0.983919 -1.294884 0.208443 -0.776851 0.554996 -0.154838 1.638128 -1.446778 -0.167665 -1.932878 -0.310023 1.213618 -0.708733 0.184072 0.538769 1.621895 -0.054119 1.042013 -0.562555 -0.379985 -0.858588 -0.414272 0.082743 -1.128753 0.426924 0.963553 0.155874 -0.925542 -0.110728 0.505273 1.221840 -0.470934 0.174958 -0.593961 0.373984 -0.842255 -0.759287 -0.553510 0.683876 0.272546 -0.111880 0.626416 0.073589 -0.430880 0.373098 -0.608059 -0.124605 0.788348 -0.488113 0.405428 -0.816753 0.310916 1.179130 -0.908015 -0.597417 -0.083201 -0.489255 -0.354292 -0.228431 -0.075480 -0.018878 0.686984 -0.308861 0.130232 1.191080 -0.200196 -0.968071 0.645908 0.764034 -0.405559 -0.429051 0.296177 1.223702 -1.328655 0.114802 -0.170010 -0.069461 1.417954 0.052015 -0.312307 0.914617 0.258412 -0.977589 1.240670 -1.651788 0.189807 -0.724393 0.278056 0.031655 0.162114 1.119482 0.270128 -1.253252 0.246106 0.294385 0.653412 0.061825 1.024894 -0.523147 0.496214 1.134638 -0.238016 0.813566 1.066107 0.468264 0.061619 -0.202436 -0.969249 -0.422718 0.506347 -1.320991 -0.125805 0.155837 -0.128902 -0.012659 -0.248005 0.609760 0.201024 -0.484472 1.508537 -0.658078 -0.223637 0.156127 0.607872 -0.812873 0.632553 -0.980339 1.350597 -1.015162 0.922497 -0.154385 0.472347 0.153453 0.036239 0.019268 -0.475503 0.650909 -1.336632 -0.151642 0.303002 0.182163 0.551615 -0.649542 -0.410191 -0.018034 0.504424 1.140141 -0.329001 0.756603 1.065351 -0.134533 0.547110 1.636626 1.248132 -0.881684 1.626432 1.140583 -0.005322 -0.233522 -0.127999 -0.244297 -0.259525 0.169362 0.910882 0.021661 0.009146 0.379655 -0.341513 0.182459 -0.112801 0.127122 -0.847781 -0.863959 0.397786 -0.111564 -0.253987 0.381763 0.067786 0.135263 -0.109076 0.179310 0.036661 0.592972 -0.367518 -0.353014 0.615125 -0.822853 0.014269 -1.215486 0.418766 -0.003527 -0.573918 -0.064770 0.968936 1.026047 -0.497189 1.105634 0.636233 0.414904 -0.752804 -1.062304 0.009668 -0.112635 0.149945 -0.083748 -0.351518 1.017806 0.847746 -0.720620 1.273251 0.107355 -0.602896 0.464894 -0.588687 0.496161 0.072858 1.100493 -0.499659 0.216182 0.690582 1.279260 2.114511 0.014453 1.005404 0.014334 -0.998140 0.178633 -0.535956 -0.275525 -0.126708 0.182135 -0.025668 0.266533 -0.168532 0.993358 1.273823 -1.152187 0.380872 -0.582572 -0.674651 0.422620 0.674803 0.236548 -0.147431 0.366515 -0.583451 -1.048818 0.375850 0.412924 1.030820 -0.755392 0.754677 -0.534600 -0.460522 0.009859 -0.229016 0.303975 -0.409729 0.708511 0.870969 -0.518221 0.924289 0.121902 1.120422 1.245976 -0.093623 -0.139995 -1.154675 0.667283 1.539641 -1.123489 -0.959671 -1.075249 0.325449 0.226246 -0.598108 0.232059 0.420476 -0.308830 -0.764849 1.059625 1.030998 -1.178286 1.223189 1.193034 1.343489 0.729630 0.030759 0.264648 1.445884 -0.648796 0.224794 -1.178873 -0.314631 -0.702711 0.413700 0.371804 -0.066966 1.188029 0.407397 0.824170 -0.807998 0.773430 1.427618 -0.662164 0.383977 -0.095962 -0.363075 -1.084310 0.239539 0.041661 -0.789079 1.133371 0.394052 -0.359543 -0.307480 -0.780369 -1.106447 -1.296780 0.456529 -0.135907 1.242629 -0.426117 -1.233981 0.375732 1.336564 -0.169020 1.018890 0.222020 -0.179967 1.544559 0.806623 1.186045 0.799674 0.682888 0.614606 -0.046414 0.361720 1.449229 -0.273246 -1.398456 -0.000879 -0.884637 0.844419 -0.165342 -0.287437 0.668215 -1.397139 0.901396 -1.048620 -0.572007 -0.211064 -0.287652 0.051405 -1.110445 -0.316579 -0.342448 0.656317 0.654366 -0.232641 -0.217918 0.886789 0.196298 -0.661629 0.840007 0.388321 0.183054 0.701434 0.692783 -0.324382 -0.092556 -0.963399 0.666430 0.129873 0.232849 0.176562 -0.401465 0.361482 0.051212 -0.250186 1.344908 -0.791816 -0.103907 -0.221659 0.752970 -0.090455 -1.081714 -0.430049 0.863035 -0.634975 -0.118204 -0.316421 -1.056391 0.716189 0.101363 -1.082473 -0.447895 2.001386 1.000808 0.203802 -0.197373 -0.390599 -1.072722 -0.645098 0.273360 0.650219 -0.362245 -0.080530 1.246233 0.813922 -0.447518 -0.909929 -0.057059 -0.401311 0.993346 0.928492 0.258285 -1.121784 0.121439 -0.021926 -0.241354 0.939781 0.297507 0.703174 0.977529 -0.138010 0.180536 -1.241693 -0.789015 -0.142045 -0.071295 -0.470965 -0.692202 0.067844 -0.527409 -0.223053 -0.298735 0.833190 0.904234 -0.537757 0.379769 1.465549 0.821280 1.563357 0.100239 0.732633 -0.050032 0.364174 -0.196794 0.045919 -0.860246 0.844054 0.741427 -0.430052 0.120187 -1.318767 1.076205 -0.751627 0.430991 -1.482315 -0.712270 1.702637 0.025320 0.784484 -0.984009 -1.116817 0.539915 0.572576 -0.044487 -0.637458 1.004766 -1.615730 -0.295200 -0.155220 0.029097 -0.767267 0.669154 -0.218773 -0.629250 0.944427 0.911071 0.417779 0.275225 0.921717 -1.050160 0.391033 1.098924 -0.872922 -0.456247 -0.289231 0.215833 -0.240309 0.057732 0.605131 -0.144159 0.145968 0.094496 0.316380 -1.321556 0.627410 -0.444875 -0.974689 1.204584 0.964712 1.168427 -0.464014 1.469566 0.726388 0.496569 -0.057278 -0.358043 0.031058 -1.454962 -0.679892 -0.094020 0.116647 0.493740 0.868783 -0.112739 0.104689 0.089160 -0.094228 -0.388446 0.718217 0.005711 0.002789 0.343206 1.239886 -0.861459 -0.135312 0.033186 -0.465874 -0.162200 -0.533027 1.205547 0.235248 1.198748 0.177617 0.150415 0.125823 -0.716009 0.044092 -0.197539 0.292294 -0.130936 0.274426 0.429820 -0.255977 0.774721 0.005389 -0.000724 0.421382 -0.803795 0.881937 0.680797 0.080599 0.939278 0.863243 -0.187511 -0.798530 1.781679 -0.612383 -0.238099 -0.785437 0.246199 0.172898 0.884376 0.781290 0.554659 0.956191 0.206201 -1.104827 0.004380 0.153143 0.044487 -0.942849 1.231761 -1.317652 0.674643 -0.245425 -0.315979 0.422294 -1.476997 -0.506098 0.695768 0.531618 -0.535627 -0.546987 -0.468822 0.035465 -0.678837 0.342018 -1.492109 -0.842650 0.273805 -0.621617 0.326244 -0.499254 0.016941 0.422609 -1.348462 1.325003 0.299391 0.619533 0.396572 1.659456 0.150655 -1.385147 0.407510 -0.705025 -0.903890 0.555560 1.149843 -0.145075 -0.239587 0.694975 -0.665214 1.252307 -0.450708 -0.170715 -0.468340 -0.143794 -0.385711 -1.706121 -0.929603 -0.239922 -0.299749 0.435557 0.420244 -0.290614 -0.269984 -0.405921 0.256121 -0.274176 0.401113 -0.838792 1.148811 0.092309 0.118636 0.346758 0.023665 -0.706981 -0.912416 1.636307 -0.150691 -2.052440 -0.172463 -1.298988 -0.373541 -0.418046 -0.082466 0.024083 1.268829 -0.677780 0.657562 -0.966337 -0.661544 -0.292122 -0.845468 -0.293175 0.488335 1.141814 -1.073472 -0.660632 0.111005 0.480453 -0.631089 -0.690299 0.414164 0.661967 0.356727 -0.301950 0.224392 -0.307148 -0.785870 -0.953162 -0.346468 -0.586927 0.703618 -0.118443 -1.849717 -0.469400 0.340161 -0.444070 -0.382434 -0.705775 0.175741 0.637324 0.620067 -1.027747 0.361753 -0.991365 0.249393 -1.375327 0.961776 1.009543 -0.326839 0.584484 -0.347826 -0.898027 0.718914 0.138036 -0.175362 1.050443 -0.902830 -0.099531 0.285661 -0.925111 1.040392 0.510938 1.045396 0.120368 -0.555604 -0.578587 0.967067 -0.044135 0.008511 0.986803 0.621752 -0.655258 0.473238 0.793012 0.193056 -0.501736 0.269777 -0.095733 0.603197 0.155288 -0.941358 -1.228407 -0.394503 0.641913 0.156224 0.552513 -0.400274 0.442789 0.711660 -0.320974 -1.189023 -0.029219 0.724871 -1.155470 0.019515 -0.183290 -0.190976 -0.607879 -1.107123 0.004467 -0.264713 -0.967573 1.468729 0.268335 0.567342 -0.344164 -0.299026 0.272721 0.132561 0.322750 0.538290 0.343639 0.023095 0.247266 1.056317 -0.323951 0.152734 1.265168 0.455829 0.562946 -0.585118 0.000264 0.730189 -0.632379 0.255607 -1.167370 0.102035 -0.977534 -0.569438 0.096490 0.112263 0.328140 -0.672665 -0.081190 0.090647 0.633672 -0.069301 0.289105 0.253849 -0.620110 -0.121350 0.441821 -1.277877 -0.645201 0.066941 0.026592 0.666682 0.693082 0.141811 0.058149 -1.282187 0.539795 0.162328 -0.218971 0.484661 0.397554 0.667871 0.849640 0.674760 0.391010 0.845830 -0.415779 0.540495 -0.618229 0.016698 0.338116 0.419274 -0.222726 -0.025226 0.447943 0.766973 0.618684 0.034343 0.634364 -0.276853 0.325231 0.515350 -0.618987 -0.594672 0.948260 0.692906 -0.253382 0.013667 -0.430134 -0.398217 -0.194453 -0.479127 0.231429 0.316706 -1.265939 -0.535651 -0.538068 -0.552436 0.608957 -0.062829 -0.042646 -0.784620 0.741773 0.471784 -0.432475 -0.243610 -1.097796 0.147648 0.580906 0.289200 -0.753490 -0.730309 -0.964916 -0.896500 -0.217117 -0.729692 0.467791 1.449756 -0.549208 0.946919 -0.442889 0.201934 -0.491413 -0.440410 -1.325000 0.708194 0.863491 1.022464 0.335563 -0.082990 0.683628 -0.807942 -0.249219 -0.533224 0.990559 0.101490 -0.219937 -0.714539 0.848353 -0.519559 -1.107921 0.875185 -0.871538 0.091964 0.766041 -0.129582 -0.462320 0.301964 0.250482 -0.725969 -1.559130 0.755028 -1.069104 0.379806 0.257515 0.007510 -1.582922 0.753679 -0.131311 0.008338 0.661195 -0.248548 -0.401935 0.276295 0.094416 0.223327 -0.808711 -0.093218 -1.062074 0.289119 1.349676 -0.549461 0.456225 -0.350913 1.029652 0.136523 0.000299 -0.130971 -0.625561 -1.427853 0.634542 -0.405888 1.047503 0.085949 -0.548835 0.734746 0.130302 -0.892946 -0.258148 0.408202 1.916877 0.367649 0.771555 1.405254 -0.655011 -0.398924 -0.253335 -0.638730 0.177708 -0.476505 0.610954 -0.799315 -0.136638 -0.600191 0.002377 1.448399 0.300340 -1.199624 -0.288131 0.572463 -0.395321 0.891044 -0.478817 -0.707435 0.755155 -0.294127 -0.002239 -0.431951 -0.087386 0.389177 0.617435 -0.337801 -0.012698 1.158062 -0.286492 0.316902 -0.540977 -0.283171 -0.960948 -1.195870 0.652389 0.192888 0.275893 0.762365 -1.227048 -1.928338 1.115767 -0.292323 -0.230213 0.158305 -0.250912 -0.235901 0.429080 -0.703527 0.345978 1.310098 -0.552688 -0.805348 0.289266 0.088719 0.910528 -0.109094 0.254590 -0.436992 1.105713 0.475028 0.710833 -0.144482 0.424487 0.524143 -0.894622 -1.312796 1.221196 0.173291 0.430704 -0.571261 0.044914 -0.668557 -0.880149 -0.165105 0.992562 -0.606607 -0.292418 0.383754 1.114298 0.103609 0.306683 -0.694959 -0.070631 0.087534 -0.336845 1.134498 -1.272383 -0.313506 0.687792 -0.577619 1.569502 1.042512 0.628808 -0.464205 -0.158832 -0.397602 0.380576 0.103824 0.525303 -0.352400 -0.129390 -0.703722 0.458944 0.110414 -0.657460 -0.152763 1.048921 -0.113972 0.318290 0.657041 0.732652 0.713462 -1.423139 -0.208386 0.750777 0.220103 0.581184 0.681533 -0.278750 0.579540 -0.501261 -1.185593 -0.976031 1.232822 -0.607023 0.797713 -0.179406 0.137848 -1.186711 -0.355234 -0.287313 0.539983 0.505551 -0.785307 0.889865 0.003049 0.067677 0.434406 -0.676070 0.012533 0.130993 0.268190 0.496851 -0.148755 0.303334 0.364697 0.362168 -0.824469 -0.633748 0.118352 0.241870 0.354788 -0.949690 0.170235 1.392555 -0.171750 0.870588 0.240693 -1.133671 0.423701 0.565150 -0.973273 -0.891790 -0.140253 0.292350 -0.004288 1.147567 -0.590659 0.210870 0.113658 -0.517368 -0.344531 -0.065989 -0.362464 -0.616682 -0.111714 0.106423 -0.207289 0.635007 0.502035 0.018817 0.415626 0.848541 -0.311078 -0.936256 -0.298301 0.158258 0.909339 0.964715 0.727238 -0.327548 -1.356434 1.290238 -0.319332 1.071017 0.692673 -0.657012 -0.210582 -1.115103 -0.741553 0.083615 0.723236 1.032816 0.168193 -0.009457 0.471783 -0.395303 0.958179 -0.792860 -0.369739 0.980494 0.806400 -1.008354 -0.381164 0.956438 0.926594 0.029357 0.410477 -0.685524 -0.397648 0.417449 0.235041 0.201068 -0.352149 0.088204 0.448296 0.411406 0.119851 0.568543 0.973896 0.482623 0.113830 -0.332147 0.955277 0.543196 0.059918 -0.026184 -0.232138 -0.531843 1.666677 -0.235694 0.395417 -0.915351 -0.519117 0.855781 -0.242059 0.621726 -1.415832 -0.958293 0.218140 -0.667492 -1.155938 -0.492020 0.822671 0.318273 0.126045 1.225909 -0.652306 0.987919 -0.009747 1.006499 -1.266873 0.439532 -0.165887 0.376484 0.679506 0.108428 -0.301244 -0.362878 -0.648868 -0.048470 -0.971816 -0.675206 0.649580 -0.657454 -0.042627 0.115415 0.616622 0.313302 0.643402 0.571219 0.388484 0.177053 -0.548900 -1.108340 0.264807 -0.221355 -0.219386 0.388301 -0.732833 -1.086869 -0.187650 -0.860750 0.253694 0.452796 -0.096006 -0.467498 0.388431 -0.821211 0.346350 0.730002 0.804649 0.201826 -0.752126 0.004353 0.850594 -1.137041 -0.206246 -0.557986 -0.743599 -0.639023 -0.282223 0.186867 0.364986 0.269163 -0.596181 -0.692413 -0.547206 1.210115 0.665360 -0.564433 -0.242453 0.158776 0.217907 -0.008906 -0.103357 -0.736724 1.004039 -0.659432 1.006703 1.006365 -0.902354 -0.981717 0.071541 0.710710 0.047473 -0.623192 0.223667 0.703688 1.468300 0.633291 0.165805 0.682736 -0.207591 0.194054 -1.202985 0.615003 0.941870 -0.067294 0.533269 -0.239038 -0.535119 -0.521546 0.359704 -0.236562 -1.075289 -0.087163 0.358105 -0.590248 -1.116319 0.313815 -0.750400 -0.615913 -0.227398 -0.184930 -0.239771 -0.932585 -0.085010 0.039909 0.718058 0.025086 -0.795330 -0.859437 -0.093031 1.260512 -0.095351 -0.686071 0.072911 0.421101 -0.130401 -0.657463 -0.367483 -1.656207 -0.811502 -0.785465 -0.707817 0.137553 -0.026757 0.005041 0.741154 -0.370797 0.052565 -0.367245 -1.213930 0.064100 0.716910 0.025462 0.352093 -1.240700 0.430872 -0.968069 -0.270475 -0.560900 0.916509 0.318164 1.266988 -0.561157 0.710771 0.136863 -0.281289 0.226659 0.349471 0.543465 0.001617 -1.006034 -0.169892 0.430319 -0.563886 0.882761 -0.450060 1.906044 -0.733305 -0.940292 0.042216 1.451659 0.895058 -0.906054 0.131352 1.182068 0.793845 0.061609 -0.177349 0.184553 -0.214918 1.321975 0.451255 1.077555 -0.140289 -0.926786 0.988128 -0.467574 -0.837403 -0.277199 0.702253 -0.729681 -0.951435 -0.843163 -0.895339 -0.670744 0.796343 -0.222096 -0.473624 -1.165739 0.874205 0.451742 0.940936 0.133438 -0.527889 0.230516 -0.277095 -1.249071 0.018066 0.476337 -0.760366 -0.035787 -1.220811 0.563464 0.798332 -0.115749 1.143578 -0.088762 0.677263 -0.201729 -0.388741 0.675201 -0.308259 0.892698 -0.891778 0.310438 -0.182322 0.258727 -0.422593 -1.059710 0.651108 -0.068215 0.417942 -0.120659 0.526506 0.608365 -0.342285 0.467715 -0.086228 1.150151 -0.115409 0.659828 1.480378 -0.980676 0.175821 -1.045926 0.238157 -1.361448 0.938582 0.362338 -0.531943 0.805586 -0.180462 -0.336970 -0.541886 1.133461 0.363294 0.489510 0.425292 -0.117272 -0.045609 0.044527 -1.678194 -0.133721 -0.765691 -0.762030 -0.412370 0.761098 0.391948 0.871096 0.275739 1.304417 0.142717 -0.465537 0.299890 -0.806611 -0.479376 0.319080 -0.457376 0.920700 1.237379 1.344271 -0.784108 0.136870 -0.455989 1.345242 -0.296453 -0.209626 -1.076880 0.829792 -0.767800 0.557436 0.000449 -1.001684 -0.208983 -0.103291 0.641462 -0.263358 -0.293087 -0.356803 1.419214 0.399280 1.067852 -0.301678 0.014739 -0.093365 0.886999 0.369757 1.013244 0.479286 0.323541 -0.522969 0.103924 0.683213 -0.041442 -0.475354 -0.660841 -0.660646 -1.105968 1.019123 -0.795279 0.221424 0.955241 1.174488 -0.672557 0.336887 0.562666 0.658889 0.651840 -0.305512 0.247176 0.114113 -1.532414 0.159962 -0.287888 -1.197608 0.417002 0.062301 -0.622988 0.831748 -0.124254 0.556936 -0.310588 -0.065100 -0.364984 -0.826094 1.385296 -0.415418 0.399352 -1.116782 -1.119042 -1.005426 -0.012076 0.124609 0.474777 -0.178886 -1.485891 0.123232 0.787196 0.433266 -1.503886 0.902507 0.273864 0.127051 0.211664 0.138088 0.523310 -0.835276 -0.429601 -0.715225 -0.197668 -0.055047 -0.778239 -0.175976 0.173248 0.565836 0.712767 0.500436 -0.682674 -0.693191 -1.211649 0.138460 0.867360 -0.344926 0.076267 1.342368 -0.134127 1.482703 -0.371564 0.408670 -0.866825 -1.159629 -0.038453 1.908123 0.098700 0.027968 0.586656 0.178728 -0.675265 -0.371298 0.350340 -0.350703 0.998266 0.254590 -0.746196 0.192154 1.001402 -0.089130 -0.514070 -0.195847 -0.131261 -0.980409 -0.516501 -0.657251 0.120621 -0.217224 -1.651315 0.558938 -0.575200 -0.809548 0.213859 -0.738604 -0.074015 0.792590 0.508514 0.215188 0.387047 -0.801260 -0.326481 -0.449490 -0.399878 -0.626634 -0.923295 -1.538607 0.413834 0.125152 -0.043453 -0.962607 1.317042 -0.811743 0.547478 -0.091059 -0.330634 0.660588 -1.125260 -0.781070 0.593836 0.307778 1.813800 -0.505406 -0.011097 0.096370 0.519086 0.270823 -0.027822 0.686781 0.553813 1.130101 -0.725776 -0.008400 0.605377 0.438182 -0.821417 -0.777859 0.013830 0.249267 0.716185 0.256487 -0.359678 0.696016 -0.003845 0.454335 -0.566292 0.707079 0.944914 0.207678 -0.404626 0.375265 0.604438 -0.147262 -1.338447 0.022725 -0.250517 -0.878483 -2.630132 -0.091562 0.243583 -0.154888 1.303044 1.034174 1.404171 0.960147 -0.073050 -0.789856 0.043370 0.818210 -0.059417 -0.424916 0.766395 -0.909267 -0.273606 0.744959 0.034542 -0.611339 -0.447539 0.668818 -0.224768 0.541824 -0.119937 0.117730 0.371655 1.159677 0.618421 -0.856486 -1.087514 0.267248 0.337974 0.207748 0.939859 -0.799494 0.330199 -0.388056 1.210868 -0.361912 1.041546 0.133959 -0.897303 0.694904 -0.060525 -1.190836 -0.250224 0.666228 -0.437964 -0.142958 0.798104 0.441793 -1.049522 -0.554464 -0.532962 0.279860 0.541318 -0.646764 -0.158974 -0.673784 -0.035708 -0.016095 0.618924 -0.805156 1.421561 1.572059 0.296836 0.875823 -0.479578 0.610511 1.586511 0.903771 -0.703101 -0.558420 0.140132 0.437701 0.658878 0.296389 -0.713104 -1.113182 -1.217850 1.052499 0.964575 -1.398442 -0.377612 0.558118 -1.138013 0.083500 0.771112 -0.434915 1.063034 -0.410302 0.523926 0.182122 -0.029669 0.832679 0.365590 -0.042245 1.058032 -0.219766 1.318331 -0.560804 0.479027 -0.777654 0.514915 -0.738845 0.085902 0.056817 -0.544296 -0.530171 0.786493 0.584364 0.705642 -0.907991 -0.335170 1.232413 -0.103255 0.789684 -0.449411 -0.493547 -0.241708 0.014762 0.290694 0.838748 -0.765312 -0.554106 0.404910 -0.302170 -1.146427 0.251358 0.985008 0.701022 -0.696146 0.584255 0.436073 -0.214141 -0.291510 0.643296 -0.422215 -0.965970 0.064518 0.511386 0.639055 -0.946433 -0.183038 0.820661 0.181848 -0.497915 0.192769 -1.473086 -1.627874 -0.191113 -0.889984 -0.646898 1.118238 0.571257 -0.309432 1.037404 0.618472 1.244352 0.520075 0.469482 -1.173636 0.982363 0.855067 0.952677 0.647617 -0.182842 0.185563 0.791586 1.455728 1.332667 0.289072 0.002100 -1.155736 -0.311553 0.865253 0.231937 0.613474 0.503301 -0.956773 -0.157897 0.452678 -0.824096 0.364648 -0.647258 -0.387043 -0.836399 0.975525 -0.215631 0.288089 -0.174741 -0.951341 0.409937 -0.759719 -0.058364 1.145876 0.535411 -1.287387 0.214850 -0.786776 0.389211 -0.111256 0.659045 -1.487146 0.529216 -0.396741 0.466156 -0.206112 0.397048 0.814473 0.783360 -0.099147 0.748308 0.849153 -0.516172 0.140582 -0.520008 0.955929 0.321718 -0.474378 0.144678 -0.228102 -0.111811 -0.064600 0.294225 1.497829 0.814747 -0.858856 0.320495 -0.734466 -0.200837 0.587912 -1.594441 0.431531 0.407938 0.156986 -0.437602 -0.185699 0.473030 0.883157 0.434179 0.682839 0.557596 0.309702 0.017121 -0.516001 0.203063 1.171995 0.872291 1.022085 1.680833 -0.398391 -0.274012 0.029398 0.234838 -1.636545 0.682712 0.918350 0.287414 1.402463 -0.000942 -0.597995 0.215280 -1.000059 -0.472709 -1.163602 0.634479 -1.155485 -0.897727 0.660707 -0.671190 0.675680 -0.080415 0.218607 -0.806940 -0.608114 0.770500 0.112210 -1.235654 0.204613 -0.235072 0.870565 -0.620732 0.334721 0.375954 1.046743 -0.110709 -0.198063 0.177104 -0.505749 -0.957883 -0.036412 0.878464 0.334197 0.505707 -0.475920 -0.749204 0.727655 -0.253269 0.271545 1.471768 -0.323517 0.044758 0.674427 -0.698067 -0.340965 0.918141 0.999913 -1.397485 1.434360 0.822549 0.598208 -0.461356 -0.734101 -0.362643 1.245189 0.117363 -1.495803 -0.147976 -0.572441 0.157993 -1.025412 0.036004 -0.922508 -0.192871 0.021498 0.516082 -0.566010 -0.070853 0.159060 -0.155477 -0.693556 -0.817487 0.962086 -0.429040 0.803571 -0.365056 0.298805 0.026909 0.692552 -1.270034 1.317809 -0.974062 0.725369 -1.228909 0.531178 1.045144 -0.663784 0.715087 1.075673 -0.310031 0.359675 0.200332 -0.090255 0.152606 -0.551849 0.180728 0.201255 0.956552 0.959702 0.891566 -0.236667 -1.400852 0.081313 0.711695 0.286645 -0.747603 -0.539529 0.852010 0.515390 -0.266646 0.085862 -0.763954 0.151681 0.446523 -0.325413 0.146169 0.771729 1.086075 0.028168 -0.724887 -0.914355 -0.608439 0.420358 -0.424233 0.890669 0.624092 -0.524160 -0.075019 -1.091989 -0.025314 -0.632117 -0.418193 -1.530627 -0.490779 -0.503900 0.222437 0.185713 -0.822368 0.449687 -0.847703 -0.482862 0.540892 -0.142475 0.079209 1.126691 -0.321644 -0.614565 -0.943991 -0.350580 -0.683735 -0.687620 0.791575 -0.629370 1.034452 -0.420666 -0.748297 -0.926396 -0.266153 -0.540923 0.671587 -0.452793 0.679172 0.014917 0.162107 0.827081 0.767272 0.055802 -0.104131 0.916224 -0.286056 0.615168 0.067474 0.034700 0.313006 -0.363700 -0.751509 -0.240813 -0.313718 1.199463 0.232888 0.241308 0.191905 0.597040 -0.313584 0.386703 0.212787 0.224130 1.873515 0.339130 -0.911071 0.577750 -0.539694 -0.927266 -0.599635 -0.146318 -0.777789 0.989419 -0.897441 0.829708 0.182660 -0.238756 1.246815 0.180984 0.209990 -0.828270 -0.526836 -0.624553 0.618678 -1.126707 0.451158 0.213168 -0.001272 0.621700 -0.600960 -0.693157 -0.341111 -1.581453 0.174561 1.275286 -1.579284 -0.813964 -0.232400 -0.232285 0.919615 0.745986 -0.381215 -0.297095 -0.094734 1.037573 -1.094801 0.124844 0.905408 0.525734 -0.953936 -0.093317 0.129582 -0.362372 0.521069 0.547531 0.588644 -0.005049 -0.567716 0.118862 0.151095 0.047000 -0.314689 -0.613486 -1.000200 -0.284726 0.662834 0.108339 -0.299270 0.533989 -0.186270 0.086508 -0.476575 0.384508 -0.681377 0.916735 0.298365 -0.410723 0.197782 0.074178 -1.155612 -0.682988 -0.564828 -0.833914 1.359492 -1.143064 -0.296474 -1.284448 -0.432393 0.758098 -0.685998 -0.084073 -0.152102 -0.105329 -0.278968 -0.197215 1.233145 0.203548 -0.693271 -0.231581 1.307466 -0.776919 -0.427957 0.749851 -0.029850 0.757038 0.440017 -0.004423 0.425774 0.497620 0.244335 -0.593489 0.707816 0.163073 -1.089324 -1.116860 0.054152 -0.091257 -1.058993 -0.050733 0.151677 -1.224307 0.318894 -0.265326 -0.249924 0.075420 0.627055 -0.065426 -0.292391 0.097389 -1.130452 -0.369234 0.742293 -0.142177 -0.502433 -0.571394 0.569809 2.029194 0.886817 -0.240689 -0.703826 0.971572 -0.546391 -0.327085 1.152433 -0.937215 0.161514 -1.190061 -0.277553 0.113666 0.107108 0.196075 -0.469003 0.002022 0.346142 -0.091022 -1.050102 -0.077198 -0.374176 0.484619 0.987145 -0.912212 -0.908472 0.569515 -0.539454 1.098358 0.004893 0.816287 1.125281 0.322225 -0.627100 0.599599 -0.462844 0.723852 -0.332585 0.060184 -0.648248 -0.031121 -0.047440 0.510055 0.599212 1.090890 0.253537 -0.697993 -0.550054 1.285743 0.568291 -0.835903 0.166958 0.202736 0.689710 -0.604556 -0.949270 -0.019297 0.369972 0.244026 1.196094 -0.061967 -0.880909 -0.325048 0.703218 1.253695 0.505110 0.860188 1.086751 -0.416006 1.109235 -0.209568 -0.976733 -0.052658 -1.075109 -0.244341 -0.597694 -0.647759 -0.602785 -1.074358 -0.048699 1.017972 0.986098 0.413590 -0.557828 0.748833 -0.002203 0.405372 -0.145552 0.760904 0.671390 0.531194 -0.414101 0.313379 -0.754203 0.931390 0.078441 -1.035710 0.136629 0.759972 -0.662979 -0.603727 -0.037115 -0.621594 -0.632849 -0.278806 -0.733486 -0.259256 -0.150619 -0.834074 0.662864 1.367693 -0.070244 0.320091 -0.268499 -0.897191 -0.416160 0.224119 0.591187 -0.568347 -0.547837 -0.502116 0.294222 0.752060 0.058759 0.127199 -0.878294 0.180473 0.236650 0.072371 0.120868 0.077545 0.476747 -0.297865 1.068719 -0.159621 -0.796793 -0.390003 1.759235 0.267578 0.469253 0.581514 0.866768 0.199019 0.073944 0.129216 -0.720305 -0.809631 -0.847682 -0.606355 -0.271276 -1.646523 -0.918831 1.165887 -0.408264 0.608430 -1.362717 -1.659595 0.986472 1.109627 -0.745715 -0.853758 1.204982 0.791476 -0.627295 -0.248527 -0.742600 0.490313 0.061996 -0.035085 -0.527893 -1.260486 0.477022 -0.612362 0.327959 0.140220 -0.795665 -0.248937 0.488057 -1.184098 0.438774 0.966578 1.106941 -0.208251 0.125059 0.091834 0.464289 -0.792790 0.581455 0.213079 -1.166250 -1.011224 0.096866 -0.829653 -0.563515 -1.474251 -0.099570 0.439588 0.041528 0.778531 0.756515 -0.072444 0.791002 -0.421385 0.656329 0.026021 -0.198837 -0.114709 0.411416 -0.835430 -1.422623 0.959843 0.550411 0.305503 -1.548042 -0.823814 0.732473 -0.056009 0.351093 -0.505330 -0.998778 0.269930 0.997002 -0.538386 -0.462603 -0.101139 -1.914948 -0.440123 -0.417608 -0.377935 -0.122910 1.313084 -0.151186 0.605541 -0.465158 0.286323 -1.371294 0.394616 -0.774405 0.421907 -1.666912 0.022968 0.870298 0.404184 0.242686 0.185221 0.507173 -1.029180 -0.299610 -1.044770 0.125589 -0.248514 0.317407 0.463176 1.020563 0.863421 0.082915 -0.975104 0.226572 -0.564257 -0.429867 0.871562 0.795453 -1.121572 0.144723 -0.827862 0.477355 -0.212345 0.397184 -0.284171 -1.042787 -0.064830 -0.477299 0.211057 0.420242 1.551925 1.718767 -0.424561 -0.457181 -1.708189 0.525418 0.670527 0.127127 -0.050391 0.790367 -0.395888 0.980829 -0.583714 -1.053795 1.085048 -0.340242 0.778754 -0.971617 -1.236675 -0.753659 1.146222 -0.981185 -0.148683 1.168451 0.310217 0.459906 0.470094 -1.062475 0.794907 -0.355780 0.272532 -0.317097 0.485625 -0.045512 0.773974 0.327808 -0.049338 -0.065925 0.565106 0.405946 0.061684 -0.238441 0.253251 -0.259968 0.888541 0.135189 0.827726 0.424663 0.551781 1.665533 -1.087656 -0.499173 -0.643759 -0.732685 -0.898408 0.162625 -0.200207 0.076575 -1.255684 0.960403 0.251146 0.528745 0.549800 -1.000081 1.342065 -0.765465 0.737519 0.122147 -0.828059 0.993594 0.289469 -1.584536 0.382258 -0.226490 0.357741 -0.205045 -0.106297 -1.197745 -0.545003 -0.591465 0.579248 -0.440575 0.246184 0.000252 -1.462267 -0.426300 -0.261372 0.251821 0.565650 -0.523418 1.238857 -0.085568 -0.360121 0.029275 0.015826 -0.268408 -0.672716 1.202674 -0.588010 
0.999336 0.948872 0.577300 1.457837 -0.981023 -0.330865 -2.153789 -0.281885 0.556615 0.877637 -1.159907 1.020025 0.202318 -0.465372 -2.317969 -1.087858 1.219496 -0.154961 -0.284486 0.327241 -0.747660 -0.730128 -0.874168 -0.094871 -1.564448 1.561931 -0.623110 -0.345908 -2.170042 -0.717603 1.733173 1.057731 0.589873 0.499234 0.627704 0.402231 -1.432308 1.814444 1.549732 -0.503219 -0.065861 -0.312243 1.821102 -1.258302 0.058563 -0.514570 -0.367363 0.807447 -1.423068 1.092433 -0.546252 0.295558 -1.254035 -0.300880 1.302830 -1.804065 -1.993117 1.497283 -1.821460 -0.247307 0.259556 -0.387662 0.111628 1.607296 0.749243 -0.892027 1.024742 0.173368 0.010535 1.033867 -0.969071 0.523788 2.238219 0.630634 -1.219047 0.102487 -1.259897 -1.385027 -0.176743 -2.016566 0.083302 -0.283036 -1.403510 2.218294 -0.341568 -1.230614 -1.838410 1.264319 1.045072 -0.933272 -0.907383 0.179151 -2.215704 -1.035909 -0.848568 1.858684 0.677731 0.576369 1.121428 1.036747 -0.762369 -1.320642 1.793298 -0.650092 -0.079750 -0.727692 0.404224 0.012811 1.798216 0.880636 1.679711 -2.168001 1.524094 0.390990 -0.611835 1.032849 1.495013 -0.370428 -0.446205 -1.178078 0.300576 1.131996 2.400423 2.110609 -1.018154 0.209560 -0.293827 -1.492538 -1.177001 0.094693 -0.850190 -0.297812 1.252504 -0.046741 -1.328646 -1.234232 2.120591 -0.963926 0.136661 0.558818 1.089392 -0.365966 -1.943682 0.498740 -2.092896 -1.516387 0.241005 0.488255 2.156810 2.444743 0.547628 -0.923799 1.997152 0.694312 0.487494 -0.718236 0.924044 0.319644 0.366651 -0.009741 -0.253275 -0.927895 -2.489098 0.402887 0.311251 -2.038811 0.144237 2.614527 1.053967 -0.693887 -0.959717 0.183543 -0.347317 1.165014 -0.131314 2.275571 -1.744862 1.410125 -0.263047 -0.895892 -1.056898 -2.175405 0.338239 -1.845598 -0.906607 0.083740 1.988327 0.231038 -1.544490 -0.569462 0.668348 -0.109910 0.015293 -0.594043 -0.082852 -0.402626 1.804854 -1.546000 -1.460010 -1.405878 1.124970 0.903342 -0.948627 -0.853009 1.108511 -2.025463 -1.459822 0.186859 -1.857487 0.483148 0.088343 0.581306 0.163859 -1.924046 -0.025423 -1.167907 -0.509355 -1.071622 -0.948323 -2.251714 -2.996886 -1.255555 -1.021755 0.006012 1.579681 1.473534 0.666327 -0.778109 0.157330 1.673156 -1.568115 2.165244 -0.755617 1.394445 0.589339 -0.325104 0.215748 1.448980 1.270358 0.020955 -1.916411 -0.377096 -2.249070 -1.672283 -1.204857 1.410964 -1.598891 -0.689173 -1.593692 -0.427115 -0.985308 -1.126267 0.346232 -1.343811 0.813026 -0.335649 -0.710480 1.449511 -0.413262 0.829014 -1.171136 -0.123778 2.044058 -1.055943 0.513487 0.742752 -0.767787 -1.411004 -1.222431 -0.021243 -0.889918 1.292386 0.141383 0.366167 -0.356307 0.915137 -0.148763 -1.382442 2.465489 -0.124750 -0.448916 0.729264 1.908844 1.963379 -2.021152 -1.595605 -1.295502 0.131394 -1.994546 -0.331380 -0.923277 1.762737 1.658104 -0.488570 0.842825 -2.169460 0.646740 2.425406 -1.884494 1.700062 1.288199 -2.173159 3.059985 -1.368756 0.353634 0.287786 1.701459 -1.725834 -2.721597 0.145297 0.907483 -0.305725 0.436481 2.670003 1.159167 -0.031754 -0.104852 -0.195722 0.194948 0.209220 -0.214248 0.379664 1.063161 1.007669 -0.869597 -1.313375 1.068219 -0.567768 1.766048 -0.132071 -0.455473 -0.150184 0.703012 1.693769 2.039231 1.032058 -0.371523 0.215162 -0.015865 -0.282368 1.073803 1.400315 -1.478269 1.086875 0.256403 -1.693475 0.343210 -0.777997 0.877779 0.216701 -1.796700 -0.710089 0.628831 -0.899404 -0.773999 -1.034797 1.021519 0.311639 0.024572 0.957952 -1.956556 -0.479408 1.528131 1.383264 -1.073862 0.306372 -0.049081 -0.287851 -0.235476 0.316426 -2.162307 1.738247 -0.985129 -2.481524 0.818943 -0.671275 2.226756 1.958293 -0.707641 -2.941310 -1.241155 -0.367336 2.315898 1.127950 -1.911176 -0.209235 -1.353243 -1.160391 1.691139 0.070008 -0.369072 -1.202892 1.654930 0.527434 1.764880 -2.030982 -0.406129 -2.384876 1.597693 0.272347 0.698167 -1.977929 -1.682288 -0.100122 -0.288343 -0.764453 -0.918321 0.636770 1.800928 0.076825 1.885714 1.655949 -0.497370 0.735876 -1.736847 -1.176251 -1.003255 -1.961552 -0.904562 0.785856 -0.230281 1.259975 0.195261 0.356262 0.332669 1.200029 0.398902 -0.837997 0.258957 -0.867333 1.379469 1.429847 1.612815 0.124531 -0.201243 -0.588943 0.426739 -1.080820 1.199859 -1.655985 0.382322 -1.208998 -2.232292 -0.465427 -1.273680 0.167262 0.961546 0.243151 1.298391 -1.574573 -1.280726 -0.606668 0.816635 0.452263 -1.323671 0.815664 -0.695005 1.114568 -1.181392 1.210716 -2.484493 -1.168600 -1.170424 -2.069083 -1.501277 -1.213876 2.168836 0.109687 0.566295 0.254741 0.267822 1.671797 -0.338203 -0.069259 0.526075 0.228494 0.497047 -2.157383 2.248363 1.816504 0.133925 -2.047640 1.803884 -0.576911 -1.418793 -0.380192 1.327180 0.913561 -0.415903 0.518832 -0.439503 1.060702 0.907341 0.385951 -2.000468 -0.894503 0.828556 0.180156 0.418189 0.147526 0.988706 -0.444666 -0.344625 1.031309 0.388337 -0.061239 -0.553684 0.148525 1.162191 -0.918066 -0.950060 0.344947 1.097269 1.947514 0.624028 1.658294 -1.015134 0.961069 1.681602 1.657437 3.106906 -1.283750 -1.518972 0.355756 -1.803097 -0.999204 1.400739 -1.577277 1.160340 -0.738297 0.582855 1.879408 -0.597177 -1.286201 -0.995052 1.574849 0.204604 0.141150 -0.478647 -1.523232 -0.358837 -0.450592 0.899041 -2.075533 -0.208476 1.342455 1.228286 2.080548 -0.002024 -0.252175 -1.099605 -1.812824 0.163935 -0.067570 -0.412654 -1.124628 -0.506786 0.385466 -0.435288 0.053167 -1.818046 1.329780 -1.750207 -0.397141 -1.375464 -0.324014 -1.453218 -1.543751 -1.390041 0.913641 -0.400515 -1.374915 0.777464 -0.709651 -1.564181 1.055625 0.262620 -1.897525 0.644773 2.300418 2.025615 -2.408549 0.525456 0.084591 1.338439 -1.125074 -0.847187 -0.849132 -0.977718 0.271884 1.701239 -1.247058 0.592507 -0.021164 -1.496727 -1.824187 -1.431856 -0.613756 -0.067729 0.307103 -0.954960 0.503845 0.675028 -1.165065 -0.568029 2.229519 0.598524 1.818427 0.431676 -0.191105 -1.196397 -1.161714 1.282743 0.624196 0.835505 0.220499 0.931647 0.698455 1.419762 0.459953 2.106427 -0.069973 1.318011 -1.061712 0.753793 -0.616854 1.086185 0.285363 0.676926 2.690997 0.028590 -0.744123 -1.184192 -0.769853 0.148713 -0.003110 -0.324049 1.337137 0.807946 -0.021068 -0.292341 1.574648 1.341705 1.371597 0.908483 0.475336 1.045102 -1.364324 -2.217343 1.154481 -0.548005 -1.572906 -1.595832 2.003553 -0.193422 0.662062 0.549756 -2.388608 -1.146370 0.394617 -1.997250 2.130258 -0.203833 0.060271 0.121259 -0.893892 -0.265046 0.534615 2.526206 1.911734 -0.318197 2.417770 0.820167 1.122034 -1.743128 -2.971278 -0.664026 -0.437966 -0.636463 -0.857331 1.680748 -0.058513 -1.171745 -1.282989 -0.329750 -0.564281 -0.685917 -0.901639 -0.818491 0.989562 -0.109811 1.157511 2.135363 0.076828 1.033876 -1.667538 -0.768718 -0.740130 -1.109715 0.546162 -0.550022 -1.398732 -1.371933 0.705817 -0.142715 1.557537 0.897417 -1.306057 2.000989 0.809325 -0.340022 1.089386 -0.384090 -1.916470 -1.636484 0.651181 -2.151644 0.748669 0.388731 -2.118432 1.921765 1.182909 0.271798 -1.677048 -0.997618 0.934180 -1.886094 1.265543 -0.311135 -0.085107 -0.570992 -0.192640 0.885844 0.323748 0.158019 0.498207 -1.558442 -0.438590 -0.442117 -1.669919 0.017920 1.310867 -1.447809 -1.145032 -1.190672 -1.377176 0.146394 -1.599849 1.397586 -2.276502 -0.144925 -0.654266 -1.359068 1.176563 0.837336 -1.105099 1.878094 0.810063 -0.772265 0.566130 -0.955715 -1.136161 0.756335 -0.585397 0.989789 1.717358 2.128254 0.257898 1.453871 0.398572 0.550934 0.997984 0.167033 -0.657770 -3.448031 -0.770414 0.284203 1.519138 2.088387 1.531640 -1.126063 0.463050 0.665317 1.463535 0.225044 -1.475805 -1.455053 2.507101 1.571355 -0.473186 0.522467 -0.603432 -1.344484 1.466229 2.189939 -1.777206 -1.399910 -0.287053 0.194887 0.111863 1.003698 -0.516114 0.071413 -0.541113 -0.173707 -1.251799 -0.250766 0.392829 -0.926385 -0.580400 1.509944 1.482407 -0.792904 1.163841 0.875881 -2.011033 -0.223398 -0.319009 2.080330 0.387403 1.582269 -1.169837 -0.218335 -2.151829 0.335858 1.241420 -0.833092 0.433597 -0.190274 -1.919646 -1.821980 2.165929 1.063506 0.854863 -0.339797 -0.422263 -1.660015 0.848996 -1.835015 -2.170398 1.335932 0.341592 0.157965 0.772922 0.657498 -1.817235 -0.776931 -1.697529 -0.447181 -0.569979 0.643077 0.105225 -1.005620 -1.061032 0.610817 -1.472568 -0.493733 0.480184 -1.016497 -1.701005 0.584908 1.889113 0.964693 -0.248023 0.810232 0.897319 -0.079975 -1.010968 0.265278 -0.987088 1.551175 -0.473864 -0.779231 -0.043950 -1.715578 -0.466945 1.565494 1.203543 -0.697593 -2.280082 0.955188 2.268002 1.536084 -1.870009 -0.093737 -1.349456 0.447201 1.455703 1.846418 -1.673645 -0.862190 -1.511335 -0.102861 0.204576 1.065939 -0.801244 1.435170 -2.044897 -0.139671 0.432593 -0.662217 -1.371553 -2.524143 -0.291781 1.986559 -1.050826 -0.999798 -1.516859 -0.148294 2.023363 2.039674 -0.472181 -1.432139 0.800318 -1.997625 -1.527368 -1.108116 -1.387189 2.121787 1.271847 0.570112 1.818914 0.497099 -0.751977 -2.330635 -1.116882 -1.504852 -0.849367 1.212795 -0.705061 1.239166 -0.343865 -0.429548 -1.054778 0.113298 0.091440 -0.794960 -0.828303 0.308030 0.717239 -1.522970 -0.210330 2.059385 -1.131330 -0.526636 0.377917 -1.755911 -0.338220 -0.968106 -1.945870 0.895995 -1.582411 -0.784949 -1.186600 0.483270 -1.819939 -2.160014 1.455865 0.614042 2.064957 -1.805133 -0.686677 0.964035 0.924154 -0.140375 -1.865169 1.757419 0.950709 -1.511634 0.770920 -1.260159 -0.448172 -0.703964 1.256336 -1.207755 -2.026960 1.292085 1.611998 0.678873 1.550425 1.198666 -0.694075 -1.454837 0.672923 -3.019264 -0.022322 -1.201187 0.970570 1.199800 -0.830764 1.582686 -0.290974 -1.495396 -0.086395 -1.118686 1.640193 -0.579331 -0.332552 0.125796 -1.911556 -1.407917 -0.189108 -0.961465 -2.950573 -0.374981 0.851685 -1.128436 0.612847 -0.367584 1.024794 0.472390 1.058198 -0.320221 0.531579 0.187491 0.616767 -1.069834 -0.744704 1.331235 -0.014042 -1.742584 -2.185561 0.801201 -1.693516 3.150033 -0.986180 -0.134796 -2.166727 -1.107693 1.278815 1.403433 0.951671 -1.462993 -1.688746 1.272992 -0.506853 -1.800510 0.590864 1.373614 -0.570115 0.582943 -1.699876 0.550172 0.657071 -1.107774 1.032271 0.046227 -1.277563 0.900652 1.274554 0.666051 0.738953 -1.775500 1.033110 0.775892 -2.397839 1.363579 -2.373844 0.155898 1.246353 -1.316335 0.694279 -1.224604 0.627978 1.284977 0.842961 -0.264885 -0.189269 -0.316590 -1.893030 -1.693404 -0.288348 -0.646609 1.459245 2.620468 -2.174237 2.374368 -0.055892 -0.118089 -0.913028 -0.511051 1.852733 1.692448 0.811110 1.513037 0.484569 -2.760628 -0.802097 -0.975678 1.286226 0.970132 -0.584708 0.515740 -0.919232 -1.200526 -2.304166 -0.501721 -0.054285 -0.277952 -2.062299 -0.575074 -0.764509 -1.151653 -1.820971 -0.101645 -1.399277 -1.286267 0.013477 -0.703312 -1.816977 1.654537 1.547973 -2.235175 -0.178406 -1.469148 0.713178 0.062265 -1.471559 -0.499379 2.020154 -1.574683 0.940577 0.593400 -1.877856 -2.561994 -0.212930 0.690073 0.323320 -0.267386 0.581739 -0.100153 2.086802 -0.004281 -1.149850 1.035056 0.797673 -0.421962 1.446742 -0.189478 1.144980 -0.045753 -1.465474 0.137666 1.307549 -0.521161 -1.048084 2.131417 -2.273454 -1.371263 -0.269298 1.871210 -2.218626 -0.958195 1.159235 -1.621703 -1.036533 -0.996477 -1.072952 0.374198 -0.284514 -0.469259 0.892352 2.037186 -2.896847 1.478662 -0.747872 -2.628315 -0.069993 -0.689203 -0.222535 3.166732 -1.218569 -1.499250 1.009965 2.154409 0.354074 -1.827711 -0.985398 2.381000 -0.229409 2.077403 -0.130533 0.189794 0.006513 1.093001 0.048531 -0.211295 -0.516199 -2.071052 -0.300910 -0.413349 0.021682 -0.539484 0.164971 1.643458 2.455812 -1.404770 0.514471 0.416089 0.356994 -1.280004 0.292653 -1.867067 -0.327108 -3.466600 2.216477 -1.061460 0.689660 1.544217 -1.389637 0.806748 -0.411100 -2.486571 1.329641 0.753829 0.718486 -0.626267 1.420378 -1.582080 -0.363263 0.604560 1.214330 0.153453 1.585199 -0.014990 -1.356816 -0.263273 -1.729100 -0.712199 -1.944121 0.623207 0.340763 -0.500000 -1.706095 -0.471304 -0.822584 -3.375667 0.473056 1.977135 -1.973937 -0.640466 -1.413413 -0.796099 -1.539413 -0.561271 1.261697 0.794758 -0.348248 0.188922 -0.028367 -1.587228 0.579858 2.379092 -0.100410 0.900399 -1.426406 0.605058 1.215993 -0.660949 -2.243617 -0.237691 1.016382 -1.894828 -1.307232 0.332294 -0.399102 1.834445 0.798609 1.622119 0.941173 0.521501 -0.610255 -0.242823 -0.589991 1.271821 -0.548542 0.578793 -1.251554 1.677621 -0.940208 0.281135 -0.231433 -1.924383 -0.089668 2.638038 -0.097604 -0.588982 1.589814 0.824138 -1.934784 -1.521603 -1.571497 -0.896061 -0.249878 -2.502387 0.982143 1.904198 -0.799056 -0.480378 -0.155343 0.053501 -2.936045 -1.270273 -0.306688 -1.853800 0.746584 0.387508 0.438310 -0.995137 -2.054378 -0.789008 0.311634 1.374694 -0.999030 -0.290070 1.216418 1.279840 -0.222119 -0.849803 -0.506793 -1.401573 -0.665792 1.801583 -0.930857 -0.579293 -0.437685 -1.513886 1.566177 0.555301 2.340513 -0.245759 1.467567 -1.327936 1.814530 -1.565209 -1.325100 0.569806 -0.614000 0.376059 0.763584 -0.627088 -1.829849 -0.238617 -0.320467 1.311342 -0.512341 -1.661415 -1.471115 0.313073 -0.386923 0.430875 -1.115167 1.705612 -1.905886 -2.296042 1.519228 -0.840127 0.504745 -0.211716 1.041865 1.256155 1.761160 1.440668 0.101707 1.464600 1.374492 -2.331639 2.299237 -0.052855 2.201442 -2.753042 0.031837 -1.100529 0.183537 -0.230236 1.604718 -2.311311 -0.837860 -1.899082 -0.695722 2.791849 -2.114570 -0.743677 0.603075 1.716770 0.499021 -0.309867 -1.516722 -1.374874 -1.272952 -0.726234 0.222627 -1.461236 0.412066 0.634706 -1.436914 -1.470778 -1.368482 0.038745 2.168576 -2.369556 -0.424776 -1.068016 0.670666 -0.989183 -0.667368 -1.238139 0.926442 -1.150799 -1.027445 0.838480 -0.286571 0.730321 0.539414 -1.705233 0.257623 0.686662 -0.779151 0.504798 -0.708080 0.485059 -0.207622 -1.623161 -0.008840 -0.024760 1.040848 -0.909213 -0.217430 0.145583 0.675126 0.332957 -0.888151 -0.176547 1.299298 -1.282233 -1.091971 2.005785 1.733963 -1.563671 -0.994191 0.149814 0.491442 -0.159618 1.924765 0.618424 0.199813 1.255761 0.589991 -0.881556 0.606749 -1.212101 -2.573013 1.352733 -1.266264 -1.082022 -1.423990 1.177346 -0.313483 -0.092424 -0.618412 -0.441979 -2.422120 -1.292960 0.316983 1.018446 1.252140 1.807162 -0.269723 0.342247 1.131571 -2.304622 1.373730 0.684666 0.994695 -0.127244 1.473604 -1.416892 0.173669 0.062646 -0.650592 -0.015752 0.389239 -0.955514 -0.059836 -0.839685 1.790353 -0.718141 -1.959779 0.897556 -0.819844 -0.416098 0.112356 1.770465 -0.754624 1.453319 -1.603879 2.230664 -1.748078 1.831672 -1.574493 0.796311 -0.736368 0.552334 -0.754270 -0.487525 1.373462 -0.164188 0.143650 0.826193 -0.084997 0.669020 -1.672718 -0.584434 -0.394641 1.165855 1.165853 -1.599277 0.394356 1.078303 -0.122738 -0.369338 2.575781 1.714998 -1.466015 1.283517 0.485636 -1.278559 -1.260076 -0.526702 -1.152970 -0.261509 -0.481207 0.695517 -0.208823 0.129625 1.502124 -1.249826 -0.161837 0.235846 0.479285 -1.377125 -0.990200 -0.352511 0.082144 0.157307 0.070351 0.582175 2.175769 0.937397 1.061403 0.906508 0.642227 -0.413073 1.190230 1.666530 -1.703329 0.170739 -1.672487 2.014220 -0.550663 -1.152726 0.944895 2.205240 1.579739 -0.338596 2.542133 1.888287 0.041927 -1.113693 -1.027666 1.402533 0.497823 -0.420759 -0.120234 0.727933 0.757630 1.057529 -1.196025 1.439677 0.823770 -1.035596 -0.264097 -1.807540 1.789687 0.077393 1.469046 -1.311170 0.607845 0.639028 2.301955 1.133153 -0.356363 0.900927 1.138379 -0.751919 0.539923 -1.279840 -0.942726 -0.666940 -1.083692 0.196336 1.628793 -0.700888 0.506965 1.771475 -1.571147 -0.020510 -0.023795 -0.307696 0.052463 1.650163 0.144466 -1.543505 1.729504 -0.539068 1.160489 1.131977 -1.106606 1.027075 -0.988973 0.452473 -2.058393 0.195676 -0.755800 -1.022314 2.355521 0.322898 0.051150 -0.172164 0.294648 0.383292 -1.072817 2.365060 1.874837 -0.663660 0.226738 -1.062952 1.514883 0.521135 -2.346945 -0.851915 -0.928652 1.410592 0.562747 0.483913 1.575682 0.086222 0.780047 -0.809867 0.637393 1.561156 -1.087854 -0.380319 -0.112952 1.096670 1.348637 0.947199 1.442879 0.768916 -0.763721 -0.718167 -1.535928 -0.144935 -2.079471 0.877439 -0.309298 -0.781247 1.216564 1.005379 0.099484 -0.372960 1.397034 1.737128 0.081154 -0.097418 0.778903 -1.686921 -2.573643 -0.313781 -0.668319 -0.826298 0.865805 -0.018325 -1.157379 -0.150561 -0.830059 -1.524377 0.381107 -0.506023 -1.164812 0.476167 -0.605337 0.041232 1.246263 1.502616 -0.551162 1.981348 2.106016 -0.818727 1.425217 0.844085 -0.054770 1.946481 1.497882 0.960365 0.775122 1.388695 0.260707 1.484603 -2.116181 1.911943 -0.597481 1.081095 -1.093562 0.558616 0.172984 -1.909141 1.298733 -1.256182 -2.583037 0.812131 -1.160025 0.362595 -1.071794 -1.334790 -0.894160 0.088111 0.426310 -1.287526 0.232349 0.525575 1.070655 0.306741 1.290535 0.412207 1.129743 0.440123 0.681419 -0.844031 0.723606 -0.644046 -0.576718 0.569901 -2.112101 1.579943 -0.582708 0.328975 0.839117 -0.039362 0.815432 -0.897085 -1.759351 -0.345084 0.865678 -0.684586 -1.794088 -1.055679 1.131013 -0.135988 0.997066 -0.263570 -1.140816 0.544431 -1.085643 -0.566362 -0.890957 1.664567 1.317597 -0.327051 1.309256 -0.880607 -0.937610 -1.176003 0.192855 0.581915 -1.303279 -0.387794 1.949332 2.141626 -1.279063 -0.169287 0.929164 -1.554992 1.400213 1.647673 0.962054 -1.988942 -0.389283 0.297935 -0.750080 2.076093 0.123232 1.069049 0.885250 1.966079 2.035097 -1.018598 -0.169997 0.476839 0.236556 -0.639904 -1.805142 0.449230 -0.520981 -0.553939 -0.666293 -0.096160 1.919941 -0.123522 0.431884 1.726056 0.439832 1.258334 -0.339349 0.409098 0.449551 -0.956484 1.313634 0.224302 -0.456245 1.814244 0.877782 -0.666718 -0.639002 -1.452782 2.338911 0.010311 2.132440 -1.146613 -1.613007 1.072122 -0.700244 0.957340 -0.027548 -1.136655 1.358796 2.034149 0.362583 -1.482632 -0.116561 -1.894092 -1.501894 -1.615830 -1.142633 -1.047861 2.326888 -0.350695 -1.741468 1.326467 2.371302 -0.054768 0.392724 2.412889 -1.613315 1.762958 0.865594 -0.893279 -0.437284 0.563843 -0.647680 0.286083 -0.445853 1.822677 0.870376 0.843990 0.299650 1.126237 -1.863311 0.763079 -0.977207 -0.642398 0.986511 0.121455 1.097286 1.611330 0.719844 0.759495 1.236794 0.990991 1.536902 0.478317 -0.696279 -2.255059 -2.310831 -1.070038 0.387947 1.387395 -0.081609 -0.295913 0.815281 -0.843574 -0.844773 -0.259655 -0.295994 0.628779 0.016254 1.369022 -1.282766 -0.807048 0.624100 -0.777059 0.496338 -1.378785 1.443162 0.689652 1.150955 1.249925 -1.434814 -0.365123 -0.555651 1.351527 -1.020588 0.449758 -0.205976 -0.723120 -0.082721 -0.150914 0.714763 0.230604 0.848247 1.361726 -1.879792 0.379612 2.158634 -0.964805 1.447217 0.957946 0.914422 -0.755773 2.924466 -1.778944 -0.219803 -0.062062 0.628602 -1.013154 0.881511 0.254903 2.003635 2.107245 -0.172632 -1.879898 0.007883 0.693459 -0.387420 -0.827508 0.835374 -2.622001 0.091920 -0.438103 -1.455185 1.121455 -2.213815 0.690961 0.947197 1.310617 -2.040325 -1.092037 -1.117436 -1.209941 -0.098915 -0.411511 -1.718972 -1.384661 0.572118 -0.482433 1.696792 -1.047745 1.552527 0.207860 -1.037197 1.715536 0.776989 0.402223 0.060893 1.559722 0.943643 -1.263526 2.127968 -2.008293 -2.149238 1.044084 1.254406 -2.055269 0.523132 0.925136 -0.948030 1.302548 -0.276493 0.022311 -1.189950 -0.752356 -1.573818 -0.359161 -1.845448 -0.376905 -0.588013 0.399014 -0.114204 -1.981202 0.339762 -0.492682 2.146724 -0.697377 0.469161 -0.546135 1.813214 -0.556464 -0.218284 1.011017 -0.289083 -0.294931 -0.294002 2.794837 -0.588194 -0.513380 0.317880 -2.171150 0.648174 -0.833294 0.147800 0.722516 1.197230 -0.285171 0.069011 -0.871865 0.375790 -1.518935 -1.232083 -1.155133 0.517077 1.913864 -1.825956 -1.969296 0.210998 -0.792641 -0.819444 -0.906671 0.084362 1.830932 1.143943 -0.563439 0.339315 -0.596488 -1.901134 -0.985053 -0.106296 -0.868082 0.329082 1.785284 -0.362088 -1.173919 0.764181 -0.060123 0.237934 -0.279120 0.806221 0.055721 0.143897 -1.756050 0.319739 -0.893694 1.183789 -3.183792 2.855596 1.166637 -1.972919 1.202150 -1.617264 -0.416990 1.743284 -0.378010 -1.459244 1.536016 -1.198801 -1.313573 -0.770162 -0.565302 1.318479 0.164200 1.536179 0.957476 0.676071 -2.539337 0.011952 -0.730978 0.354813 0.950644 1.209918 -1.050048 2.401333 0.532643 0.144635 -1.301603 -0.338527 -2.170069 1.299717 0.274141 -0.410351 -1.449703 -1.486858 0.670063 1.025360 0.624347 -0.236573 1.836126 1.025038 0.969637 -1.487261 -0.715580 0.921579 -1.870892 -0.536947 1.085936 1.311349 -0.794099 -1.885074 -1.540083 0.136598 -0.787659 0.653096 -0.631963 0.001409 0.404738 -0.018935 0.160064 1.019308 1.195271 0.999958 0.095325 0.223985 -0.734346 1.841752 0.005970 1.376983 1.972316 0.147373 0.837807 -0.065778 -0.213674 0.880752 -0.654463 0.811853 -1.097376 -0.036499 -3.172591 -0.731548 -0.154655 1.226711 -1.806265 -1.095120 1.124134 -0.502644 0.090801 0.649722 0.621495 0.293245 -0.755360 -2.018318 1.579864 -2.320192 -0.390552 0.058555 -1.450920 0.990853 0.027917 0.638203 0.668415 -1.736469 -0.123667 -0.515983 -1.038625 1.572509 0.810074 0.239178 2.629236 1.484655 -0.303071 2.663378 -0.862194 0.967593 0.643070 -1.370651 -0.224465 0.656938 -1.573975 -0.740387 0.215730 2.369016 1.127219 0.921596 0.017379 -0.135330 0.678141 0.208901 -0.883151 -0.641845 1.316673 0.278225 0.375483 -0.029265 -1.821141 -1.151925 0.508726 -1.564352 0.849555 0.631397 -1.449467 -0.353274 -1.023128 0.487820 1.388639 -1.008871 -0.924623 -2.432409 1.014717 0.213031 -0.335518 0.491051 -1.471395 1.562012 0.258011 2.098224 -1.954559 -0.586849 -1.069419 -2.074967 -0.255488 -0.815434 -0.338863 1.721129 0.014950 0.483529 0.059080 0.335855 -1.786073 -0.465697 -1.473715 1.334863 0.512216 1.919601 0.958481 -0.574969 1.562392 -1.376671 -0.210859 -1.932603 1.342131 0.671013 0.420302 -0.205376 0.842345 -0.184353 -0.758553 0.597654 0.365907 0.247524 1.126833 0.170303 -0.827577 2.026336 0.913525 -3.045599 -1.169812 1.109293 -0.262888 1.698354 0.897683 -1.469665 -2.431971 0.956446 -0.237077 0.275304 0.306120 -0.421445 -0.493944 0.451087 -1.212930 -0.030253 -1.432039 -1.384171 -1.701190 -0.187884 0.445397 -0.717885 0.742136 -0.432525 1.190378 0.702724 -0.361195 -1.591370 -1.436159 -1.572377 0.018384 0.177232 3.519014 0.383883 -1.221112 0.024418 -0.596781 -1.956565 -1.124290 0.321067 1.161124 1.344120 0.973076 2.106363 -1.103263 -0.319372 -0.791906 -1.287033 0.080537 -0.691034 1.375264 0.076011 -1.111927 -1.800443 -1.078200 1.052325 0.587975 -2.265105 -0.760109 1.343678 -0.898152 1.305799 -1.360315 -1.986200 1.177557 1.033254 -1.367707 0.563197 -0.114550 0.656277 0.409747 -0.259230 0.941200 1.624364 -0.245799 0.330574 -0.928513 -1.486706 -0.747574 -0.854186 1.609464 -1.097626 1.446880 2.066911 -1.959493 -1.026761 0.688853 -1.055530 -0.692037 -0.919011 -2.178121 -0.374864 0.727759 0.186863 0.920208 0.940686 0.142172 -1.297432 -0.329605 2.205173 0.567509 -0.137060 1.078180 0.139651 2.027793 1.668315 0.815880 0.681546 1.164989 1.487287 -1.610757 -1.115333 1.841255 0.919939 0.589670 -1.447672 0.605675 -0.708180 -0.968786 -1.888893 1.804864 -1.013575 -1.273852 0.712275 1.183739 0.642109 0.713291 -0.271208 -0.125629 -0.136498 -0.744114 0.254065 -1.585279 0.116833 0.905963 -0.565829 1.613111 0.358680 1.530467 -0.132731 0.142192 -1.040048 0.959598 0.146192 0.497859 -1.475466 -0.410651 -1.365322 -0.100388 -0.860488 -1.410309 0.844055 0.380336 0.108599 1.079301 1.694452 0.912182 0.268474 -1.921385 0.652226 2.346344 1.893044 0.128152 0.441871 -0.274529 1.513708 -0.701235 -1.750626 -1.547759 0.570767 -0.471067 -1.070388 -0.011470 0.001301 -1.517083 0.635844 0.968800 2.095284 0.684577 -1.236336 1.284135 1.002160 0.725967 -0.220182 -0.988111 -0.119122 -1.000766 1.891186 1.233895 -0.109497 1.342785 0.007261 1.329809 0.929203 -1.130086 