-7.728092 3.442006 -3.271625 0.812946 -0.676526 9.311535 -3.892787 3.917523 3.017426 -11.035334 -2.729427 -2.878723 9.856298 -3.463353 -3.892050 -1.506024 -7.217800 -12.682652 7.974524 8.070246 2.367573 -12.891844 -0.883037 -2.733946 -3.792362 -2.037485 5.795797 -2.076318 11.756978 -6.332539 3.993108 -8.377761 2.063788 1.563381 4.100004 7.454957 -7.726760 5.974237 5.984670 1.613213 -8.732557 1.327761 2.520985 8.989812 4.209095 -9.446915 1.656356 9.589594 9.573677 3.376740 -1.063432 -5.156149 -1.561624 11.580810 1.264976 9.568380 0.417440 -7.837502 7.719292 -6.884736 5.803726 -14.449074 -3.311787 14.202285 13.148940 -3.114532 7.479729 -8.643883 9.615015 -9.412134 0.390895 -8.420118 -1.645412 1.078374 -6.246228 2.537970 -0.060899 -5.714141 3.647285 2.447032 -1.516906 -16.231775 -2.789761 8.206997 -13.474727 4.389387 0.917712 1.340178 -2.326867 0.160767 5.833259 -13.833082 -13.969634 -0.637598 1.459746 -0.797665 9.340692 -2.262366 1.978928 -5.905424 -9.749434 -4.299504 -2.612576 -4.753253 0.268150 2.268894 11.975386 -2.945905 11.590564 1.504932 10.136935 -10.913156 -1.382434 -0.696767 5.829014 3.530503 10.095569 6.911167 -5.612176 -8.703902 -1.322958 -15.742021 -6.657835 -8.292014 8.229121 3.706342 -7.764711 4.840787 -4.546803 7.748704 -6.088617 -5.843935 -2.080537 3.287780 0.635279 -3.981348 7.972790 -0.977969 -7.021278 -0.665562 -11.291127 -2.944673 9.135313 5.289380 5.357308 9.982725 -12.872856 9.336520 5.424804 6.923781 -1.697707 -3.434886 -9.093008 6.626502 -1.926245 -8.678333 -0.056887 -12.942008 -5.887976 2.374346 -4.115388 15.624666 -12.023401 -0.503277 5.153565 -2.685676 -5.930228 5.037280 -5.001398 -0.676252 7.781559 3.213551 1.870860 -1.437218 2.556153 -5.720778 -4.709745 10.954525 8.177404 -6.370808 5.002693 2.753727 7.633491 10.038605 5.289135 2.393667 0.814379 4.754762 -5.219014 -0.746140 -3.466213 0.326851 9.538634 7.109047 0.881883 -5.409664 6.718724 -2.593137 -11.065925 -13.297873 1.908224 -5.455168 -2.229398 8.913061 1.922113 2.427592 1.712006 10.446197 -2.762122 9.007443 -1.421721 -8.013616 -11.476203 -11.825777 5.076640 0.378255 7.789677 4.442070 8.045602 2.284572 -5.567599 -5.183641 -10.066385 0.036551 3.173518 1.575967 0.061938 5.778077 3.563863 6.832575 1.313413 -8.225709 -11.527805 -8.160797 -3.223837 -13.517324 -3.764439 2.038088 -6.364642 3.847862 -2.115425 -0.728080 -4.062769 7.646052 -0.459395 -1.592118 -14.928706 -6.880186 11.426007 -1.200906 -0.383121 -5.579915 -9.892105 0.357178 -2.194675 9.557429 -10.025311 1.632746 16.731569 -12.422135 -11.544977 5.636953 -14.378874 -2.510560 -12.650541 1.023381 7.465982 10.225915 -2.945370 -1.515297 -3.420449 11.461650 -0.407882 -5.983050 -11.161324 -0.360428 5.006151 2.924684 -3.294431 -11.153754 -5.732954 0.688265 10.319058 3.402912 -8.512663 1.715966 3.326101 -3.290576 2.530373 -4.758805 -1.704695 -11.759715 -1.763847 3.793214 -0.215755 0.330024 5.620444 6.795365 1.888666 -6.291737 1.035162 2.164432 7.781031 -12.854018 2.578351 4.731943 -9.393334 -0.040482 4.197507 -6.682971 5.315997 9.423249 4.904656 14.171598 8.325316 -13.499370 7.939212 -1.318036 -5.713390 -9.599657 -12.641778 0.423378 -6.464397 7.583167 5.467202 15.293963 4.746327 -0.456041 13.089925 -3.604002 0.937627 2.332479 -2.087468 5.154396 -3.415291 -1.835292 -3.503349 5.462174 0.749963 -6.217605 -0.329388 -1.482526 6.825798 0.052203 -4.583292 -8.172832 -3.364628 3.118940 1.655330 -2.077469 8.124598 8.433234 4.470203 -8.780695 1.482258 -1.639201 -0.292196 11.425022 7.764988 4.338930 2.814293 -7.356142 -2.440324 8.930442 -10.644197 -6.143532 -9.678035 -3.428673 6.192277 5.207786 -3.312129 9.928204 -0.054884 -4.500762 -10.852291 12.067586 10.274965 0.323500 -5.230679 5.850494 7.878099 -13.599440 1.849174 -1.261220 -0.843619 -11.516238 -0.891646 -1.648870 -3.926155 6.624812 9.857794 8.300165 14.392697 -6.067286 3.456710 2.582272 1.079005 -5.861511 4.932508 -2.067785 2.652812 8.980100 10.623901 -8.236985 0.547806 -2.652911 -0.782672 6.086830 -14.271619 8.565035 -2.032694 -0.113230 6.736578 3.086983 5.773423 -0.911773 -8.089324 0.025630 1.586700 -3.358855 10.494407 7.237815 8.390030 -9.210200 4.882555 9.230931 -3.197012 11.049191 12.282727 -7.457803 -7.245281 7.428143 1.952881 4.391442 0.659729 0.230601 -6.324365 0.627219 -3.179690 6.257797 8.100994 2.864546 5.689213 -7.998759 -15.020959 -5.089572 -0.561232 4.696818 10.097032 -1.733829 5.863950 7.260838 -12.537742 8.040002 -2.894001 4.067183 14.395093 -14.340446 -0.240362 -6.107156 1.950360 -2.414020 -1.311893 -10.639335 5.444972 -6.889081 -0.221610 7.971848 -0.461811 5.553467 11.850058 -1.900500 10.337491 -0.963177 4.058815 0.716405 -8.115133 4.162173 -12.516513 -4.772261 -4.351640 -7.915398 3.518830 0.219537 -8.603004 -2.208757 -8.865205 0.651317 11.013442 8.385630 0.970026 -8.009824 -5.270191 -4.736924 0.787829 -0.071766 -1.399120 -6.167301 3.520446 -2.684184 3.308187 -2.666493 0.009397 16.211349 -2.125939 -1.681846 -3.421366 0.723832 -11.125881 -4.844095 -3.062839 4.192686 -5.400459 5.383220 2.403127 -1.901404 12.942709 8.219823 0.659822 -3.680962 10.081194 15.384859 -11.696733 -3.234275 -2.255512 -3.467638 -9.925860 4.687118 -4.284727 10.401530 10.476222 -14.090166 -6.637388 -1.869416 4.033350 2.932882 -15.279819 -5.425718 -10.275770 9.090053 9.959909 -3.562200 -8.166579 -3.515383 2.950372 -1.837604 2.002197 -9.281393 -11.339979 -3.657783 -10.954387 -5.563148 -5.432569 6.413066 -4.922833 3.275311 -14.795001 -9.273151 -11.456446 2.698164 -2.114953 -8.719996 0.620845 6.235018 -8.818355 0.080598 -8.334185 6.520598 2.160130 0.831013 -2.448526 11.172605 -8.571378 11.047253 -8.269075 -2.472796 -5.968227 -5.494868 9.308989 1.090683 -5.151747 -12.238614 11.656288 -2.481449 -1.326344 -3.742089 -1.278416 3.994100 -0.103575 0.816807 2.535667 12.119333 8.354293 5.373049 -5.968812 -4.349482 -1.318443 12.337870 -1.725303 -2.060436 5.515174 -11.323820 -5.931868 8.606577 5.118785 6.486598 -19.513508 11.166832 -8.717555 4.102324 2.823380 -10.267305 -3.808795 -5.872993 -10.214765 15.013172 -5.859486 -3.889295 -5.551140 -6.491025 11.521941 -1.384605 1.851981 -3.147688 -4.620975 -1.752322 3.971244 8.825915 -4.753467 -1.244287 1.129469 -1.589073 -7.401367 2.880196 7.212312 -16.463053 -1.725803 0.767518 3.725838 15.724730 -3.844923 2.077488 0.512121 10.404700 -15.044075 -7.555085 0.404922 2.830986 5.511376 3.253892 7.403587 -5.945446 -0.103806 -5.049946 -2.905514 -1.558663 1.542394 11.393185 -9.231308 13.661136 1.638033 -2.583452 2.618276 -11.901925 -2.221589 -2.357960 -1.469539 -5.201571 11.282596 7.378945 -2.012311 -19.176258 15.436021 -5.044878 -1.391657 0.413596 10.391872 10.206330 2.085569 -12.647869 -10.079848 -8.529477 9.959782 -13.189659 -0.091606 -9.396965 -6.430971 -1.780375 -8.363349 8.111955 -6.267012 5.558723 -14.864049 -4.517852 10.962189 -7.791466 10.164217 3.069637 -2.672224 -1.390069 -3.098320 0.972449 -3.227294 13.394012 4.084308 -8.270289 3.861708 -0.793210 9.200879 -3.095020 -7.266345 -8.304829 8.934488 0.692367 -7.309545 -1.306346 1.307348 -6.381404 6.877414 12.741623 5.733477 10.751370 -0.498950 16.006559 -8.334783 3.089538 -0.235618 4.065441 14.450216 -5.216166 -14.379455 -8.504250 -2.343404 -8.679287 5.311860 2.807393 -16.305782 6.080024 -0.862342 13.369608 7.226129 -6.295269 9.835336 7.926585 -0.650575 2.068290 -0.492334 -6.063894 10.739694 0.922705 -8.975228 3.075835 1.164915 10.978339 -3.118630 0.916283 3.615973 -4.167478 -8.097488 -8.752499 -8.700827 8.325853 12.224574 2.074868 -0.702416 3.598861 9.839988 -0.058270 5.056684 12.996190 12.283373 -4.992424 4.590266 -5.789965 1.317963 -1.682633 11.444958 -7.477990 -3.211356 4.199283 -8.744446 4.164020 -7.478243 5.032013 7.558324 -11.657351 4.866218 -5.095053 -3.967553 -1.580780 -10.090370 -3.648947 0.537557 -9.223259 2.456010 0.685055 15.553008 2.359573 -5.209508 2.264878 6.019084 4.328083 2.175313 -11.041812 3.670895 -4.171318 0.221318 -0.798876 2.514290 -14.062947 -2.972589 2.029774 10.318437 7.581137 -8.103440 -13.463924 1.271538 -8.133399 18.718697 1.308746 5.589068 -9.870676 2.467492 0.285830 9.100136 -6.118315 -17.371754 -6.364431 -1.962798 -1.892974 -9.946342 4.370131 3.662564 -2.067401 11.042609 -2.087457 -1.586421 0.320163 14.566980 -8.080079 0.323372 5.716831 2.740252 1.952767 -15.652533 0.309865 -7.265583 -0.304566 12.924562 7.325144 3.348046 -8.796601 -2.134547 -10.585303 -10.787376 7.737551 5.735528 -12.581345 10.097280 9.308270 1.522496 -6.869954 1.756117 0.856390 -6.440281 -0.970273 1.065838 -7.401439 -9.457380 1.955938 0.602570 7.126404 -0.631940 -0.050673 11.989778 11.650630 -2.456723 -3.172436 3.585399 -13.779188 6.238610 9.336659 -6.110524 -6.380682 2.275599 4.321092 -6.444198 -2.056132 11.565865 5.286502 -2.306485 -2.675291 -12.666991 -2.998882 7.314030 3.074099 -5.247457 -0.803065 8.246886 0.612371 -5.313890 -1.430260 -8.874291 -3.422498 10.181074 3.323144 -3.102871 -1.097324 12.002790 -0.708916 -1.541815 4.182703 -0.966228 -4.738223 7.127894 6.702051 0.218964 -7.797222 10.054972 -15.943010 4.380751 3.950921 -3.276316 1.096842 -1.105890 -10.011878 -8.284740 2.513777 7.353173 7.089493 -6.082441 14.033008 0.627905 5.687985 2.916637 3.391610 3.242118 -4.704430 -16.880192 -1.733396 -8.485878 8.517094 -3.620007 8.311296 -0.646548 -2.468631 -9.477976 8.890088 10.748679 14.001632 3.732731 -0.772691 -9.041245 0.187632 -5.752690 -5.106247 -2.031681 -11.178699 1.928729 -4.956992 9.176863 -0.802250 1.004748 -2.166037 1.597364 -3.329501 13.584922 -11.353573 4.104333 -3.720333 4.507040 1.873953 10.096820 0.811616 1.345007 -8.044905 -4.439556 -11.694898 9.886337 1.534046 -0.797967 2.856551 -11.859951 -9.516141 3.332509 -6.504991 -4.546385 1.464250 -3.102196 7.059337 -5.329003 6.280324 5.072656 5.207213 2.231027 1.961529 2.623057 -4.088758 -1.979685 1.665021 8.448502 -4.907809 -6.225222 4.566431 -4.647537 -0.474298 -0.366544 -0.184022 -3.500488 -5.475183 -3.235755 10.009234 -0.604642 -6.406215 -19.327576 -5.837927 -7.514147 -4.004981 7.228831 -12.681727 4.463808 -1.353692 -7.879033 14.349135 -2.882596 7.331324 10.530041 -9.960209 4.005024 -2.175748 -0.861503 5.682242 -9.871934 -6.062747 -0.068953 0.090350 -12.497720 -2.177040 -6.272922 4.829646 16.677197 12.035796 -1.315690 10.585999 -5.966036 -2.854499 3.443921 -15.767646 5.936336 -5.361953 -0.627258 4.946475 -7.051656 4.661772 -7.793564 -7.267360 -0.345949 16.258411 0.050485 3.195754 -0.986977 -6.380410 3.952755 -10.703095 -5.285358 -5.255716 -7.048816 7.700638 -14.577064 -0.377861 -2.833182 -0.233619 10.199418 6.425330 3.201011 8.155383 11.337164 -10.198997 -2.931296 -5.522686 1.255489 4.581265 1.742147 -6.699494 3.698398 0.527171 -6.579098 -2.057154 -6.479303 9.616089 10.749776 0.101196 6.869457 1.890160 2.719779 4.560376 8.397092 -2.808373 2.321387 7.284130 4.849355 4.826119 8.739848 1.547421 -15.013462 9.331063 2.990988 -6.341326 5.768138 8.483879 4.870644 -5.816361 -6.179610 0.822779 2.948776 12.075454 0.858273 -10.698613 -1.342493 -0.616918 -7.119240 -5.113164 4.600918 9.731690 3.338984 -10.474419 16.759848 -15.065949 -16.693001 -9.662672 6.723927 9.797449 -5.046943 6.456483 -0.953425 -0.076653 2.648979 -1.566897 -7.076563 7.721353 1.019299 -4.595488 4.274189 -3.067531 -7.330829 -14.618500 -2.785367 8.281092 -6.272228 -8.862002 -3.974615 5.291996 -3.256197 4.333066 8.293443 -10.457043 3.815083 -7.917704 7.771366 -10.723785 0.179575 0.132129 -1.661409 2.097724 7.773469 0.108236 1.256060 4.298126 7.149541 -3.088081 -2.022930 2.538957 -2.177583 1.356719 6.970345 1.157401 6.027492 -15.309671 -9.287148 8.899847 -9.356656 -9.486415 -5.737169 -1.604634 7.260692 4.774697 10.875701 -9.688633 -4.808604 -14.602451 1.169824 -7.577451 -14.236202 4.548192 -3.967624 0.588807 0.901694 2.813563 -10.588017 3.010189 -4.599901 -4.721498 0.244350 9.173931 9.246408 -2.970577 2.969431 3.812599 -11.097079 -1.097561 -3.512381 6.860838 10.312275 -9.845360 -6.815267 -8.348969 -4.515427 4.546961 -8.456216 -9.401295 10.952715 -8.943757 4.493157 5.810103 4.253975 10.111325 -5.067649 10.942784 11.828900 -4.575529 -1.299737 -4.433312 2.922195 4.674213 6.414840 -2.227780 -1.581756 -12.431628 6.539854 9.050154 2.251519 -0.355315 -6.353316 9.945464 5.597742 19.127905 -1.563431 7.173322 -1.516924 0.255779 5.945328 -11.697764 7.611135 0.094225 7.495669 -11.265063 -6.640090 -13.008637 -0.915526 -4.796138 -4.817793 -6.446585 -5.795878 -6.808930 9.363639 -11.148680 -4.075797 -7.817993 8.861006 -5.456141 -4.353948 11.888236 0.034587 -10.737343 2.464790 9.250165 -3.832465 0.652194 1.387457 5.386783 -13.998063 -1.117715 -7.038517 -2.350411 -1.140079 7.235044 -11.601921 -9.839248 -2.090119 -10.142269 0.610526 -8.362348 8.481926 0.978903 2.952664 13.935857 5.831320 -8.854480 -10.780429 2.185429 1.941361 -9.780530 12.435683 8.819775 0.669143 -7.753350 -11.840452 2.715745 0.573329 -3.543113 -9.783440 -2.563156 -4.302086 0.910135 7.257793 1.554266 6.539564 6.714920 -3.000477 -7.705293 11.129948 -16.014956 0.091487 -3.783741 4.477096 -2.362307 -4.784097 -18.569542 -7.288117 7.912607 6.486992 0.691043 5.306239 -10.592149 -9.141785 0.083228 -8.840501 0.858510 2.033445 7.609925 0.541998 7.873505 1.077091 4.617940 -0.589551 -4.665331 0.845406 1.887703 3.180360 5.003516 14.769234 3.792050 4.310537 7.347032 4.499841 -4.596486 -15.561185 13.167420 3.078460 4.867258 -9.443153 -11.198960 6.382573 -4.790829 2.650588 4.515622 2.292399 -5.406478 -3.410949 10.165094 -16.848827 -11.169772 6.885939 -10.050071 9.034402 -0.015633 8.932491 -6.417436 1.899622 2.010537 -7.079045 -1.264720 -6.529411 4.665410 2.074924 5.093054 3.294555 -15.683530 -1.110670 -17.143047 -19.219526 -11.182666 -5.104600 8.417675 7.982511 2.494727 14.631803 4.806475 1.132241 12.657946 -5.861807 2.126633 -11.801596 1.510968 1.890661 -1.693819 2.616312 8.061882 -14.403125 6.900525 9.912546 4.350842 -13.753475 2.147553 0.067565 6.693006 -13.630343 11.414605 16.415068 -2.702866 1.975087 -6.080178 1.256356 -0.628337 -3.892717 -10.132456 2.958883 1.296857 -2.399223 3.026726 0.869755 0.184454 -4.966649 5.020748 4.171166 9.114941 -4.945789 10.237024 15.262086 -4.559791 -0.026610 -1.901510 2.665915 3.896302 9.780931 3.719857 -6.143217 -7.112980 -8.258924 0.783194 -14.528068 0.451363 3.926808 10.014976 -2.206795 3.681013 -4.446687 -7.194049 -1.356214 -12.328707 -3.256303 0.890111 -13.233842 5.980302 -5.877043 -0.858474 3.494150 -5.730423 4.064963 7.759607 -8.753307 7.685970 -6.562876 -1.065880 11.101852 4.597579 11.325017 0.431854 8.555196 0.779024 -8.563011 3.230924 2.132110 -8.934024 -1.761582 0.313745 -9.210522 7.306616 16.805832 -1.908614 3.694013 -3.884827 9.936752 -5.058593 9.789894 -4.369773 -11.030780 -6.050946 13.169925 0.314059 0.309218 7.605578 -7.767179 -0.169476 15.574114 -7.656165 -4.828076 0.095882 -0.498786 0.926355 6.189662 -2.304777 1.946748 -9.871484 13.389206 13.315856 3.304902 1.016779 6.756055 7.292138 8.878566 8.089847 -7.597501 11.367795 -7.991668 1.339204 -4.030330 10.206613 -1.145400 -2.391011 -9.628446 -7.687924 5.157272 -2.777453 3.892112 0.702126 12.229485 -6.287335 6.965036 -2.261594 10.446866 4.505486 -3.749154 -2.336771 -0.604147 6.217524 1.289834 -3.166584 -8.764940 2.924469 -0.500338 8.867943 -7.949986 -4.780583 -9.953238 -5.294739 -2.743239 -6.962939 -9.472408 3.059886 -5.038899 -1.461879 10.139912 1.123662 7.046530 4.833385 -0.644286 -10.439968 9.104524 10.751039 4.195411 2.082263 11.197836 3.140240 9.382251 8.045883 -3.325472 -0.644208 4.337658 -9.829988 -6.077515 -4.527408 -1.808726 -3.756216 10.192180 6.745080 0.497062 5.461622 -5.537274 0.224436 -3.663079 -13.998548 7.879108 6.069829 -7.220162 -4.043985 -2.427132 5.089594 -10.643097 1.088947 -1.689709 -1.181957 -11.765309 -3.248406 0.482776 -8.299820 14.932475 3.847099 -2.023421 -9.207518 -4.917042 2.710124 12.376291 7.119059 -8.119056 0.896653 -6.052224 -7.337019 8.780289 9.121820 3.926315 -10.393186 -6.420481 1.131776 -2.680057 4.321787 2.341249 12.253459 7.272937 9.405413 6.150918 -2.062852 7.569763 -8.001884 5.961474 1.023148 8.358669 -6.478309 -1.670524 1.158789 -2.926927 4.365015 -3.659741 -0.923581 7.937240 1.468233 8.693806 3.343475 -0.210077 2.409704 0.404749 -2.668333 3.176742 6.907354 -15.851246 -4.406460 11.538527 6.571111 5.132181 -2.903301 3.232280 5.780026 5.596181 -10.214329 1.288771 13.515575 10.351082 12.675298 2.843436 -4.116393 -7.673035 -4.679772 10.761802 11.734459 -12.960233 10.243155 5.014694 -1.876344 1.266352 -9.525655 13.623612 -2.547601 -16.878511 11.648301 -11.521531 -4.539660 7.025083 -5.595275 -0.951928 6.401250 13.064703 3.514459 -2.390841 5.658924 9.107436 -2.703411 4.318103 9.761956 6.808811 -3.637602 -4.554774 3.032970 7.143431 0.226123 4.723023 2.953656 15.824757 -5.515814 -9.714310 9.759877 4.011236 0.323965 -12.004639 0.616074 -6.147265 11.381515 -4.428881 3.225876 -13.666297 5.444714 0.733520 0.289603 -5.893951 5.603791 -3.529536 -2.718043 -3.184325 13.343184 -8.956455 -6.797492 4.963083 -3.263115 -0.940263 -2.800897 -2.095675 9.560365 -14.131334 9.058853 3.417812 2.801444 -2.803905 1.425688 -3.532513 1.484137 -1.433267 8.113017 2.375605 -3.407786 0.100578 0.710578 -2.142515 1.274429 -8.221853 1.984299 -3.146198 4.870175 -12.188379 1.521139 5.190462 -12.847836 2.247985 0.979411 -3.465230 -9.459003 2.700656 4.133321 -3.870994 -5.590657 4.572994 3.366666 0.930067 -5.154795 7.376940 -2.411659 2.775750 0.028959 -0.239287 -5.811800 -4.138465 6.787024 5.115482 4.859847 -8.729741 6.009439 5.079918 8.688214 4.172822 -1.123371 -1.744922 -7.664763 6.599012 -2.824391 3.984346 -9.933450 -2.857382 10.232128 -9.585709 -8.495369 -3.195825 -4.438570 2.201265 2.966393 -1.865208 3.338838 -6.488620 -8.955518 -7.900724 0.695607 -10.896914 0.064795 -2.662859 -0.402878 -16.456524 3.289943 -9.317069 -8.302499 10.214741 15.173024 8.174022 -10.342710 -0.116930 -3.282118 -7.267206 -13.385575 -7.762383 -9.066616 7.917953 -10.737473 1.186923 6.628584 7.431614 -5.327899 -1.201649 6.002652 14.091991 4.555438 6.689819 3.497779 -1.218483 -4.067777 3.033337 -3.253200 -4.356381 -3.177529 7.030963 -4.854323 -5.418927 -1.284251 8.959671 3.885270 7.092739 -4.836203 -2.180387 8.286736 10.882739 -10.107692 -0.837919 -1.876087 5.590344 -1.319727 1.310821 10.081695 4.201378 8.962034 0.777292 6.853628 4.706892 6.071285 2.846528 -0.836527 11.046315 -1.244007 -5.710588 3.243653 10.146890 -2.750539 0.743761 0.282510 9.589436 -10.755556 -6.999910 -0.802177 2.922087 7.604020 -3.891345 -3.602582 -6.628379 -0.792048 7.844682 0.949564 -1.332864 -1.308657 -4.700236 -7.127024 -4.127357 -0.033696 7.260162 -10.468157 4.184411 2.685642 5.265935 12.927076 -0.872297 1.746507 11.734954 -8.927485 14.144687 6.220964 1.525108 -8.348108 1.970660 -6.219821 -1.925848 1.747885 -1.258151 1.615072 -4.755499 -8.734285 6.371190 -9.262625 4.693570 -10.123293 10.427588 6.313931 -2.965500 16.276522 -3.154294 11.055722 -6.826593 -0.942414 1.085948 7.700133 9.002058 6.934468 -7.130189 -0.132990 2.433500 6.486077 9.488162 2.292563 -6.333564 2.653619 -2.089709 -4.178993 6.595548 2.769940 -0.155342 -6.261541 -0.928633 -1.922345 0.015282 2.865394 7.068260 7.939838 12.589661 -4.107990 10.045613 -6.824785 7.836009 12.860281 -10.055211 7.538207 2.452118 -2.671197 4.485896 3.615698 -8.722518 2.947425 -6.883890 -6.376641 -10.877487 1.974867 0.336345 -0.912205 0.594582 9.976562 6.484713 13.438574 8.155110 0.156087 -6.177502 1.302032 0.465398 -8.921067 -6.891513 -2.818792 0.899269 -3.787958 -2.656438 0.067513 -13.048920 11.338134 0.705991 -1.293929 -11.275507 10.539646 1.942680 0.209346 13.833870 7.229923 -11.043756 -11.649941 6.673630 -3.705536 -8.540501 5.367515 7.917985 -2.042405 3.220504 -3.138775 -0.836237 4.886906 2.942713 12.528135 3.276874 -5.717378 -7.403797 0.834785 -2.172851 -1.010862 -20.882029 -2.084935 3.135717 13.209337 2.574611 -3.155037 1.681650 -3.212170 -5.129641 4.629050 11.027370 -2.195817 -3.943819 -3.170435 -7.563239 -1.894490 2.783515 -9.925285 -11.272325 -0.059038 7.488285 -0.744176 -5.584936 -10.426230 -9.881032 -5.785767 9.505813 4.047298 -0.499244 -10.123767 -5.635663 -5.621436 10.444071 3.463328 2.514179 -3.512438 -5.057558 0.645783 9.921891 -3.608383 5.924963 -2.415482 5.813576 -4.225776 -9.033616 0.548374 -11.725514 -6.876430 3.212253 1.399216 -5.233539 -2.053442 1.118197 5.311237 -8.593556 6.369163 -3.252243 11.833591 4.405690 6.064062 -15.350029 3.019591 3.960717 3.626135 6.925294 -8.944978 13.046859 -3.145867 -3.566815 0.096302 -6.113125 0.895569 6.369450 8.657347 7.913283 -12.280210 2.639536 -0.567212 -2.557578 -0.118554 -10.968664 5.787196 -3.669711 11.758819 -7.861265 -11.202737 7.304103 7.089696 -5.320240 5.252270 1.430336 -5.708941 0.840719 4.396986 -10.614356 -1.871103 4.001281 4.457470 1.069432 14.624451 -7.272497 6.260680 11.929041 -8.782128 6.742022 2.611483 2.075907 -4.594552 -0.986138 1.478551 -8.767788 1.184569 1.770460 7.098145 9.521316 -1.860980 9.233852 0.380798 -9.677615 5.854809 4.862516 -7.976243 -10.731290 -9.354258 -3.878554 -6.459564 0.896442 7.133074 1.299529 -3.343769 0.550120 12.402697 0.512704 4.513484 -8.982244 7.265242 -8.314932 1.316690 -1.060832 -8.162189 8.082467 3.259911 -5.476599 -7.602878 -12.824208 -11.185527 3.653977 11.052676 -8.258304 2.685471 6.542633 -5.997520 -5.055275 -4.727369 -15.361793 2.392241 -0.418361 0.676904 0.153837 -2.023377 7.849114 -2.167064 4.811759 2.342182 13.301899 -0.017611 -15.334870 -9.555399 3.868950 -7.203504 -4.759370 -8.929453 -2.059106 7.587509 2.196264 -7.318335 -0.492707 -1.928478 11.930004 1.221528 0.324848 -7.934734 1.424356 -8.514464 7.966045 1.232335 3.927523 4.124907 3.358881 1.540840 -1.238761 -9.436748 -5.079988 0.216874 -13.351333 -10.873515 -0.217728 -8.112428 7.242652 -4.471602 -2.610605 -6.769873 12.457305 1.327779 2.779236 -6.750247 4.949934 2.218576 10.054278 -8.034962 -8.634000 12.263806 -2.883604 -4.650036 2.612324 -3.980776 -7.865096 -6.310404 -11.719971 -6.994348 11.538888 -5.979418 5.395754 4.620308 -0.566178 0.798821 0.085659 11.099989 -11.152708 11.899055 0.690283 0.628874 3.741265 -4.312321 -1.884530 -6.589582 0.014848 -16.157568 3.806570 16.569193 11.129222 7.827042 -3.534355 5.731135 -9.253537 -5.161235 -0.580189 8.332819 6.272871 5.649218 -4.107164 7.077299 -0.583647 -0.544277 9.099169 -10.111117 -9.689055 -3.643757 2.347762 -5.075705 15.575495 -3.691090 2.913483 7.612956 8.849647 7.057844 6.785492 2.826518 0.509456 1.999116 11.693054 5.206102 2.716709 -7.106983 13.944328 2.723186 8.290287 1.213264 -12.287319 -7.000349 13.598006 -6.262749 -2.723915 -5.630456 -0.090008 -2.152126 -4.950970 -12.318659 -2.742128 7.633561 -6.704751 -9.554320 -8.922077 7.863975 0.573625 -3.246816 -6.944430 -15.535318 0.044356 -2.498940 -14.952446 -12.013938 -3.309325 -3.578142 -6.120147 -5.211352 7.853346 -9.357448 3.329876 8.758118 4.528103 -8.848728 -4.034696 -7.848300 -7.463338 4.983891 -0.667484 0.470760 -0.648592 11.008054 -0.716309 -8.859282 8.802185 14.176799 -12.062518 -3.805696 -8.436417 3.036098 7.775380 8.111588 13.280446 6.981135 -2.432493 -4.124449 -3.048766 -3.717956 1.163156 -4.128218 7.154934 -13.715894 -2.720228 -5.666020 -3.567703 1.802536 -3.389914 11.212802 -11.598147 6.754357 -9.121264 4.244395 -5.043983 5.065632 6.180779 -3.575571 -13.618075 1.029306 -3.447194 -5.511207 1.484061 -5.921944 -8.902365 -4.241241 4.141461 0.145025 10.660322 3.167760 1.898439 -9.509409 0.785402 -1.881990 -3.898050 2.844845 -2.014576 12.883703 6.394973 3.025955 13.445544 -5.888717 -14.742524 5.131547 6.863681 -7.013420 -3.676253 10.609208 1.901947 -7.875260 -7.247623 -12.567114 -3.252741 -3.394473 -6.169643 4.544733 -6.428195 -1.686483 -8.141115 7.605079 -3.764669 -3.057774 -2.911649 -5.233823 15.728042 -2.060575 -2.960539 7.665585 4.804684 -0.771267 -2.027965 -11.397432 -5.108793 -6.717279 0.568864 -7.043425 7.380424 -0.059553 -8.505607 6.828711 -3.718257 4.655377 -2.648616 -4.814970 -3.474328 -4.019105 -11.918871 -11.124311 2.583908 12.217160 6.572854 -6.507787 -3.365348 0.816765 -6.147572 3.342249 -2.265563 8.792395 5.087914 -0.107952 3.943088 5.897161 5.264989 5.337961 2.806201 -3.711679 0.187113 -0.148200 -2.714963 -2.025038 -12.479309 -2.919986 -1.436923 5.588011 -9.788804 0.689272 7.456843 -3.454547 -8.548078 7.274183 4.586772 -5.264825 10.300158 -4.394342 8.746572 -11.262829 10.199553 2.966473 -10.864953 -6.438879 9.436378 10.535569 0.077355 -8.595135 4.042599 -1.982337 -6.533494 12.744245 -16.987453 0.311674 0.999047 -4.108680 8.141407 -8.454908 -10.849953 -7.060485 0.399762 4.705060 -2.172423 1.726379 -16.182320 1.103187 -2.148163 2.329452 -6.065238 1.533946 13.574990 5.169060 -4.955000 -0.451775 0.161641 4.785698 7.952628 2.374864 2.801652 -2.402335 7.299540 18.341221 -9.569777 -2.024634 6.414989 2.750031 -3.096050 -11.995589 -12.968083 14.616615 9.604571 -1.073402 -15.535663 -10.093109 0.460991 3.952866 -2.383798 5.350798 5.437728 9.832210 9.574161 8.830991 3.328357 4.127244 -9.494528 -2.735665 2.402327 7.035887 -13.673913 12.643698 8.905354 -6.988832 -5.080924 1.748496 -2.908820 4.183091 -6.501822 -2.916700 -10.200562 2.158696 -8.120838 0.725195 0.139585 -9.457603 -12.782516 7.418712 -2.952231 -10.740003 -12.451052 1.175246 -4.839005 7.365274 2.856899 13.395258 -12.480400 -12.851095 10.388487 3.861970 8.174047 -4.639859 -5.375625 -14.590472 -15.402803 7.017684 2.555527 -0.104562 -9.809882 -2.126248 -11.376635 -5.194968 2.726868 10.720619 8.264801 -2.186750 -2.940055 1.669616 6.662961 -2.915251 2.128679 11.725206 0.898500 9.109785 7.532780 6.915629 4.176609 -8.217227 0.245915 -0.949772 5.460511 -1.318020 -6.340738 -3.414358 8.603453 -0.264722 -1.333326 0.011463 -13.322932 -2.200991 -4.269069 9.022192 5.808599 -8.957321 7.442249 -2.868148 -7.860818 -10.803132 7.861336 0.632936 8.146512 0.286006 11.270671 10.347934 11.271038 2.224657 -5.352848 -8.098562 -5.230317 -7.586666 -9.094736 10.237562 0.084925 5.784277 -5.731012 -0.192694 3.023925 -10.821615 5.752643 2.393754 -1.471225 -1.368933 -1.828235 -7.307096 -3.033480 -2.333755 -5.712422 -2.781100 2.396722 4.908764 12.734184 1.229215 3.307106 -6.138835 -6.949745 -3.152296 -6.823410 3.672068 10.042006 6.651192 -1.477834 4.826195 3.160805 -9.960450 -1.217681 3.048817 0.723509 1.369214 -9.498117 7.688272 4.157974 -0.529843 -2.212684 3.287310 -3.019372 -6.490579 20.388836 -3.189026 -10.850716 -1.772976 1.373361 -11.267551 4.213896 -7.996734 -9.589170 -0.621008 8.846156 2.279410 -1.976944 -8.192553 -6.100040 0.884580 4.762617 4.740998 -7.110084 -2.313430 5.142705 -1.840424 7.440671 2.282701 -0.723747 1.082637 7.926987 7.444242 -6.304027 1.174021 7.624821 -2.615140 7.942437 -1.824879 9.172856 -4.156572 1.771837 -3.726515 -5.603371 -1.201249 -4.856067 -1.999654 1.811868 2.772541 2.569386 7.064577 -5.826157 3.309005 -2.992453 -1.804309 -1.238355 12.292774 5.084381 8.038461 3.164171 4.140619 -4.973411 -3.176114 1.905108 0.644779 6.179734 -5.282917 0.897431 13.919148 11.319827 5.188379 -7.369877 -5.932044 -6.057983 -6.723756 6.214900 10.446771 -8.971957 -2.884571 -3.806372 2.983332 -1.426126 1.797712 1.769462 8.725485 1.542676 0.477910 -12.052114 -10.841125 -8.303411 6.082561 -9.953920 2.300603 0.603497 -3.300928 7.452921 -4.648388 -1.470092 1.390138 13.751863 -1.552900 11.160083 -15.455859 -12.916124 -16.667173 1.897092 9.178190 -1.052978 6.464681 3.246564 -5.440976 0.727407 -6.631628 -11.595839 8.906215 -0.854097 -3.708240 11.803071 5.720332 -7.328386 -4.048413 -11.017921 11.217504 3.769742 6.623689 3.154395 4.820848 14.310806 -4.142510 0.625779 9.189266 -10.322414 4.706878 5.821435 -5.239703 13.862309 0.284415 10.976997 4.802727 5.238068 5.589066 5.836573 3.072751 -0.769082 6.549356 -3.081635 -7.002872 -2.825414 -4.625517 -0.666209 0.644034 1.869280 -6.101779 10.229695 10.916959 -7.398904 10.715108 2.493324 3.503248 -4.320349 -1.761475 2.494970 -8.232601 5.215653 -5.401450 -2.369667 -8.616913 10.635324 0.297384 0.942269 -4.724480 -11.215024 0.021566 -5.609508 -7.689947 8.826806 -2.544425 2.090910 3.377703 -8.361665 -2.066635 -3.313864 -1.618528 4.974533 -5.445570 -8.033173 -7.827861 -11.363647 5.153661 -3.022275 -8.268006 2.160245 -3.332399 7.305995 -0.361328 6.390537 0.043344 -1.044226 6.249840 2.652253 -2.481356 3.563218 -8.505673 2.403541 1.686491 -3.475747 -0.276933 -11.830729 7.499713 6.126205 -10.718100 -4.917732 3.983577 -0.114720 -7.273603 -5.495673 11.865644 1.496621 5.954463 1.338034 -9.961596 -9.367323 2.581428 -4.105604 7.563402 5.863023 5.986526 0.428779 -2.139217 -6.253609 11.013654 -2.924200 -7.037005 0.978978 5.274599 13.643552 -10.218784 4.964442 -2.014008 0.401082 -3.523968 0.632872 -13.167761 -3.668480 2.456063 7.065476 13.379282 6.495623 -2.221854 -2.611084 -15.761106 -1.324125 -12.889576 6.645157 12.485677 -3.076288 -6.046266 -2.825903 0.221003 0.244679 -1.224371 -6.029339 4.727569 5.454648 -3.247343 8.048229 5.851711 -7.697587 -1.412196 0.201722 -0.409624 -0.869867 -1.126352 -1.562774 -9.312965 -6.105000 -0.783109 -0.459612 -3.758774 12.765324 -2.365358 4.263227 10.105524 -10.722905 13.689351 -3.681556 11.857268 4.437751 13.439877 -3.688404 4.514354 10.373058 8.125717 -2.726933 -14.526566 -12.242231 0.675976 7.866432 2.035779 13.548320 2.349705 6.963678 -5.083040 6.239871 2.836643 -2.817225 6.838083 -8.586366 -13.339684 -3.290831 5.781826 5.391103 -10.467937 7.042829 1.955461 -0.672432 2.861716 -4.895789 -12.630075 0.511101 -1.845218 4.118191 -9.805685 -5.476829 4.928171 -4.236514 16.912140 6.910080 1.213564 -7.065238 -9.023855 -0.871319 4.870847 -0.348457 12.847346 -7.136307 -12.204453 2.023448 -3.594513 12.579290 -5.208073 3.529285 -4.858687 -9.738365 -5.616533 -3.268358 8.783970 -8.755587 -3.694393 -2.750879 5.487296 3.027420 13.166417 -7.435229 2.505199 0.013327 -10.922019 -4.070650 -1.837838 -0.914201 2.960413 -5.217199 1.421761 3.062807 -5.780258 -8.997981 -0.630511 -1.565283 6.437509 5.770263 5.974876 -4.268291 -1.347702 13.953388 -8.016834 3.846496 -0.424227 5.270750 1.892217 -5.089817 -14.743216 -6.316979 -1.913491 -1.043902 -11.775473 7.101335 3.868508 -2.643532 -1.916653 -11.449951 -4.810806 -0.632066 -3.984706 7.189963 3.274396 -8.686122 9.870620 -12.775675 2.737088 -2.459215 0.697752 -10.167115 3.540696 14.489793 3.831795 5.829937 3.876734 1.995922 2.404777 -1.725369 8.233719 -12.246456 2.090425 -2.105284 -3.337439 4.398158 5.888273 6.374807 5.450127 6.872561 2.838154 11.179366 4.033724 -1.011171 -11.578614 0.832818 5.511000 -2.285956 -7.202967 7.624503 -10.027354 -5.727212 7.271496 4.833933 0.207681 0.275504 1.304166 12.354094 2.574524 -15.938482 5.331329 -11.555404 -1.537296 6.908604 -9.722131 -4.348175 8.499018 1.886500 -12.602875 -13.354650 -1.540194 12.029364 2.501501 -2.889725 0.072636 -9.068173 -3.167849 -4.434848 7.168534 -0.036672 -1.676196 -5.166491 -0.151287 14.094782 -6.185236 -7.703873 7.628625 -12.680885 -6.289394 -6.514295 2.805157 -5.024793 -1.361102 0.787764 0.757648 -1.135265 -10.594766 -6.136001 -4.067522 7.924576 -11.301439 0.505601 11.655123 -0.426529 5.470367 1.544953 5.797913 -15.422970 8.096416 12.092769 -12.684325 11.286258 -7.238166 14.714660 9.104656 4.490937 -2.843647 -1.673623 -2.973403 7.639094 -1.930968 -4.969175 2.198512 -2.370032 -11.485430 6.248418 2.697294 -6.240054 -2.800923 2.731944 -13.350334 2.550752 -7.148157 -4.826169 -3.880918 -4.533814 4.327098 -1.892985 0.063124 -8.735355 0.645541 2.500899 13.289500 0.725204 -3.715515 -8.963678 -9.991686 -1.893937 3.234484 7.878262 4.379801 -9.742679 1.197870 16.259569 -8.642410 3.476174 -10.927747 -7.605897 -1.550576 -9.067262 -7.894529 0.217716 13.119441 2.689170 12.571941 0.163586 -2.900796 -7.483608 -1.494148 -8.840364 -6.798512 2.098607 2.223770 8.213910 0.712583 1.600762 -2.893897 -11.005648 -5.106590 -7.995123 1.090631 8.459682 11.637365 -2.433944 6.598865 0.162965 -1.180253 6.588174 2.372438 -0.050025 -2.393065 1.467753 8.727980 -2.346485 2.566362 -6.280999 7.929038 9.091183 9.341734 2.128518 2.568047 -2.700330 4.249846 4.870072 -6.282290 -1.988183 -4.903806 -3.448283 -13.955839 -6.230734 2.795086 6.226837 -1.136271 6.202233 7.594300 -15.019740 0.492579 1.593908 10.415360 2.668250 14.292687 -1.283316 2.165953 4.794460 -14.318825 -3.572425 0.334449 -1.548256 3.263674 2.732485 9.082977 -2.022271 0.795789 1.178546 8.320402 -0.503296 -12.009129 -5.631513 12.360358 13.255746 7.066634 8.967943 -6.185713 -5.938525 3.546620 -9.538607 12.756862 5.493356 -12.318692 -13.196383 3.411525 -7.169003 -2.204099 9.401775 -1.382647 1.399175 2.063559 -2.846334 -7.062929 -0.995876 -2.498747 1.613345 -6.764436 2.258087 8.138114 4.905250 -5.241496 6.131148 -10.551520 -2.933473 -7.795488 -11.401973 5.402146 -12.094831 -6.654553 -6.991623 -1.868049 11.143377 -3.480142 -0.384705 4.902087 1.032464 -9.014007 -9.110462 -3.632319 -13.855023 15.410846 -3.037293 -2.157265 -5.040376 -0.168377 -1.408553 -10.099305 1.621408 -3.391915 5.721523 3.133661 7.249335 -1.890172 -0.258749 14.846048 -1.201926 -0.164770 -2.385508 19.696968 3.494630 -7.440525 -5.185280 2.301569 -4.236858 12.960046 0.681818 3.539060 -16.178883 -3.657280 -1.649588 3.071705 0.102365 4.246084 -8.006147 -0.354713 4.882786 -12.237230 12.473086 -0.250422 9.670568 -5.436784 -1.776107 -4.173620 -2.063291 5.786183 2.570001 14.510350 0.118911 -3.880034 -11.302749 -3.133035 0.812399 -3.066411 4.874142 -2.459168 1.601060 -9.558939 0.470255 0.370245 5.717327 3.311550 10.923407 -1.101956 3.891326 -5.688122 9.187959 5.130041 -3.045071 5.774672 2.863648 10.661738 -8.349660 9.053309 0.260125 -8.802541 0.071817 -3.153174 -12.234594 -6.884182 5.963701 6.397188 2.637384 8.843730 -13.147442 -12.033976 -17.879221 12.469786 8.298919 7.642251 8.158815 1.504809 4.771179 5.312306 -10.209697 3.075989 1.632017 -1.056446 -2.916439 9.775339 4.351945 1.997986 -0.425859 4.220816 3.430116 1.707026 -9.295612 12.507251 3.395418 -8.839708 -3.917939 6.234356 9.756847 5.147778 0.851980 4.239939 1.814693 5.336987 9.988658 -14.629767 8.033621 -0.603108 10.487050 0.931552 1.286577 13.305074 0.669945 4.516033 -4.071555 -6.371413 2.528980 10.614623 4.434019 -12.228050 -11.656445 -12.807549 -8.008589 5.485503 -10.940973 1.599845 -10.744666 -9.598963 5.554417 4.930153 13.112917 -1.388085 2.235162 12.494564 9.240159 11.523289 6.038059 3.078246 -3.146756 -3.603828 -0.551949 -5.684258 0.387939 -1.764237 1.882956 6.837401 2.788863 11.470867 -3.943211 7.517840 12.285602 -0.648325 -2.296299 -7.242918 9.800138 -5.462110 3.152078 4.628916 -0.062448 2.304962 -0.883817 7.208916 4.742840 -5.213206 -3.084597 -1.813101 5.142793 -0.035686 -9.174536 7.317630 4.185698 9.807161 4.790876 2.051936 -2.722853 -5.981909 -1.660788 12.357735 8.529174 -1.071108 -9.193489 4.779278 -3.250402 2.061947 -15.234007 -0.754591 -2.971220 0.133911 -0.521243 2.920147 2.752573 1.693596 -3.328125 -0.973649 2.050591 10.904603 -6.181689 -10.551286 14.716002 -0.904309 -5.195964 9.413473 -8.152966 5.196697 5.009061 13.290805 -7.869474 -3.907723 -6.036715 -11.390223 -2.778025 -10.083563 -12.565390 -3.966255 9.375785 4.774592 -8.185304 0.485276 13.277890 12.827353 1.651000 9.793759 8.507828 -10.148773 2.899522 9.729893 -5.455000 -2.243971 1.423349 6.686178 -5.375626 -3.130097 7.006196 6.395996 -6.408497 -5.868049 -5.106384 1.052056 -3.946744 -7.231440 -3.255827 -4.628962 8.493667 3.237964 9.000598 -3.440974 7.805425 -2.071102 -7.773456 -8.808408 3.222213 -0.193720 -2.634334 -1.567098 -7.024073 -11.173935 4.332362 -9.774441 3.015075 -0.445464 2.058387 13.415513 5.625124 9.698840 -11.636119 5.997523 -7.500788 1.727176 -7.155011 -2.296942 2.656714 -0.181969 0.271030 8.685494 -3.399088 9.415461 -10.769702 6.247099 -12.399705 3.358845 0.553803 3.220000 0.334227 1.818861 -12.819518 -8.411532 3.684706 7.838542 9.701844 -5.048972 -8.250060 7.275646 -4.491528 -3.568833 0.180873 0.572475 -7.037290 3.948596 4.336419 2.930108 7.294178 -4.313724 -3.807122 -5.900783 -11.782723 4.445918 6.430768 -15.101357 0.442005 -0.311940 8.258984 1.215140 3.924814 13.933036 -11.813318 -1.257599 11.756269 2.221407 -8.420034 4.395459 6.160565 10.268041 -7.602364 -4.275702 -6.931067 7.382583 -3.473466 1.758066 4.465125 12.076330 0.064030 3.267821 4.843052 -2.900824 4.699531 12.992296 4.010613 -13.729328 4.029296 4.870221 9.294999 -1.298704 -0.809566 6.502069 -1.109047 6.614533 -11.161219 10.417900 -6.509560 9.762161 4.227611 -11.743443 -3.911895 9.749582 -12.797662 -3.984818 13.253549 -12.057677 5.626800 2.633526 4.471932 -1.255757 -6.487915 -1.762047 -0.350534 -9.278762 1.065550 -7.368475 -5.461239 -0.924131 -1.236425 0.958161 -10.152347 1.777497 1.777950 -6.859483 2.684009 -3.084564 -3.884168 -2.464771 -5.369510 -1.709540 2.141849 -2.689449 -0.717288 1.484488 3.085041 7.721880 -3.600942 -2.284691 -5.538230 18.112169 -11.866467 6.644170 7.632425 -3.241352 -10.141647 14.805911 2.399027 4.024282 -0.455882 7.099260 -6.899413 4.212930 7.526952 -4.974986 0.020429 1.209912 0.796818 4.450060 8.300627 -3.744419 -3.799755 -1.177647 -8.465404 -8.968199 -6.020510 5.136993 8.827577 2.571649 5.082930 -1.413981 12.832950 -1.043931 2.293057 -7.006035 7.852723 5.006288 -7.477156 4.258554 1.356901 11.493376 -5.997648 3.117390 1.871107 -4.825856 13.290495 5.530991 -0.558117 13.798388 -7.704981 -14.720620 -4.951296 -2.408569 6.337063 -6.536614 0.974575 3.606322 -6.349234 2.550560 8.447763 12.979888 5.481822 1.654994 4.729407 -7.647569 -9.355434 -6.289154 -3.395597 -6.164394 1.011838 -0.919287 14.772254 -7.290317 -12.854265 -9.952568 -5.135976 -9.314869 5.939388 3.083364 -2.820822 12.093721 2.456577 4.052147 -4.850603 8.321415 5.995648 -2.542675 2.763591 1.412658 3.091910 -6.483581 -8.331857 -8.399869 2.535669 15.076969 -10.024145 5.014873 -2.199244 -1.440129 -6.048258 -1.385806 14.483893 -12.263143 -5.226194 -9.494054 8.316010 10.919271 5.401443 2.975518 -3.549963 -6.108424 -3.533136 -12.692281 3.955486 8.280528 10.320807 2.215945 -6.051876 -12.843034 5.791571 6.659479 -4.374523 0.809432 -15.965260 -6.354756 -6.086095 3.510457 1.683436 -2.996487 -9.923502 1.689219 2.678204 7.328996 2.259570 -8.720700 0.135853 6.672051 -4.705299 -0.365272 9.283151 -0.612721 6.418698 4.663347 -12.078392 -6.084272 4.481377 2.847249 -4.753281 4.503954 3.791901 -2.151096 -1.166580 2.378056 2.992805 -3.106353 -2.114972 6.463594 5.784945 3.017614 7.072466 9.121454 11.569610 2.787784 3.566866 15.138149 0.936953 1.294878 6.160297 -9.944334 4.835769 -1.421574 6.384043 -0.355494 -0.556798 -6.559388 -5.110334 -2.946970 -8.675143 -7.238419 -6.390384 -3.582968 3.225312 -11.882226 2.188709 -1.802304 2.362473 4.763851 3.300022 -3.869757 15.381635 -14.226177 -2.570439 1.219392 11.589284 -3.393720 1.026050 -5.399371 8.582898 -4.853209 -5.689224 -3.506583 9.734333 3.486375 2.886000 2.722028 1.085705 -9.412564 -5.042578 -12.991335 -10.414866 -4.353165 -0.712429 -7.896346 -3.832466 -8.074861 2.700776 -9.509026 9.680369 1.260772 17.356247 15.580379 -12.068996 2.217690 -4.028423 8.680756 -6.479315 8.669692 3.566090 -3.832282 -3.584032 4.746215 -0.319361 -1.339592 4.719172 15.976331 -15.714520 -14.295431 -4.059739 -9.960584 -0.475433 12.936666 -0.117389 7.691929 -11.824905 12.938779 3.499081 12.195267 5.099756 -9.575953 
0.039801 1.339606 0.446538 0.685108 0.174130 0.478825 -0.802984 0.277824 0.778769 -1.475415 -1.135598 -0.822441 0.526197 0.608670 0.250883 -0.084788 -0.113969 -0.431602 -0.630602 0.201485 0.880110 -0.421003 -0.803216 -0.176458 1.332247 0.135965 0.407737 0.367891 -0.307642 0.434353 -0.046378 -0.013356 0.700981 -0.621101 0.167689 0.038261 -0.475342 1.021623 0.377655 0.760432 -0.432018 1.917898 -0.990718 1.935672 0.506798 -0.216401 0.642141 0.766195 0.711335 0.078908 -0.721709 -0.052195 0.895311 0.618755 0.430513 -0.609508 -0.023641 -0.701987 0.865012 -1.249259 -0.119749 -0.525984 0.452071 0.377919 -0.380640 -0.564440 0.448072 -1.174613 0.877082 0.559812 0.844979 -0.103117 0.940310 0.022585 -0.554726 0.082160 -0.041365 -0.097384 0.530123 0.715044 1.029795 -0.761664 1.136362 0.367158 -0.419615 0.735697 -0.069751 -0.855159 -1.029516 -0.132950 0.616988 -0.462070 -0.001497 -0.142862 -1.029903 -0.226527 0.883172 0.847869 1.361750 0.614283 -1.428229 -0.393916 0.023400 -0.684102 0.631415 -0.517184 1.242362 0.636999 0.361598 -0.455221 -0.461904 -0.457495 -1.036447 -0.598737 1.634974 0.232609 1.526134 0.999278 -1.675511 0.114017 0.348237 0.132269 -0.398381 -0.814594 -0.112389 -0.210116 -1.018099 1.343704 0.072950 0.279841 -0.743444 -0.964726 0.135196 -0.640766 -0.869502 -0.550032 0.343615 0.094266 -0.065123 -0.819311 -0.245605 -0.669629 0.727713 -0.225637 0.573754 1.241166 -0.992721 0.106935 0.765839 0.920639 0.079723 -1.611392 -1.109214 0.712778 -0.255527 -0.848060 -0.015522 -0.603124 -0.167599 0.026323 -0.501317 0.593062 -0.527845 -0.142197 0.620710 -1.605996 -1.226933 0.464477 -0.056796 0.158696 0.048902 0.050165 1.030392 -0.175838 0.451361 -0.620539 0.068797 0.264169 0.710249 -0.697505 0.256113 0.568152 0.908366 0.942186 -0.654077 0.162669 1.311129 1.176688 -0.640107 0.471951 -0.091080 0.458163 1.012164 0.952079 0.321504 -0.469910 0.082352 -0.418535 -0.854757 -0.159838 -0.114313 -0.351283 0.343809 0.697264 1.196691 0.052658 -1.642291 0.724609 0.096250 1.009207 -0.634208 -0.657549 -0.430907 -0.543602 1.326496 -0.202962 1.012709 0.278833 0.696269 0.320046 -1.310032 -1.095104 0.322191 -0.100400 -0.479460 0.444242 1.128634 0.580109 0.110530 0.805940 -0.256246 0.651885 1.288039 0.739866 -0.349592 -0.232875 0.416000 0.227223 0.535700 0.762038 -1.219594 -0.453021 -0.477864 -0.089315 -0.177162 -0.274755 0.323174 -0.849020 -0.317379 0.150864 0.800591 -0.794454 -0.269098 -0.648939 -0.621739 0.969285 -1.245750 0.017028 0.399419 -1.425823 -0.982935 0.200800 -0.688580 0.003088 -0.585796 1.140259 0.193776 -0.401813 -0.407816 -0.928824 0.231465 -0.284301 -0.575675 0.185599 -1.094027 -0.371834 0.017976 0.130341 -0.214939 -0.696992 -1.236368 0.542964 0.415439 0.310146 -0.522345 -0.502960 0.164184 -0.804379 1.410697 -0.488466 0.028614 -1.324233 -0.767268 0.782189 -0.660393 0.459296 0.946904 -1.020665 0.461946 0.599151 -0.562087 0.458298 -0.369730 0.358021 -0.324452 0.080132 -0.031187 0.178879 0.285178 0.620600 0.578110 0.494061 -0.199005 0.146950 0.743056 -0.352304 0.573740 -0.931924 -0.837453 -1.292394 -0.619149 -0.363399 -1.645783 0.146809 -0.024139 0.952554 0.731214 -0.269393 0.539069 0.068122 0.070742 0.855345 -1.393606 0.747604 -0.720279 -0.775005 0.493010 0.900534 0.390077 0.936924 -0.256799 0.739621 -0.492310 0.765207 -1.465203 -0.506878 -0.809165 -0.223499 -0.675123 0.265130 0.404828 1.322813 -0.047174 -0.586586 -1.706288 -1.308567 0.570965 0.554998 0.648074 0.367021 0.855068 -0.314793 0.299245 0.265639 -0.545406 0.240534 -0.123165 0.218893 0.050047 0.156161 0.209938 -0.174065 -0.639509 -0.155596 -0.234886 -0.322730 0.807135 -0.234492 -0.741072 -0.052846 0.098507 0.029193 0.250873 -0.970098 0.007449 -1.304155 -0.728464 -1.129025 -0.118360 0.917607 0.187688 0.873705 0.069838 -0.461959 0.868941 0.797726 -0.025432 -0.668001 -0.634939 -0.467123 0.382387 1.298960 1.274527 -1.238202 -0.556439 -0.083070 1.112556 -0.686640 -0.958710 0.686493 1.013288 0.887138 0.738035 0.362430 0.025675 0.324490 -0.016628 -0.685605 -0.092764 -0.778622 -0.059911 1.168731 0.386609 -1.096021 0.414636 0.336323 -1.061586 0.043782 0.451241 -0.528937 -0.429900 1.066453 0.762469 0.049989 -0.638247 -1.126619 -0.969023 -0.048349 0.832487 1.609914 0.164032 1.195639 1.047267 -0.933438 0.694788 -1.072315 0.372983 -0.989313 -0.179597 -0.022398 -0.492809 1.279558 0.152297 0.556380 -0.524655 0.636093 0.121196 -0.913658 -1.045503 -1.303677 0.669460 -1.773398 -0.234405 -1.266548 0.439653 -0.489421 0.451993 -0.050975 -1.579304 0.249227 -0.130787 0.734829 0.428149 -0.425629 -0.289571 0.884643 -0.578981 -0.171501 -0.994573 -0.192851 -1.127172 -0.539570 1.435093 -1.654076 -0.340195 -0.502753 -0.819276 -1.027011 0.766435 0.389129 0.414238 -0.769372 -0.814924 -0.251547 1.061895 -0.327449 -0.830880 -0.469536 1.212520 -1.486492 0.650544 1.488184 0.246805 0.991834 -0.855703 -0.057313 -0.692716 1.295770 -0.364259 -0.477718 -0.506216 0.201975 0.187759 0.852292 0.858850 -0.681024 -0.025541 0.139746 0.271822 -1.370028 1.158080 -0.846995 0.428836 0.751984 -0.482095 -0.612291 -1.085588 0.720489 0.863498 0.123048 0.538847 -1.281732 -0.579356 -0.785491 -1.194435 0.711743 -1.170963 -0.788644 0.195183 -0.273646 1.365174 0.039810 -0.304651 -1.297553 0.126588 0.770729 0.959989 -0.872377 -0.552224 -0.471993 -0.645245 -0.386376 -0.259745 0.494372 -0.276777 0.117215 -0.113007 0.289775 0.011469 0.641727 -1.293607 -0.188277 -0.331123 0.018877 -0.234574 -0.035324 0.243048 0.717591 0.750142 -0.412503 0.537914 -0.768427 -0.169686 0.712399 -0.274287 -0.755386 0.052575 -0.527840 0.329954 -0.494424 -0.449899 -1.116614 0.103580 0.286964 0.177283 -0.473196 -0.030912 0.789328 -0.287893 -0.620355 -1.053871 0.184665 0.957732 -0.037438 -0.682635 0.811746 -1.002025 0.967085 -0.226914 -0.799933 -1.016063 -0.078306 -0.109671 -0.231973 0.794393 0.019328 -0.166876 0.027647 -0.534739 -0.213095 -0.121188 -0.505742 0.304163 -0.835399 -0.722897 0.547446 -0.225008 0.564635 -0.322440 0.050036 0.643411 -0.158010 -0.277016 -1.032868 -0.837227 -0.900529 0.771226 -0.278491 -0.382286 -0.512226 0.425276 -0.669065 0.251840 0.353711 0.264218 -0.412776 -1.046479 -0.849767 1.215623 -0.031804 -0.267123 0.991675 -0.340718 -0.357403 0.287868 -0.702420 -1.132108 -0.274218 0.381164 -0.407088 0.774000 0.008241 0.104317 0.507574 -0.017575 -0.859586 -0.634443 -0.376560 -0.252404 1.237659 0.164817 1.159451 0.607146 0.000799 -0.535123 -0.991063 0.089562 -1.155068 0.115737 1.688298 0.239074 -0.266984 0.216875 -0.496657 0.437055 -0.272119 -0.839781 0.410842 -0.927869 -0.094806 -0.982393 0.057513 -0.116946 -0.779644 -0.734512 -0.656236 -0.263357 0.202929 -0.808582 0.737654 -0.614703 0.002585 0.055133 0.710043 0.537606 -0.342149 0.242064 -0.455425 -0.390004 0.088452 -1.210889 0.386916 0.832349 -0.005749 1.074966 -0.364362 0.738760 -0.352221 1.101631 -0.204109 -1.018741 -0.489834 0.398925 -0.071443 0.037524 0.871816 0.301127 -0.018691 0.106286 0.726628 1.414614 0.872884 -0.428107 0.961820 -0.772316 -0.104911 0.840366 1.054306 0.863295 -0.336977 -0.126888 -0.807168 0.046836 -0.271290 0.949664 0.776070 -0.472539 -0.573609 0.366535 0.372958 -0.059098 -1.908821 -0.218357 0.358316 0.030499 -0.338022 -1.410456 -0.380337 0.646243 0.104157 0.614319 0.543575 -1.304546 0.387640 0.347258 -0.926679 -0.745844 -1.309519 0.175337 0.066162 -1.484876 0.309422 0.465758 -0.193507 -0.362252 0.820727 0.946443 0.351848 0.642313 0.434882 0.384625 -0.630404 -0.431847 -1.131478 0.806068 0.142379 -0.385605 -0.350262 -0.163519 0.842640 -0.803487 -0.095282 0.004820 0.623210 0.575252 0.153238 0.421236 -0.205248 -0.431187 0.919904 -0.788069 0.056693 -0.754721 -0.448168 0.347748 -0.396784 0.787111 0.749060 -1.445692 0.282996 -0.370935 1.075989 0.337527 0.023799 0.626967 -0.499685 0.369698 0.378262 -0.911496 -0.689616 0.360096 -0.675513 0.220532 0.783603 -1.311440 0.414017 -1.366013 0.604457 1.917071 -0.957190 0.226458 -0.891775 0.434133 0.486233 0.714890 -0.189036 -0.403273 -1.173753 -0.723987 -0.403387 -0.155380 0.890850 0.403782 0.662246 0.550128 -0.973860 -1.039643 -0.722329 0.213196 -0.760192 -0.243176 0.438407 0.169309 1.121099 -0.593434 -0.878172 -0.239416 -1.158811 0.399538 1.039374 0.297516 -0.618611 -0.939723 -0.958910 -0.154749 0.712048 0.970567 -0.800994 0.970722 0.236285 -0.691341 -0.108865 0.708267 -0.235265 -0.439211 -0.793128 1.211845 0.009637 0.092751 0.550426 -1.529369 1.528714 0.754295 0.825260 1.246697 0.894796 0.106959 -0.233635 -1.015435 -0.061627 1.208685 0.429617 -0.230983 -0.054334 0.319098 0.894619 -1.523575 1.667136 1.049796 0.629636 -0.377279 -1.269817 -0.990973 0.713840 1.071708 -0.548303 -0.703931 -1.787992 0.292342 0.309879 -0.757793 -0.629478 -0.414813 0.659207 0.545019 0.289165 -0.028180 -0.658862 0.464966 0.770991 0.313297 -0.319879 -0.597424 -0.524880 0.902434 0.372586 -0.770615 1.012866 0.444055 -1.508182 1.455653 0.873812 -0.495293 0.290248 0.521309 -1.368485 -1.027588 -0.472213 -0.575247 0.426258 -0.166820 0.649658 -0.729043 0.699013 -0.226036 -0.137782 -0.345262 0.193405 -0.809056 -0.501915 -0.830035 0.398602 -0.740778 0.745793 -0.019172 0.165612 -0.072578 0.573047 1.186668 0.108513 0.453592 0.143914 0.084047 0.734950 0.029614 0.524148 -0.764665 -0.313596 0.122293 0.556129 0.493736 -0.136857 0.101061 -1.100142 -0.706095 -0.313802 0.312935 -0.924715 0.512893 -1.098508 -0.128382 0.157914 0.400302 0.118126 -0.480479 -0.964564 0.588428 -0.751175 -0.470702 1.244121 1.512113 0.611042 -1.248144 -0.326765 0.056401 -1.047898 -1.677842 0.568673 -0.303307 1.238550 0.200180 0.541232 -0.179758 -0.365819 0.567359 -0.543148 1.353777 -1.083275 0.658158 0.840785 0.110555 0.094975 -0.397396 0.515972 -0.205314 -0.124655 -1.303649 -0.257937 -0.292210 -0.342580 -1.852893 0.560928 -0.214293 -0.835629 -0.200670 0.379759 0.031818 0.321941 0.371479 -0.412272 -0.076893 0.714212 -0.415799 0.292311 0.105752 1.436769 0.589317 -0.217132 0.779402 0.043963 1.682712 0.444577 -0.921478 -0.945539 0.617783 -1.767582 -0.721532 1.208220 -0.424477 0.615448 0.590523 1.059848 0.734371 -0.713254 0.154063 -0.884254 -0.188504 -0.472552 0.253008 0.662528 0.119845 -0.220595 -0.684469 -0.703245 -0.928089 -0.925207 -0.888332 0.665368 0.772258 -0.636960 0.676114 0.066377 0.588413 -0.028721 -0.346416 0.768845 -0.544570 -0.007381 0.455586 0.899573 -0.025613 0.576890 0.490548 1.234288 0.886633 0.398983 0.323242 -0.508318 -1.539037 -1.228399 0.690474 1.493755 0.909001 0.200764 1.114680 1.312818 -1.160346 0.234331 0.184594 0.669211 0.482299 0.390544 1.408839 0.397642 -0.484716 1.073978 -0.063761 0.405312 0.712121 0.839388 1.256297 0.724710 0.088463 -0.321355 -0.142282 1.630765 -0.773501 -0.643505 0.428860 1.116528 -0.207789 -1.054716 -0.763755 1.441918 1.273014 -0.394734 -1.230289 -0.009650 -0.274436 0.137933 -1.525656 -0.428511 -0.864549 0.402700 0.937425 -0.781683 0.824231 -1.051617 -0.015243 -0.447270 0.151123 0.952718 0.278033 -0.369962 0.200914 -0.903250 0.762656 -0.608471 -0.931843 0.595458 0.006376 -0.489637 0.085804 -0.457172 -0.038479 -0.129161 -1.387741 1.097970 -0.647624 -0.684471 0.007291 0.440472 0.182661 0.106057 1.747175 0.323293 1.019049 -0.386002 0.824510 -0.034270 0.135465 0.270371 0.906601 0.546320 0.455061 -0.554419 -0.414165 -0.565355 -0.799376 0.728944 0.084162 0.877876 0.803187 1.099903 0.956452 -0.766382 0.243082 -0.837622 -1.497743 0.392291 -0.449551 0.058318 -0.247150 -0.594150 0.196528 0.817432 0.912411 -0.323820 0.531766 -0.143563 0.023929 -1.294507 -1.236042 0.801106 0.648162 -1.662515 0.839631 1.196173 -1.292252 0.215744 -0.433969 0.851539 -0.509606 1.076417 0.485817 -0.327836 0.708225 0.140645 -0.255737 -0.478503 -1.075262 0.674141 0.602207 -1.009955 0.099678 0.839038 -0.377478 0.577897 -0.674008 -0.140495 0.605219 0.237796 0.302139 -0.171240 -0.427749 0.140739 -0.051433 0.779058 0.639616 -0.497831 -0.351516 -1.108956 -1.106509 1.002120 0.966280 -1.613899 -1.190699 -1.002527 0.766231 1.029737 0.327141 -0.480440 -0.296650 0.356333 -0.543117 0.037886 0.919715 1.385172 1.060025 -0.825598 0.989855 -0.263121 -0.608859 0.333545 -0.442126 -1.433515 -0.504421 -0.399763 -0.338783 -0.186069 -0.958819 -0.361659 0.672712 -0.457241 0.513899 -0.164843 -1.100080 -0.283614 0.577082 -0.609840 -0.748215 0.151167 1.495263 -0.462777 0.791927 0.004463 0.661726 0.360687 -0.155499 1.152052 -0.902613 -0.100185 -0.329403 0.271695 -0.663979 0.006064 -0.545835 -0.487268 -0.259495 -0.878100 -0.263529 -1.326924 0.990538 0.551197 0.407595 0.329561 0.650588 -0.046125 -1.213134 0.736187 0.315763 0.127942 0.247675 0.677232 0.183797 -1.170521 -0.550454 0.056492 -0.471895 -0.723478 -0.536920 -0.323324 -0.997672 -0.636845 0.906878 1.326186 0.447591 -0.050349 -1.237853 0.189482 0.444725 -0.677732 1.583443 0.341937 0.907697 0.920470 -0.490226 -0.588467 0.002409 0.584908 0.138022 -1.307839 -0.072832 -0.667638 -0.536535 0.108023 0.766670 -1.766739 0.763610 0.278206 0.283443 0.316243 1.083557 0.203800 -1.486389 -1.203766 0.890994 -0.527483 0.066323 -0.744640 0.491496 -0.020519 0.924266 0.675882 0.885961 0.061382 -0.361707 1.065929 -0.538154 0.482720 -0.404585 -0.279453 0.094852 -1.070591 -0.110577 -0.420924 0.523061 0.039560 0.409630 0.883082 -0.755087 -0.930265 0.306259 -0.530227 0.126837 -0.351555 0.684012 -0.789697 -0.762378 -0.078693 0.027329 1.323004 -0.793380 0.485261 -0.190669 0.460607 -0.236373 -0.102424 -0.094096 -0.065159 -0.430399 -0.154046 -0.033932 0.277044 0.999329 -0.201959 0.676923 -0.295054 -0.094908 0.741253 -0.248207 -0.115073 -1.064613 -0.727080 0.300713 0.295400 1.205585 -0.027402 -0.035579 1.266609 0.794436 -0.928351 -0.982018 0.292513 1.120135 0.767486 -0.509643 0.495405 -0.285974 -0.555554 -0.603098 -1.005075 -0.678733 0.441755 -0.327785 -0.893118 -0.533715 1.254841 -0.369550 0.604308 0.517345 0.265083 0.897850 0.254520 -0.786395 -0.042621 0.415891 0.007132 1.057855 0.145345 -0.511524 -0.386153 0.122813 0.768790 1.344137 0.482041 -0.189042 -0.156459 -0.284625 0.833249 -0.334164 0.117964 0.335658 0.494887 -1.166435 1.106605 -1.042995 -1.358338 -1.314011 -0.719978 0.361014 -0.121773 0.149716 0.419447 -0.873540 -0.405808 -0.467461 0.104521 1.251137 0.820294 -0.335073 1.641871 -0.043222 -1.191242 1.546738 0.387929 0.411335 0.491760 -0.512214 0.413484 -0.035644 0.011112 0.950321 -0.345856 -0.115179 0.378593 -0.966948 0.311138 0.339581 -0.258267 0.110715 -0.494515 0.644499 0.485444 0.509643 0.360637 -1.024194 -0.745392 0.387081 0.225225 -0.192157 0.754451 -0.262087 0.288895 0.653822 -0.279869 -0.296872 -1.074669 -0.568771 -0.600971 1.506942 0.044365 0.372130 -0.931232 0.712823 -0.083009 -0.239576 -0.623372 0.394416 -1.005563 0.677977 1.036638 -0.159664 0.449689 -0.885918 0.907644 0.101059 0.360085 0.500403 0.023624 -0.946993 -0.546213 0.630062 -0.477752 -1.383904 0.633451 0.680413 1.100267 0.843908 -1.155987 1.080551 0.033835 -0.505158 0.126417 1.855124 0.126060 -1.199738 1.173589 0.078931 0.021688 1.427120 -0.159417 -0.357193 0.346672 -0.883567 -0.665037 -0.060474 -0.093663 0.039179 -0.082965 -1.035547 0.680338 0.362417 0.864688 -0.350331 0.725790 0.471383 0.123497 -0.155613 0.532662 1.019536 0.441106 0.078580 0.709297 0.722196 -0.044304 0.110351 -0.377342 1.142418 -0.509117 -0.839555 0.413243 0.683909 -0.364204 0.453133 0.461567 -0.768775 0.035787 0.139085 -0.216534 0.504046 -1.060258 0.269492 0.803060 -0.330898 0.014105 -0.039925 -1.230937 -0.737587 0.683779 -0.570498 0.671948 -0.104783 1.356449 -0.039263 -0.053446 -0.236044 0.562823 0.851990 -0.923142 -0.500861 1.284175 -0.018417 0.998279 -1.164682 0.650270 0.157683 -0.472167 1.026764 0.650228 -0.879051 -0.214161 -0.478688 -0.115992 -0.981200 0.806752 -1.605175 1.207129 0.101399 0.462873 -0.647305 0.478137 0.514651 -1.376982 1.047661 -0.626618 -0.649434 0.120371 0.237379 -0.239561 -0.458280 0.151875 -0.156077 -0.417129 0.457927 1.236409 0.788589 0.858419 0.200703 -0.250315 -1.500892 0.023150 0.054776 0.160962 -0.984353 -0.395522 -0.055129 -0.252066 0.451440 -0.020252 0.378273 1.299343 0.060377 0.399841 -0.158084 0.619730 -0.869401 0.592067 0.115066 0.098779 -0.067955 1.890149 -0.905959 0.551637 -1.324268 1.094706 0.741578 0.649045 -0.346741 -0.582868 0.582281 0.412442 -0.568427 1.226431 -0.442537 -0.705717 0.338924 -0.346443 1.275497 0.172290 0.500082 -0.511112 -0.676702 0.292297 1.980741 -0.336378 0.106414 0.390905 -0.508130 0.289460 -0.054087 -0.060904 0.451308 1.064412 0.936176 0.943481 0.733427 -0.213009 0.325746 1.082747 0.482239 0.543083 0.542887 0.417072 -0.259070 1.004341 0.413420 -0.206024 0.171508 0.608641 1.893053 -0.369169 -0.009805 -0.612901 -0.939820 0.582456 -0.029524 0.020561 -0.567218 1.041396 -0.829663 -0.105551 0.269426 -0.417929 -0.473859 0.312248 -0.460460 0.225249 0.150970 0.004000 -0.710367 -0.409174 0.153398 1.016217 -1.504719 -0.235107 0.431812 0.110557 -0.076438 0.815366 -0.312739 0.257664 -0.296046 -0.630829 -0.805768 0.778543 0.047481 -1.059879 0.696979 -1.035926 0.298842 0.520326 0.341214 -0.554107 0.852784 0.229733 -0.192956 -0.595724 0.063045 1.528813 -0.004914 -0.548874 0.594781 -1.618572 0.567615 -0.814152 -0.570220 -0.217635 -1.449150 0.509866 -0.007428 0.679839 -1.175410 0.556559 -1.511391 0.320709 0.117629 -0.295320 0.464539 -1.298875 1.430829 -0.114487 0.023302 -0.512548 1.195195 0.426356 -0.482915 -0.687455 -0.821251 -0.594489 0.692282 0.983148 -0.660663 -0.004947 -0.048989 0.329181 -0.368310 -0.268612 0.220454 0.016541 -0.314664 0.951921 -0.162206 0.665249 -0.535584 -0.735453 0.299616 0.622627 1.189060 -0.671217 0.023330 0.784085 -1.601132 -0.139544 -1.380945 -0.921236 0.569673 0.094342 1.897222 0.080192 0.748262 -0.705099 0.593156 1.142057 0.056419 0.523603 0.440096 1.375815 0.623365 -0.576331 0.496163 -0.749601 -0.580991 -0.979441 0.384261 -0.731783 -0.513079 0.301914 1.071928 0.325034 0.491662 -0.998802 -0.987275 0.365799 0.310582 -1.482263 0.929063 0.702059 0.746505 0.986455 1.405052 0.502567 -0.590581 1.338731 0.826616 0.225879 0.573559 -0.432737 -0.083843 0.009890 -0.282562 -0.559098 -1.033716 -0.079053 -0.137096 0.234748 -0.644117 1.077693 0.503833 -0.098385 -0.382841 -0.784853 0.825184 0.636524 0.756262 0.394276 -0.345669 -0.939633 0.301449 -0.211200 0.587478 -0.869729 -0.735194 -0.981633 0.613043 -0.972919 0.723157 -0.821589 1.008563 -0.837560 0.217546 0.716466 -0.015965 0.435384 0.561704 -0.951998 -0.587015 -0.166980 0.671310 -0.557635 0.275610 -1.110606 -0.348450 -0.857775 -1.000244 0.382511 -0.463385 -0.185448 0.709807 -0.678315 -0.435575 -1.048384 0.770439 -0.265322 -0.430469 0.301237 0.819726 0.324236 0.229451 -0.572375 0.091463 0.240596 0.288497 0.601377 0.021782 -1.079801 0.759861 1.016976 0.572760 0.383472 0.935667 0.756249 0.211101 -0.172839 -0.483108 0.003189 -0.834850 -1.185179 0.653297 -0.567442 -0.682570 1.543298 0.033852 0.793106 1.243073 -1.025440 1.053240 -1.017215 1.134477 1.130757 0.199829 -0.608290 -1.031118 0.017578 0.144585 0.285667 -0.139429 0.743949 0.045431 -0.031382 -0.148578 0.466824 -0.738704 1.031278 -1.300206 0.443733 1.036595 0.331356 0.465000 0.674674 -0.325995 -0.542329 0.403593 -0.961798 -0.780482 -0.668173 -0.296407 0.395251 -1.006517 0.843425 -0.383886 0.106013 0.532038 -0.474494 0.059724 0.697969 0.945909 -0.529339 -0.337514 0.193165 -1.319744 0.082373 0.417713 -0.832650 -0.578877 0.285568 1.202487 0.479890 -0.289955 -0.008497 -0.224814 -0.153253 -1.494926 1.177461 0.157639 -1.029095 -0.552033 0.610364 -1.038218 -1.235013 -0.439122 -0.057514 -0.610625 0.992056 -0.424946 0.410646 0.828196 0.453787 -1.095237 1.093635 1.181885 0.945076 -0.020095 -1.030571 -0.384718 -1.025383 0.953168 -0.362468 0.175982 0.159978 -0.776208 -0.249781 -0.455761 -1.364962 -0.273838 0.498400 0.418074 0.195233 0.039168 -1.018607 0.178821 -0.592667 -0.159456 0.070943 0.388094 -0.729383 -0.784813 1.175776 0.228665 -1.117335 -0.099123 -1.184490 0.173710 -0.387971 -0.476741 -1.053804 -1.371035 -0.067888 0.004501 -0.506516 -0.901293 0.359308 0.822035 0.077427 0.360819 1.495101 -0.937052 1.243230 0.523899 0.579705 -0.711160 1.294209 0.350656 0.803628 0.957768 -1.435631 0.803579 0.661487 -0.148464 0.612481 0.118110 0.163887 1.909896 1.043957 0.854812 -0.656949 0.781548 0.075688 -0.433149 -0.183570 -0.524117 0.432090 -0.643158 1.148680 -0.498081 0.155874 1.012486 -0.110682 0.046502 0.915908 0.067956 0.278505 1.244590 0.393509 -0.281793 0.148545 0.175746 1.179007 0.498596 1.606979 0.883741 0.030018 0.902126 -0.305362 -0.047415 1.602215 -0.469904 -0.996551 0.104385 0.070747 -0.511626 0.866514 0.107981 -0.180977 0.823302 -0.101394 -0.303730 0.018061 -1.328322 0.673098 -0.531690 -0.352654 -0.577042 -0.733606 -0.647482 -0.038938 -0.218524 0.771781 -0.043936 0.503058 0.925854 0.886966 0.244135 0.155443 -0.803223 -0.695123 0.417184 -0.130922 1.694782 -0.781603 -0.099557 0.515171 -0.344394 -0.710667 -1.368564 0.312307 0.204521 0.671327 -0.219436 0.083012 0.193359 0.477890 -0.150201 -0.303976 -0.076282 -0.346020 -0.091599 0.550596 0.972835 -0.299139 0.702079 -0.553601 0.654647 0.334668 0.781051 -0.413048 -0.932316 -0.668453 -1.641964 -0.749704 -0.555195 -0.675853 -0.562838 -0.493843 -0.719644 -0.490395 -1.286268 -0.674162 0.368863 -0.104558 1.341069 -0.477512 -1.150689 -0.369945 0.734106 0.258332 0.008448 0.837481 0.009904 -0.759007 0.251742 0.036137 0.396012 -0.521753 -0.458175 -0.701002 0.571290 -0.621369 0.344119 -0.356360 0.111008 -1.166621 0.952804 -0.355303 0.277375 -0.717359 -0.286392 1.500579 0.818276 -0.160705 -0.267648 0.972667 1.122708 -0.451248 1.165537 -1.221198 -0.119253 0.121877 -0.550672 -0.736141 -0.736859 0.447653 1.277304 -0.155240 -0.131792 -0.983244 -1.192095 0.189870 -1.108882 1.173951 -0.085561 -1.763290 0.943152 1.681664 -0.721560 -0.067344 0.564059 0.025926 -0.313086 0.426731 -0.739776 -0.055656 0.456439 0.536184 -0.343806 -1.080800 0.943999 0.489357 -0.939641 0.121525 0.049156 0.186941 -0.047275 0.871140 1.233809 -0.675463 -0.590086 -1.809947 0.590553 -0.409386 -0.220198 1.214929 0.932076 1.033631 -0.808903 0.377005 0.888676 0.516782 -0.146476 0.470799 0.909329 1.431558 0.314185 -0.459192 0.916249 0.089899 -0.639863 -0.087252 -1.321819 -0.335960 0.338098 -0.542986 0.099805 -0.291980 -0.018292 -0.310751 0.011036 -1.410334 1.276613 0.302498 -1.035822 -0.525237 -1.093973 0.992849 0.488109 -1.401907 -0.444515 -0.101702 0.279662 1.698312 -0.542758 -1.314773 0.039779 -0.203720 -0.155131 -1.023329 0.880573 -0.304273 0.684601 1.352106 0.063424 0.500114 -0.728549 -1.426491 0.479989 0.881195 -1.531796 -0.159604 -0.253918 -0.294430 1.493938 -0.298813 0.877821 0.929098 -0.053582 -0.579424 -0.793260 -0.156292 0.271701 -0.913966 0.899443 -0.298278 0.387375 -0.767412 0.764446 0.901133 0.442556 -0.311861 0.356113 -0.664874 -0.805940 -1.791460 0.084292 0.578911 -0.040380 0.884844 -0.973508 0.605408 -0.324436 -0.405194 -0.999874 -0.775764 0.261453 -0.081293 0.080580 0.264597 0.023308 -1.029076 0.492139 -0.166890 -1.254673 -0.743728 -0.573697 -0.144110 1.158176 0.430057 0.338869 -0.593839 -0.049363 0.421208 -1.290369 -0.116110 -1.272076 0.052425 0.458198 -0.409078 0.675541 0.085549 -0.435347 -0.302891 -0.258060 0.317789 -1.099099 0.950568 -0.639991 -0.424127 -0.933960 -1.213461 -0.639748 -0.026189 1.025547 -0.092072 -0.457303 -0.651441 -0.562552 1.074703 -0.462358 -0.628276 -1.390123 -0.387113 0.554920 -0.683146 -1.359040 0.542160 0.349594 -0.997079 -1.275280 -0.736721 0.970300 -0.455474 0.557435 -0.521939 -0.449284 -0.189163 -0.351290 0.209544 -0.588132 1.118519 -0.822970 0.013428 -1.129550 0.045509 -0.435777 -0.151273 0.191298 1.213702 -1.088658 -0.625929 -1.199560 -0.379230 -1.322473 0.305697 0.382691 -0.231519 1.433092 1.285768 -0.346122 0.231111 0.684454 0.065334 -0.141522 -0.904975 0.165213 -0.856653 0.030939 -0.746263 -0.256205 -1.406484 -0.838458 0.530812 -0.974395 -0.157057 0.189806 0.488982 -0.432515 0.174230 0.844671 -0.449681 -0.155523 -0.415804 0.188549 -0.528338 0.128890 -1.643386 -0.491473 -0.134669 -0.657687 0.446076 -0.881069 -0.544209 0.938386 -0.921180 -0.860153 0.776099 0.014713 0.748427 1.464450 -0.276350 0.473157 0.138514 -0.679995 0.099700 -1.057790 -0.185391 -0.296490 -0.808502 -0.704054 1.025316 0.180487 0.490438 -0.157616 -0.000000 0.751961 0.189722 -0.879841 0.443565 -0.727923 -0.298832 0.575732 0.792535 0.108343 -0.575890 0.817246 0.571831 -0.159812 -0.372489 1.759995 0.715729 -0.505219 -0.490734 -0.569703 0.605952 1.009251 -1.000719 -0.868030 -0.536030 1.492689 -0.483154 -0.422893 0.769215 0.683734 0.864706 -0.041572 0.903435 1.389363 -0.067294 -0.068092 -0.049093 0.314818 0.159904 -0.148455 0.634085 1.200956 -0.743122 -0.209811 0.267200 0.749305 0.734361 -0.530543 -0.625016 -0.927942 -0.167779 -0.552577 0.811333 -1.202025 -0.288888 -0.355434 0.877717 0.057528 -0.500831 -0.044125 -0.307655 -0.966726 0.276728 0.406888 -0.251791 -0.575857 -0.517031 0.754220 0.017601 0.271148 0.052940 0.843884 -0.488009 -1.269126 0.108415 0.337805 -0.192960 -1.114506 0.053401 -0.208815 -0.100925 0.730913 -0.606164 -0.121346 -0.348107 0.454569 -0.544752 -0.719664 -0.901179 -1.044059 1.299928 0.571206 0.397381 0.826540 0.196999 1.081328 0.309678 -1.130044 -0.021616 0.171532 -0.731785 -1.458342 0.886175 0.488894 -0.759782 -1.427387 1.001967 -0.325639 -1.685633 0.552993 0.613704 0.887379 -0.407888 0.740002 -0.350858 0.385056 -0.640594 -0.199037 0.436040 0.078579 0.903594 -0.341885 1.086780 -0.252746 1.428907 0.792292 0.439558 -0.341998 -0.109371 -1.106020 -1.334671 -0.683692 1.611894 -0.032491 0.857661 0.761998 -0.358199 -0.848278 -0.313367 0.418932 0.403113 -0.470843 0.657334 -0.332628 -1.069327 -0.573358 0.217147 0.245472 1.308002 0.316496 -0.392969 -0.052895 -0.460464 -0.631140 -0.360268 -0.701737 -0.024485 -0.816224 -0.364468 0.541643 0.636329 -1.743634 -0.877813 -0.090635 1.693362 0.825465 0.413146 -0.981075 -0.049911 -0.010991 0.780518 -0.710110 -0.252959 -0.818579 -0.255736 0.320905 0.788608 -0.855369 0.160571 -1.254449 -0.308450 0.197584 -0.991240 -0.481940 -0.450841 1.398386 0.555066 0.471885 -1.000972 -1.549905 -0.367798 0.413718 0.252234 0.010333 1.529946 1.052184 -0.218899 1.297086 -0.168393 0.250449 0.495149 -0.147621 0.467089 -0.093497 -0.381894 0.200518 -0.133819 -0.178585 -0.416601 0.673741 -0.965775 -0.754240 -0.680214 -0.504782 -0.054715 -1.719259 0.165088 0.090404 0.206904 0.866488 0.560074 -0.552665 -0.784041 -0.903823 -0.621699 0.329984 -0.037546 0.660806 0.660784 0.759875 -1.272650 -0.210753 -1.093281 -0.147073 0.023405 0.233356 -0.926009 0.581161 0.036793 0.257988 0.298659 -1.089559 0.194729 0.919192 -0.558184 0.343493 -0.325904 0.403524 -0.272647 -0.804845 0.352901 -0.956564 0.293452 -0.980291 -0.993523 -0.275931 -0.694316 -0.799122 -0.361734 -1.259537 0.966226 -0.178096 0.431271 1.328234 -1.253950 1.151214 -0.884484 0.002486 0.571449 1.175015 -0.030996 0.258807 -0.346953 -0.464829 0.116956 0.330085 0.243523 -0.921154 0.446881 -0.174753 0.855505 0.544602 -1.040512 0.121103 0.548379 0.263123 -1.208743 0.863370 0.233442 0.822496 -0.942778 -0.433040 0.438716 -0.003171 0.296283 0.309434 0.539368 1.158656 -0.714823 0.217723 0.621611 -0.544842 -0.748289 -0.504858 -1.034442 1.150485 -0.988280 0.601441 0.331862 1.154049 0.517320 0.469231 -0.695133 -1.008899 -0.473370 -0.663813 -0.339752 -0.528164 0.217444 1.860231 -0.127183 0.577361 -0.448154 0.317652 0.142450 -0.322450 1.072957 -0.311198 0.839492 -0.729582 0.570838 -0.154201 -0.276046 0.822108 0.370895 0.224060 -0.099306 0.945793 1.070335 -0.198968 -0.695913 -1.265915 -0.038017 0.680380 -0.287959 0.430518 1.073410 0.870895 0.521726 -0.688347 -0.106357 -0.226323 -0.806702 0.325886 -0.169552 -1.234833 -0.400559 -1.214360 -0.838408 -0.206747 -0.115390 0.449535 0.305429 0.934270 -0.649783 0.905381 -0.129218 -0.650269 0.872656 -0.319559 0.607521 0.791692 -0.419240 1.164825 0.790493 -0.548970 -0.898777 -0.649388 1.515684 -1.178606 -1.316023 -0.478345 0.335603 0.554957 -0.228898 -0.376909 0.127213 -0.728589 0.255484 -0.364952 -0.643308 -0.543485 0.274447 -0.500569 0.324539 0.322402 -0.308899 -0.745713 1.046448 -1.261839 0.267479 0.401885 -0.692318 -0.941303 0.474348 1.255045 -1.443284 0.281644 -0.365192 -1.311411 -0.993836 0.636248 -0.711091 -0.267507 0.100167 1.076701 0.077091 0.588163 0.050154 0.705481 -0.788532 0.453660 -0.446363 -0.645684 0.512413 0.092778 -0.346000 -0.416436 -0.367222 0.758881 0.271798 -1.113199 0.383123 0.518419 -0.735993 -0.478457 0.492247 -0.438286 0.127252 -0.221253 1.010773 -0.501817 -0.171688 -0.662295 -0.459928 0.377938 0.819577 -1.423593 -0.792789 0.240959 -0.715764 0.806573 0.748178 -0.608335 0.491879 1.464097 0.554078 0.619664 1.037673 0.051864 0.816683 0.633540 0.726021 0.359497 -0.723720 -1.333414 -0.018529 0.860241 -0.879106 0.871911 0.437102 -0.587869 -0.198708 0.594664 0.994909 -0.946305 0.971093 0.315873 -0.382485 0.296619 0.478374 0.376325 -0.866652 0.496274 0.681876 -1.042159 0.460894 -0.175135 -0.383748 -0.434450 0.529583 -0.835543 -0.694296 -0.828379 0.649420 -1.159650 0.032557 1.047752 0.699737 -0.635754 -0.354933 0.336607 -0.867914 0.128196 1.342734 -1.067916 -0.760319 0.714921 0.282051 0.739482 -0.188635 -0.157886 -0.665100 -1.530290 0.739148 0.382171 0.925268 -0.691059 0.561029 -0.231313 0.289869 1.117967 0.780771 0.324305 -0.110370 0.164342 -0.589849 0.407173 0.000243 -0.380180 0.267785 -1.280530 -0.668703 0.447652 -0.875250 0.011156 -0.971342 -0.138227 1.240374 -0.249642 -0.640249 1.097382 0.120372 0.722876 -1.058295 -1.055189 0.025113 0.141234 0.207632 0.064675 -1.072264 0.494285 0.211130 -0.491638 -0.663549 -0.494065 0.513294 -0.472120 -0.348120 -0.264376 -1.528426 -0.289406 -1.017076 -0.154825 0.704448 -0.303351 1.020917 -0.496839 -0.606147 0.785050 1.316776 -0.495504 0.633604 0.395936 0.092493 0.110614 1.100219 0.073519 0.692675 -1.322428 -0.053489 -0.228358 0.326979 0.917723 0.217010 0.671734 -0.502333 0.691125 1.133819 0.820966 -0.444948 0.476926 -0.609554 -0.416392 -0.060962 1.049522 -0.291078 0.219540 -1.000813 0.378540 -1.293222 -1.276423 0.402458 0.252151 0.901197 -0.039729 0.003055 0.539299 0.891093 0.359632 0.535741 -0.776031 -0.792448 0.879997 -0.346105 -1.075467 1.028658 0.777648 -0.025681 -1.091852 -1.109664 1.015859 0.383079 -0.056413 0.370572 -0.012802 -0.408016 -0.207738 0.445380 -0.436199 -0.404052 -0.047290 -1.067758 -0.024610 -0.076946 -0.259450 0.469370 -0.141196 0.012062 -0.431287 -0.408275 -1.487423 0.582190 -0.011645 -0.020876 -1.233466 -0.422478 -0.120959 -0.917179 0.778933 0.751203 -0.371801 0.366573 0.149467 0.702186 -0.507511 0.592466 -1.448349 0.933432 0.481254 -0.572233 0.484543 -0.256827 0.807626 1.114070 0.135024 -0.754262 -0.453464 0.419304 1.092723 0.859300 -0.445735 -0.566167 0.410630 -0.158896 0.635822 -0.279268 -1.327686 -0.543395 0.186776 0.160195 -0.679124 -0.383770 -0.716260 -0.365002 -0.930026 0.951306 -0.409861 0.060205 -1.414082 0.040791 -0.873131 0.457091 0.448445 -0.089388 0.061476 -1.274697 0.227120 0.596231 0.004758 0.449491 -0.309256 -0.970099 0.793628 -0.414235 0.583480 -0.098115 -1.485008 0.265899 -0.189149 -0.544565 -0.570228 0.310925 0.248933 0.631378 -0.229733 -0.263144 -0.840719 0.541496 -0.687388 0.744368 0.118761 -0.229362 0.571224 -0.852455 -0.045301 -1.126963 -0.370185 -0.693661 -0.471725 0.502381 -0.198289 0.181678 -1.068345 0.367173 0.768332 0.664474 0.385249 1.193615 0.104391 0.404462 0.291067 0.479338 -0.353080 0.375371 -0.219771 0.848072 -0.124640 0.678937 0.248866 1.429952 -0.294165 0.962687 0.852128 -0.706998 -0.562172 -1.124819 -0.600078 -0.849663 -0.099977 0.616058 1.206245 -0.154878 0.110877 1.635001 -0.407065 0.467501 0.196550 1.115626 1.830327 0.978944 0.501933 0.511258 -0.424095 -0.980407 0.334722 0.911554 -0.286610 1.196522 0.179212 0.680481 -0.674085 1.324779 0.110049 0.139234 -0.327906 -0.981307 -0.276504 0.608129 1.603247 0.659469 0.958516 0.179029 -0.911332 0.302361 -0.846976 -0.720383 -0.482831 -0.407911 -1.127853 -0.674833 -1.137474 0.349026 -0.561399 1.000127 -0.882896 0.816319 0.522430 -0.351568 -0.167172 0.549414 0.560860 -0.762339 -1.335162 0.370488 -0.028247 0.155949 0.224058 0.219010 0.438227 -0.265019 -0.469422 0.819392 -1.543574 -0.825440 -0.497735 0.476514 -0.088956 -0.463430 -0.668757 -0.147982 0.960827 0.517921 -0.221861 0.263152 -0.943386 -0.064604 -0.464880 0.040342 -0.837150 0.123915 -0.290389 0.395960 0.862064 -0.305954 0.514395 -0.364791 0.188207 -0.083433 -0.543285 0.643668 -0.639442 -0.050057 -0.197873 0.276527 0.366938 0.792909 -0.159267 0.662631 0.922440 0.440208 -0.966856 1.142604 -0.409178 1.132276 -0.671453 0.665425 0.515262 0.801801 -0.437200 -1.481281 0.528357 -0.143621 0.172236 0.050606 0.216271 1.195728 0.585553 -0.847730 -1.072186 0.192966 -0.004756 1.456502 -0.608745 0.319285 -0.622110 -0.601706 -0.014544 -1.297873 0.045769 0.417696 0.244340 -0.828846 1.051953 -0.914621 -1.098109 -0.218194 0.285410 -0.279028 0.338115 0.294232 0.680365 0.264393 -0.239571 -0.467105 -0.788333 -0.108371 -0.151795 0.709815 0.720220 -0.772428 -0.585361 -0.237466 -1.063994 -0.789066 0.362498 0.225800 0.030972 -0.826398 -0.455290 0.312943 -0.969609 0.014181 0.622540 0.904885 0.249240 -0.076152 0.780186 0.231199 -0.896955 -0.360658 1.468737 -1.740840 -0.690593 0.829600 0.434392 0.804620 -0.731627 0.551209 -0.068601 0.293638 -0.837907 0.735418 1.239000 -0.475597 -0.467847 0.208648 0.519404 1.041937 0.963413 0.632680 -0.644490 0.222378 -0.026901 -0.808162 0.415995 1.059670 1.258272 0.513029 -0.661304 -0.168396 -0.759922 -0.308704 -0.619146 -0.742336 0.701544 0.545202 1.132069 -0.870479 0.380701 -0.727078 -0.905856 1.180507 -1.208276 0.234129 0.343386 0.473835 0.184189 0.011075 0.242323 -1.199884 -0.326336 1.115296 0.856844 0.104683 0.842944 0.444707 -0.538109 -0.186253 -0.143213 -0.219365 0.746342 -0.262013 0.918724 0.935257 0.271781 0.505973 0.104567 1.131255 -0.170100 -0.847465 -0.223394 0.371120 0.695743 -0.396372 0.945369 -0.360253 0.899220 -0.639914 -0.322215 -0.941123 0.365226 0.070357 -0.732215 0.060523 -0.708580 -0.180092 -0.549593 0.820788 0.780841 0.694810 1.112336 0.564373 -0.101049 -0.208731 0.089373 1.132358 0.479338 0.682434 -0.889010 -0.064117 -0.734458 -0.784562 -0.504854 -0.214679 -1.444589 -0.421836 -0.050479 -0.669498 0.506175 0.357157 -0.568816 -1.318739 0.101079 -0.339743 -0.002027 -0.840545 -0.026907 0.437177 -0.549024 0.655798 0.393750 1.048266 -1.196682 0.560073 -0.797561 -0.405430 -1.181476 -0.983786 -1.120650 -0.681825 -0.132357 -0.700962 -0.482542 -0.400167 -0.714262 -0.217453 0.199234 0.128426 0.972495 -0.946415 0.208476 -0.354339 -0.398815 0.498719 -0.096616 0.695732 1.393495 -0.576442 -0.267931 -0.409097 -0.385713 0.966215 -0.083464 0.348078 -1.026338 0.392867 -0.790445 -1.093026 -1.359229 -0.862397 0.424812 0.999832 1.380937 0.084151 -0.001592 -1.157779 -0.486142 0.063356 0.883763 0.426479 -0.686454 -0.163968 0.109361 -0.357562 -0.567874 -0.540142 0.174053 0.735992 1.669477 0.935170 1.010908 0.990742 0.086933 0.210733 0.233457 0.576063 0.657351 -0.054096 0.621570 0.456029 -1.449284 0.489121 -0.277986 -0.152287 -0.377169 -0.220485 -0.464550 1.095371 0.261209 0.217908 -0.201787 0.086908 -0.919664 -0.400962 0.736691 0.613758 0.156780 0.412434 -0.141270 0.530245 -0.402725 0.661998 0.155267 0.530070 0.285794 0.681067 0.417554 -1.064285 0.172553 0.579559 -0.233113 0.742075 -0.903712 0.808754 0.133989 -0.500729 0.776397 0.672720 0.869600 1.881195 -0.422304 -0.006177 -0.241447 1.117491 0.658821 -0.409283 -0.692065 0.114694 0.317040 -0.050761 -1.197474 -0.253334 -0.354772 0.524113 -0.886132 0.532453 0.054381 1.054086 -0.857990 1.164818 0.490116 0.856865 -0.661685 1.002179 -0.115368 -1.319270 -0.036923 0.131686 0.714641 -0.746359 -0.649754 0.124271 -1.768038 1.127583 0.802817 1.063172 -0.885784 0.369068 0.578114 -0.856182 -0.780776 -0.150181 0.768763 -0.175495 0.468297 0.326905 0.294661 0.413305 -0.046862 -0.818595 -1.700335 0.047887 0.908435 -0.658952 -0.868146 -0.563561 -0.491436 -0.054986 0.232625 0.370584 -0.207736 0.222066 0.836843 -0.319402 -0.492244 0.418914 -0.357111 0.122381 -1.530126 -0.361708 -0.741518 0.389798 0.103367 1.309932 -0.076670 -0.180551 -0.406874 -0.730319 -0.803746 0.619617 -0.935989 0.081699 0.219160 -0.369824 0.000657 0.070950 0.159838 -0.477281 -0.458957 0.666577 -0.061360 1.245512 0.161304 -0.004884 -0.403136 -0.504178 -0.512447 -0.251602 1.134858 0.265144 -0.172524 -0.410752 0.311426 -0.025895 -0.675901 0.703612 0.553982 1.376447 -1.261366 -0.211265 0.241794 -1.030758 -0.889844 -1.084216 1.149032 0.544825 -0.302850 0.955454 -0.281045 0.793729 -0.498792 0.152621 0.743273 0.364150 1.005555 0.067465 0.265226 -0.594051 -1.116281 -0.025903 -0.631039 -0.104920 0.364732 -0.486315 0.971018 0.266916 -0.065144 0.227028 0.596773 0.385012 0.873710 -0.645228 0.504143 -0.574853 -0.208819 -0.386607 -0.742161 -1.106430 -0.390771 -0.483382 1.296759 -0.689246 0.161934 -1.110077 0.707383 -0.135382 -1.500149 -0.952566 -0.404424 -0.201697 0.376678 0.821157 0.313878 0.138185 0.294758 -1.092344 0.258955 0.565019 -1.060126 -0.420181 -0.543949 -0.051943 0.079564 1.642788 -0.403048 1.234808 -0.524696 1.008532 -0.096544 -0.414205 0.360978 -0.899568 -0.124555 -0.890955 0.539040 0.060768 0.054875 -0.055481 -1.029771 -1.000652 0.559427 -1.397834 0.807531 -0.733982 1.047524 0.739565 -0.359846 -0.407822 -1.038593 0.499038 -0.146107 0.360449 -0.588533 -1.114018 0.371309 0.786294 -0.045246 0.505569 -0.143375 -0.013519 0.050119 -0.039891 -0.864348 -1.250272 -0.470225 0.189257 -0.515075 -0.623687 0.137082 0.162594 1.032899 -0.182402 -0.220631 -0.516858 0.029704 0.341677 0.861288 0.277045 -0.361501 -0.423681 -0.023936 1.110301 1.743338 -0.048509 -0.458705 0.225433 0.593346 -0.650998 -0.488753 0.725777 1.439584 -0.064730 -0.335659 0.533963 1.227054 -0.699329 0.197640 -1.456098 0.342526 0.057511 0.305963 -1.474209 0.161369 -1.435042 -0.812131 -0.533896 -0.536494 -0.443006 0.256800 -0.712943 0.185021 -0.011428 0.091602 0.033400 0.475123 1.850089 -0.465959 -0.584543 0.243777 -0.201598 -0.025755 -0.392814 -0.397431 -0.301448 0.900235 0.573326 0.280784 -0.159519 -0.307239 -0.474448 -0.133611 0.203605 -0.023613 0.512403 0.084554 0.547132 -0.933128 -1.047677 -1.193984 -1.164617 0.549648 -0.734251 0.104856 -0.644274 0.555319 -0.833613 0.596136 -0.922145 0.210159 0.590506 -1.375305 0.694659 0.138049 0.240077 0.262634 -0.387151 0.283099 -0.688716 1.408597 0.031566 -0.362496 -0.921492 0.564262 0.049671 -0.964866 -0.995937 0.134853 -0.617875 0.220735 -0.167771 -0.122825 0.984232 -0.293545 0.205684 0.687594 0.820417 0.388601 -0.588448 
-1.066094 0.478779 -0.395759 0.935087 1.702150 0.636953 -2.018056 1.212110 0.577314 -1.768383 -2.651557 0.207413 0.649030 0.494041 -0.195700 -0.184894 -0.555916 -2.077860 0.147928 0.970174 1.867410 -0.734634 -2.073102 -0.652768 2.037929 -0.378677 1.109134 0.617164 1.243802 0.614108 0.844634 -0.193742 0.400568 -0.266752 0.014738 -0.080932 -0.250282 1.418419 0.503966 0.071284 -0.892362 1.002797 -1.139760 1.546804 -0.713796 -1.237291 0.585641 -0.182398 1.063901 1.433223 -1.222533 0.572384 0.370393 1.990841 0.684565 -1.194049 0.475991 -1.087428 0.899174 -1.245916 -0.017462 -0.922039 0.443825 1.599846 0.242117 -1.181955 0.720782 -2.047539 0.032841 0.345363 1.352730 -0.952697 0.864681 0.334209 -1.586871 -0.337816 -0.846775 -1.167030 0.251424 0.844222 1.141055 -1.584382 0.967387 1.066762 -1.149490 1.000697 0.207764 1.278526 -1.834914 -0.401110 1.978525 -0.696770 -0.379916 -0.493180 -0.725277 -0.870163 1.605728 2.039734 1.303293 0.004274 -2.392516 0.010551 1.160559 -1.181203 0.332362 -1.834333 1.550903 1.171421 1.133271 0.942424 -1.627119 -1.680155 -1.134725 -1.964486 1.330326 -0.920636 2.124183 1.648883 -1.761247 -1.008070 -0.548674 -0.953821 0.128068 -0.965076 0.767710 -0.320326 -0.298514 1.397370 -2.377846 0.646913 -1.014467 -1.843359 0.045401 -0.610612 -0.813550 0.124564 0.572566 1.036778 -1.048969 -0.616465 -1.145043 -0.844384 0.917883 -0.863817 1.078263 -0.099626 -0.487491 0.881481 0.635226 0.945418 -0.044385 -0.539070 -2.495913 1.126662 -0.218441 -1.637187 0.131089 -1.982315 -0.891806 0.711611 -1.413603 2.086596 -1.415599 0.196883 2.091722 -2.003121 -0.506192 -0.176333 -0.890279 0.971801 0.534582 0.552663 1.835014 -1.342632 0.856028 -1.470163 -0.306188 1.115526 0.351643 -1.302127 1.193616 0.592031 1.594280 -0.421154 0.177294 -0.475461 1.712208 0.991931 -1.643679 0.534872 -1.158350 0.713010 1.428832 -0.223242 -0.243797 -1.276029 0.069186 -1.194789 -1.478872 -0.489289 -0.196211 -0.435128 -0.205038 0.819638 1.015266 0.186563 -2.905784 0.664984 0.241541 1.366504 -0.466801 -1.569466 0.206653 -1.417350 1.256859 -0.168153 1.821879 -0.907715 1.411750 -0.453684 -0.273672 -1.888213 -0.324645 0.791823 -0.361159 0.284530 1.250280 1.114338 0.823822 -0.348835 1.092417 0.743827 0.672592 -0.140754 -0.433487 -0.582875 0.019634 0.233914 -0.342933 1.266857 -2.292219 0.474899 0.702038 1.851089 -0.584209 -0.237782 -1.510815 -2.264775 1.305164 0.812256 -0.251974 -0.589134 -0.392316 -1.598482 0.105823 0.912314 -1.035984 -1.082905 1.420790 -2.042093 -1.094657 0.772115 -0.752547 -0.406683 -1.181695 1.473795 0.024423 0.282566 -0.943892 -0.550883 1.352614 0.384153 -0.659325 0.971945 -0.616132 -0.129594 -0.917949 -0.164283 0.081779 -1.499199 -2.145330 1.327038 0.703799 0.631645 -0.868355 -0.756226 0.808576 -1.326585 2.196949 -0.840804 -1.344285 -0.654632 -1.388272 1.147320 -0.981097 0.503649 0.109460 -0.442425 1.381796 -0.393275 -0.680375 1.115484 0.427094 -0.393297 0.227737 0.831111 -1.531530 -0.808011 0.167746 0.362315 0.736342 1.350949 -0.292596 0.401170 0.918457 -1.570309 0.738874 -0.812347 -0.163753 -2.053326 -0.790247 -0.482651 -0.127999 0.364371 0.735582 0.158080 0.877372 -0.072607 1.595038 -0.830419 0.481225 1.268889 -0.779931 0.736208 -0.706402 -0.274411 1.225432 0.885516 1.584211 0.604312 -1.670948 1.362401 0.348004 0.898299 -1.142496 -1.393798 -0.626767 -0.257152 0.043952 1.787541 -1.115402 1.016672 0.921806 0.194505 -1.374358 -2.782913 1.235310 0.786138 1.884187 2.391351 0.954890 0.542628 -0.872420 1.187981 -0.413469 -1.122513 -0.320012 1.177803 0.542435 -0.309647 -0.441060 0.520254 0.316645 -0.257624 0.234225 0.015255 1.320071 -0.775372 -0.931217 -0.029638 -0.403746 0.368530 0.365565 -0.172703 0.108978 -0.570748 -0.912759 -1.973208 0.040807 0.102550 0.876090 0.318646 2.575585 -1.561498 0.923743 0.088253 0.166611 -0.650970 0.996979 -0.365685 -0.825220 1.012665 0.658384 -0.381491 -0.264481 -1.299792 1.747905 -0.276582 -1.601485 1.556204 0.478234 1.285168 1.196245 -0.501710 0.733560 -1.351161 -0.649349 -1.352513 0.748838 -0.416270 0.524888 1.052023 1.008012 -0.809602 0.675764 0.842991 -0.720268 0.097179 0.195826 -0.900371 0.275464 1.701503 1.160815 0.818505 -0.975861 -0.268119 -1.335258 0.662543 1.630758 0.659627 0.540358 2.049416 1.228377 -1.123004 -1.288423 -0.965074 0.497577 -0.593385 -0.129081 -0.078194 -0.298427 1.984442 -0.984563 1.612155 -0.543643 0.487813 1.920300 -1.749726 -1.549026 -1.879136 1.072047 -1.325194 1.430488 -1.374337 0.987327 -0.996987 1.519520 -0.461059 -1.048917 1.519666 0.598415 0.220378 1.692148 -0.118956 -0.457960 0.827257 -1.062506 0.870867 -1.608268 0.539753 -1.542132 -0.461773 2.367867 -0.913158 -0.460704 -1.852283 -1.069499 -1.240388 1.607457 1.824733 0.839363 -0.975886 -0.880894 -1.081447 1.396104 -0.115413 -1.098804 -1.107825 0.100436 0.100353 0.700861 1.470824 0.389319 0.929102 -0.333183 0.120658 -1.544993 1.015987 -0.992676 -0.565031 -1.268608 -0.253969 0.450377 0.087381 0.776430 -0.115482 -0.724455 -0.009209 1.477819 -0.919484 1.512774 0.908129 0.586523 -0.514445 0.073712 -1.509058 -2.092284 0.223396 0.036831 -0.602675 2.454722 -2.154180 -2.175442 -0.392017 -0.968080 0.094041 -2.071311 -1.514294 -0.258671 -1.009965 0.770981 -0.736234 -0.851922 -1.528182 0.601618 1.268328 1.261736 -1.933213 -0.382609 -0.643852 -0.852943 -0.345462 -1.681394 1.039646 0.205174 0.664387 -2.031955 -0.733634 -1.626187 1.791124 -0.739001 -1.484883 -0.975556 1.251059 -0.247769 -1.165742 -1.660635 0.410281 1.479006 1.207792 0.527505 0.521060 -0.628298 2.220278 0.250364 -0.515159 -0.158911 -0.374228 0.197541 -0.293144 -1.008368 -1.276261 1.002330 -0.154012 -2.030828 -1.894680 0.595036 2.042739 0.230020 -0.557890 -1.498011 1.350618 -0.200340 1.363367 -1.114478 -1.060366 0.459230 2.069382 0.035435 -0.441697 -1.287715 -1.565073 -1.564371 -0.437668 0.471685 0.327509 -1.421411 1.132581 -0.378456 0.655384 0.983755 -1.188282 0.292515 -0.139541 -1.633107 1.818998 0.613162 0.183063 0.606680 -0.297907 1.929643 0.050682 0.719182 -1.835687 -1.799662 -1.347054 0.657531 0.535411 -0.720754 -1.169868 0.155948 -1.184517 0.615477 0.388620 1.133585 -0.696141 0.570434 -0.453506 0.219519 0.517675 -0.343073 1.016566 0.452369 1.102535 -0.163126 -1.507882 -0.754362 0.389282 0.117520 -0.428442 1.056067 0.158823 1.251738 0.598712 -0.497762 -0.133311 -1.163466 1.423606 -1.684555 2.207315 0.527960 1.341514 0.097318 -0.858402 -0.545608 -1.970322 0.343805 -1.529444 0.167583 0.259835 -0.137267 -0.745847 0.676506 -0.922828 -0.095039 -1.113570 0.664417 0.157777 -0.195994 0.602929 -1.218580 0.062029 0.936539 -0.794963 -1.095232 -1.112491 0.405113 0.150824 0.470418 -0.154905 -0.263848 -0.882091 -1.607782 0.516781 0.942136 0.058851 -0.046708 -0.894627 0.353253 1.087863 -1.565990 1.319726 0.566484 1.219411 1.100269 -0.687500 0.982881 -0.951946 0.724860 -1.194236 -0.929448 -0.363195 1.734568 1.675274 -0.806933 -1.922501 -0.656109 -0.439817 1.711260 0.345635 0.561607 1.550613 0.507102 1.542406 -1.146158 -0.546160 0.828761 1.808849 0.708708 -0.459202 -0.294921 -1.108247 2.341114 -1.454177 0.695098 1.367206 -0.072358 0.243698 0.998351 0.407729 0.068821 -2.159222 1.237921 0.973191 0.120327 0.530368 -0.970184 -0.768240 0.969201 0.068874 -0.350027 -0.608024 -2.160382 1.378942 1.090123 -2.215592 -1.206090 -0.430086 -0.873338 -1.089529 -1.103777 -0.293110 0.840221 0.898700 -1.923283 0.512480 0.650655 -0.171185 1.017650 0.958192 0.395527 -0.854856 -0.178422 0.108423 1.511754 0.774281 -0.462812 -1.976156 -0.642948 0.046568 -0.341960 -0.374433 -1.150640 0.412980 0.619265 0.210947 1.331709 -1.601530 0.216163 0.837444 -0.009698 -0.494279 -0.956560 -0.806995 0.466406 -0.305588 0.289279 1.038475 -1.182073 1.331106 0.841658 0.959207 0.741264 0.901342 2.259699 -0.018983 -0.741528 -0.803457 -0.036877 -1.519605 1.220713 -1.880445 1.464470 1.363430 -1.576597 -0.497426 -1.140145 1.564387 0.792204 -1.479095 1.187997 -1.969030 -0.132573 -0.129181 2.060859 -0.453311 -0.988452 -1.440378 0.335873 -0.448964 -1.619197 1.737279 -0.076788 0.210337 1.240807 -1.937754 -1.780410 -0.155751 1.370602 -0.033853 -0.346762 1.218562 0.376931 0.684852 -1.900979 -0.205205 -0.523868 -0.987189 0.774794 1.323705 1.633247 -1.279178 -0.717319 -0.959294 -1.098439 0.997017 1.985373 -0.196497 0.393289 1.380098 -1.087617 -0.999695 0.619168 0.633767 -0.051123 -1.495206 1.679040 -1.351636 0.500009 0.945611 -2.072595 0.477472 0.331356 0.615678 1.748565 0.969548 -0.391581 -0.664373 -1.535259 -0.581517 0.428433 1.177180 -0.604447 -0.328034 1.819333 0.391214 -1.070725 1.498314 2.126849 0.654829 -0.730365 -1.353380 -1.759455 0.154488 -0.036343 -0.269007 -0.883586 -2.016358 1.064263 0.735076 -0.912943 0.101707 -0.647681 0.788395 1.630816 -0.304593 -1.674494 -0.725256 1.171671 -0.343077 -0.396709 -0.788870 -0.345778 0.223591 1.780415 0.212211 -1.180362 0.695041 0.973483 -1.848702 1.647183 0.039799 -0.534422 0.849291 1.569186 -1.435975 -0.506537 -0.828405 0.652830 1.119921 -0.655026 1.553058 -0.176360 0.398598 -0.918400 -1.054560 -0.459602 0.764210 -0.972987 -0.047751 -1.756051 0.683458 -0.981089 2.628406 0.058106 -0.592783 0.244024 0.497817 0.904528 1.588313 1.772392 0.784444 -0.555826 0.150622 1.823189 0.157235 -0.152559 0.694420 -1.045272 0.841002 1.124487 -0.546655 0.755597 -1.039140 -0.285708 -1.052127 -0.284536 -0.744236 0.803900 0.039509 -0.177946 0.689575 1.925003 0.692286 -1.546074 -1.960275 -0.602705 -1.719901 1.289553 0.655174 1.257081 1.117480 -2.418996 -1.354157 -0.192810 -1.602880 -2.096672 0.306142 -0.615916 0.677414 -0.929161 0.807411 0.611028 -0.125363 0.757509 -0.247499 1.232916 -0.555123 -0.510202 -0.922017 1.280889 -1.061672 -0.571691 -0.125430 -0.133849 0.819307 -0.340839 0.846833 -0.446878 0.274783 -0.873716 0.671359 0.587029 -1.301081 -1.475301 -0.318219 0.168036 -0.883055 -0.206231 -1.255925 0.137679 0.827645 -0.693633 1.852874 0.170664 0.592453 1.386564 -1.437554 0.085446 0.684434 2.382010 0.745508 -2.221391 -1.339728 2.151051 -1.663250 -0.135451 0.765729 0.326430 0.029097 1.067683 1.044450 0.592486 -1.998930 -0.314368 -0.459279 -0.717425 -1.774882 0.709056 0.317308 -0.643509 0.534880 -1.802059 0.408090 -1.477460 -0.923018 -1.839437 1.500920 0.276037 -0.172897 0.875448 -1.209183 -0.712125 -0.443996 0.024532 0.789922 -0.651369 -1.116724 0.186701 0.663755 -0.779799 -0.096364 -0.667620 0.810822 0.562961 0.355009 0.331303 -0.506948 -0.869290 -1.514582 0.432485 0.697233 0.309891 -2.728498 1.365538 0.805691 -0.742726 0.025971 -0.512860 1.516472 1.071624 -0.110691 0.495665 1.817631 -0.360090 1.162982 -0.001045 -0.705808 0.353716 1.132811 0.947277 1.887483 0.513838 -0.747253 -1.001062 1.067882 -0.663689 0.156741 0.548639 1.024194 0.441215 1.048461 -1.636895 2.411939 0.041767 0.641168 -1.661535 0.258368 1.798544 -0.252049 -0.574441 -1.551568 0.202861 0.965790 1.425961 -1.838489 1.995923 -1.143452 -0.887734 -0.584376 1.278149 1.486469 -0.286203 -0.857495 0.412625 -1.477291 0.221948 -1.348853 -0.136935 -0.184853 1.503921 0.070825 0.868952 0.406913 0.652573 -0.874986 -2.173634 1.153129 -0.291215 -1.523168 -0.377082 1.453947 0.246406 0.880187 0.910527 -0.903151 0.635065 -0.752569 1.209862 0.281138 0.115253 -0.242871 1.099820 -0.199164 0.892140 -0.687558 0.782952 1.587004 -0.858577 0.346040 -0.295894 2.470198 -0.255833 0.584540 0.465521 -0.270369 -1.977585 -1.959746 -0.877734 0.781380 0.117733 -0.770713 -1.861981 -0.255807 0.780724 1.202980 0.843661 -0.379706 -0.070491 -1.865950 -0.384701 -1.039167 -0.378989 -0.029398 -0.129794 -1.073281 2.710604 1.102036 -1.367532 2.255025 -1.024311 0.516007 -1.039547 -0.552030 1.187513 0.244084 0.561721 0.837929 -0.376588 0.129673 -0.630457 1.066018 0.925006 -0.406944 0.397082 0.650084 -2.081830 1.598132 -2.097381 -1.699652 0.763137 -0.963245 0.937444 0.838029 -0.827006 0.217872 0.298984 1.564537 2.271124 -1.211909 -0.970736 -1.367159 -0.222240 1.503524 0.766322 -1.908401 -1.018143 -1.026141 1.694429 1.336504 0.720643 -0.810554 -0.169934 0.636358 -1.483501 1.291192 0.213444 0.525397 1.091128 0.024971 0.375863 -1.226863 -0.177840 0.154773 -1.280238 -1.572800 -0.307134 -0.739029 -0.164700 0.512644 -1.205941 -1.373558 1.089176 -0.270477 2.418009 0.032515 -1.150269 -1.546676 0.899081 -0.538892 -2.057116 1.047862 1.400261 0.043017 0.128074 0.137368 2.583833 -1.006409 -0.195432 1.579592 -0.539535 -1.186620 0.201200 0.939940 -1.180127 0.481214 -1.222376 -0.177569 -0.995974 -0.791061 0.434288 -1.611959 0.562874 1.721097 0.715156 -0.782560 0.953584 -1.359457 -1.900023 1.174457 1.009040 -1.876827 0.512767 1.090807 1.289855 -0.676963 -0.834037 0.588141 -0.585332 -1.461410 -2.070324 -0.401867 -1.083810 -0.802139 0.832834 0.433535 0.894041 1.758790 -0.894867 -0.193063 0.806559 -1.738005 0.840695 0.391875 1.506767 0.829136 -0.645568 -1.233266 -1.493386 1.399095 -0.256478 -0.104638 0.411940 -0.435896 -0.704723 0.790889 -0.539616 -2.539005 0.491293 0.608189 -0.390974 1.413555 0.793725 1.796874 -1.630482 0.246906 1.571405 -0.369152 -0.480763 0.166771 0.878194 -1.032111 0.813469 1.491862 1.309322 -0.074126 -0.878011 1.697450 0.205854 1.331042 0.200412 -1.382487 0.422379 -0.793627 -0.549516 -0.377835 -0.231741 -0.644626 -0.333529 1.354582 -0.293824 -1.134688 1.591533 -1.774488 0.531752 -0.005761 0.878375 -0.951414 0.408032 -0.054187 -0.788673 1.904328 -0.234680 -0.432987 0.477122 0.677528 -1.283292 -1.774577 1.021445 -0.294711 -0.884544 -2.516094 -0.200308 -0.111141 -0.349318 -0.483891 0.830542 0.421781 -0.786169 2.622226 -1.333464 -0.144226 -1.325989 -0.927471 0.136164 -0.372165 1.850118 -0.415483 -1.571417 0.529724 0.763614 -0.984816 -1.202557 1.096102 1.876186 0.288695 -1.447338 1.158507 1.105893 -0.954678 -0.346792 -1.909385 -0.829800 0.451677 -0.250729 -1.215145 -1.087926 0.951382 -1.253946 1.178199 0.226263 1.054357 0.538380 0.707351 -0.265506 0.767605 0.838351 0.275755 0.551734 -0.420741 -1.648901 -1.098720 -0.287327 -0.271751 1.720314 1.151183 -0.343327 -0.701511 -0.739584 1.410229 -1.221633 -0.189652 -0.013744 -0.661087 -0.837383 0.804839 -0.444000 -1.838152 -1.402382 -0.418149 0.337652 0.846949 0.035854 2.291368 -1.916609 1.194438 -0.723521 -2.164006 1.385359 1.340509 -1.131169 -0.078138 0.414744 -1.414568 1.411571 -0.802857 0.749846 0.204730 1.333555 0.433878 -1.851245 -0.312108 1.061196 -0.950985 -0.072728 -0.585384 -1.531608 -0.525820 0.532875 1.103571 -0.307649 -0.106970 0.922697 0.218689 1.428690 0.166965 -1.980397 -0.327023 1.307985 1.723910 0.797055 0.520405 -0.230540 2.034868 0.645441 0.416953 -0.468754 -1.395248 -1.000579 -0.411970 2.375161 0.216817 -0.612449 -1.314517 0.839452 -0.408176 0.060867 0.181576 -0.042505 -0.179946 1.027582 2.126237 0.143372 0.128295 -1.837763 1.915914 0.368723 2.152555 -0.344363 1.752807 -1.964919 0.432950 1.672241 -1.392227 0.292864 0.357371 0.948875 -1.105149 0.835993 -1.093622 1.009519 1.183808 -1.654266 0.811006 1.142893 -0.313055 -1.525443 1.050011 0.140537 0.809189 1.655342 0.647797 -1.049740 -0.739537 -2.413442 -0.628564 -1.444340 -1.082029 0.257474 0.650209 -1.158856 1.621938 0.524534 0.021654 2.019040 0.183683 0.107950 -0.388680 -0.134295 1.450016 1.763346 0.553756 1.398815 1.939943 0.360565 -0.364667 -0.908998 -0.819345 0.750112 -1.595452 -1.667736 0.944097 -0.412788 0.216121 0.905044 1.184837 0.495051 0.298878 1.409794 1.055606 -0.635820 -1.640659 1.323657 1.852031 -0.875287 0.229120 -1.320113 -0.884377 -1.068257 -0.056389 -1.164936 1.033908 -0.106549 0.899471 0.013380 -0.897584 1.130256 0.713035 1.135716 -1.895674 -0.248117 1.839157 0.616719 2.865399 -1.113393 1.147816 -0.741384 -1.765802 0.526900 1.179934 -2.822348 -0.853472 -1.268064 -0.864555 -0.901180 -0.269275 -1.243729 0.638149 -0.869425 0.216738 0.028708 0.388749 0.755716 -1.284991 0.645896 -0.953806 -0.466308 0.943061 -0.749653 -0.912938 -1.153313 0.439839 -0.315389 -0.003898 0.324277 0.985754 1.436789 1.874844 0.519677 -0.245617 -1.020720 0.427927 1.001277 -0.255269 -1.056929 -0.571509 1.333415 1.265214 1.041106 -0.590115 0.458608 0.880054 -0.032308 -0.090208 0.261950 0.760173 0.483581 1.925296 0.995171 -1.323289 -2.311260 1.875415 -0.983338 1.614556 -3.056356 1.404642 1.386175 0.120277 -0.756513 -0.285726 0.943228 1.781007 -1.867451 1.094335 0.073118 -1.598850 0.287009 -0.776007 1.198078 1.235980 0.140770 -1.661644 -0.629112 0.512485 1.899182 -0.657079 1.193986 0.091344 -0.109358 -1.224707 0.230449 -0.034254 2.014879 1.674509 1.500258 -0.923964 2.290020 0.179532 0.239257 0.868129 1.085108 1.421548 -1.256361 1.016503 -1.232049 0.604707 -0.131868 -0.646244 -1.548629 1.629204 2.081029 -1.131834 -0.197607 0.671815 0.639093 1.100813 -1.026901 0.265773 -0.661747 -0.356818 -0.547455 -1.371500 -0.675123 -1.499238 -0.775122 -0.195074 -0.783807 1.705548 -0.465963 -0.827702 -0.936713 -0.964775 0.017185 -0.155024 -0.627868 -0.330669 0.851602 -0.593394 -1.260680 1.625682 -0.742806 0.885371 -1.904176 -0.239017 -1.215032 0.058090 -0.049704 -1.542580 -0.411303 -1.885212 0.497112 1.241000 1.211933 -0.678404 1.331285 -0.351855 -1.262812 -0.859338 0.139615 -0.067552 -0.166999 -1.694782 0.569407 -1.333319 1.670491 -2.608200 -0.293155 -0.260985 -1.368031 0.177893 -0.093823 0.624725 -1.214236 1.263518 -2.383018 1.066042 -0.207404 0.157664 1.127513 -1.867190 0.985988 -0.634886 0.204706 -1.330490 1.949035 1.091890 0.464200 -1.765883 -1.487781 -0.346386 0.559134 2.528593 0.130162 1.514621 1.164359 -1.475077 -1.155732 -0.703343 0.571497 0.193426 0.173109 -0.358192 0.282028 0.162844 -1.917709 -1.799267 1.729603 0.965419 0.841026 -1.540685 -1.464512 0.615721 -0.315194 0.276575 -1.466828 -1.733616 1.248284 -0.827168 0.969985 1.780518 1.538242 -0.749036 -0.526152 1.335526 1.113968 1.355844 0.840022 3.242191 2.060717 -2.008783 1.176895 -0.286854 -1.020472 -0.074539 0.644571 -1.404979 -0.873246 0.913948 0.811528 0.672952 1.147559 -1.048558 -1.962833 1.353554 1.622062 -1.902808 0.361887 0.972906 1.735223 0.450958 -0.106551 1.549087 -0.140811 1.130456 0.734432 0.759555 1.352448 -0.601215 0.250870 0.353239 -0.109928 0.141219 -0.010539 0.738810 1.402341 -1.169775 0.275966 2.325110 1.176319 -1.465105 -0.528439 -0.229682 0.777842 0.883105 -0.981233 1.550544 -0.650963 -0.685276 0.089554 0.357659 1.149846 -1.338584 -1.510941 -0.433210 1.679958 -1.676447 1.072491 -2.008166 1.225540 -0.869485 1.901910 1.857408 -0.754589 0.323930 0.799810 -1.548143 0.721356 -0.415765 1.183602 -0.315082 -0.329000 0.289957 -0.262912 -0.516274 -0.648739 0.492168 -0.951636 0.093607 1.901072 -1.304586 0.036521 -1.672013 0.762903 -0.001306 0.395807 0.835538 0.558978 -0.112455 0.069116 -0.486960 0.623629 0.147168 0.295673 0.313340 -1.257957 -1.041191 -0.353839 0.919275 1.120082 0.514837 0.801511 0.868707 0.177056 0.193939 0.073359 0.017248 -0.716294 -0.473648 1.143572 -1.662957 -1.249480 1.225306 0.343174 1.008894 1.827664 -0.935691 0.848376 -0.165164 1.516614 2.267790 0.220212 -1.931347 -1.647464 1.215630 1.525040 -0.236777 0.902866 0.091719 -1.037241 -0.528539 -0.387415 0.999701 -0.977997 1.807018 -2.254489 1.685154 1.653918 0.836306 -1.134904 0.901592 1.557070 -2.263872 1.426779 -1.202703 -0.294924 -1.085045 -0.205361 -0.249861 -2.189468 1.057723 -2.531966 0.611160 0.459621 -1.132488 -0.537470 1.941042 0.904813 -0.348050 0.432246 -1.372110 -1.156679 -0.642423 0.584534 -1.186240 -1.882038 -0.678840 1.749748 1.239778 -0.601314 -0.306664 -1.222144 1.318431 -0.346932 1.528759 -0.174190 -0.264408 -1.247500 1.126637 -0.948433 -0.505596 -0.273016 -0.069309 -0.843537 2.083539 -1.494201 -0.786705 1.850585 1.276371 -1.927656 1.291930 2.326833 0.553893 0.733488 -2.053663 -1.727530 -0.551076 0.810915 -1.135056 0.137582 0.206024 -1.764195 -0.426974 -2.159970 0.192488 0.242693 -0.494179 1.396518 -0.056826 0.757443 -1.861285 1.218916 -1.549502 0.183090 0.488247 0.914464 -1.862904 -2.603863 1.022008 2.055003 -1.319324 0.715876 -1.887883 1.044819 0.500808 0.351413 -1.623126 -1.260129 -0.521676 -0.180541 -0.970406 -0.989784 0.020871 -0.442100 -0.488640 0.007161 2.366878 -0.621406 2.052575 1.229130 -0.156670 -0.825134 1.384406 0.254247 0.743299 1.988015 -1.643136 1.184837 0.589481 0.179399 0.694683 0.164243 -0.074562 0.266726 1.211151 1.485206 -0.946152 1.912236 1.227264 -0.655134 0.755902 -0.605310 -0.081625 -1.768868 1.426015 -1.537931 -1.858544 0.569303 0.638209 -0.378054 0.094025 0.823873 -1.086913 1.654019 0.616265 -0.919407 1.577784 1.063848 1.498647 1.337897 1.948480 1.841737 0.986615 0.775641 0.248648 0.744805 1.956838 -1.716553 -0.757874 0.588816 1.017062 -0.363434 1.128907 0.301398 -0.918118 0.877278 0.240910 -0.392788 0.190463 -2.040692 0.640523 -1.617819 -0.921084 -1.808492 -1.059675 0.138266 0.697060 -1.594584 0.521270 -1.617399 0.153322 1.881831 1.968577 0.479167 0.478394 -1.778170 -0.466632 -0.353081 -0.396058 1.544813 -0.382291 -0.156658 0.832516 -0.323166 -1.493756 -0.629638 -0.869680 0.544154 2.311854 -0.260034 0.850662 0.071121 -0.571204 -0.879601 -0.204881 -0.194298 -1.133573 0.440310 1.565639 1.200566 1.398490 0.756519 -0.206852 0.528399 0.086975 1.755769 -0.710221 -0.674465 -0.803341 -1.281448 -1.409778 -0.123403 -1.253644 0.167454 -0.057108 -0.436207 -0.047353 -1.346495 0.060882 0.885102 -0.116806 1.106204 -1.852462 -1.213581 -0.730410 -0.169573 0.551938 -0.355824 0.246868 1.303748 -1.253822 -1.401772 -0.268813 0.086534 -0.614902 -0.841375 -1.610229 0.892836 -0.902558 2.924089 -1.184154 0.240512 -0.201912 1.461812 -0.495504 1.008322 -0.209238 0.235426 1.212352 2.065463 -0.780001 -1.017719 1.600069 0.516711 1.762873 2.210994 -2.354791 0.446007 0.473909 -1.897751 -0.479734 -0.182834 -0.244213 0.395509 -0.684393 0.477821 -1.277820 -2.566008 -0.011132 -0.560769 0.151036 -0.877136 -1.256136 0.431718 1.151994 -0.537384 -0.601144 -0.138027 -1.001374 0.295338 1.471228 -0.063435 -0.851577 0.416840 1.267983 -1.203949 -2.919326 0.666770 1.232191 -1.170501 1.528753 -1.509354 0.714545 0.173801 1.709926 1.944128 -0.299813 -1.318387 -1.303338 0.043936 -0.900497 1.254606 1.571529 0.524734 0.118330 0.076614 0.709920 1.949199 1.006790 -0.940243 2.414827 2.094509 2.373610 0.182187 -1.791399 1.185911 0.054891 0.865391 0.577082 -1.140795 -0.790964 0.566401 -1.491303 -1.649398 0.535008 0.477358 -0.222045 -0.929205 -1.346187 0.843487 0.222788 -2.340044 -0.409803 -0.955941 0.785802 -1.388922 -1.745089 -0.128265 -0.414310 0.953454 0.423478 -0.720807 -1.996063 0.558683 0.396362 -1.160010 -1.179226 1.196123 0.695874 1.334763 1.214957 0.056389 -0.657060 -0.444292 -0.792748 -0.003983 0.799270 -0.089220 0.570189 0.029551 0.461119 1.461916 -0.340498 1.279345 2.300198 -1.908965 -1.207786 -0.562866 0.182168 1.057622 -0.354038 0.139834 -0.823005 -0.082564 -1.122658 0.551932 0.621437 1.452226 -0.026196 -0.472913 -1.229590 -0.847388 -1.227109 1.181023 1.073738 0.159929 0.326371 -1.787280 1.060864 -0.360392 0.119431 -2.069309 -0.706083 -0.068804 -1.005268 -1.676013 1.013117 0.150871 -1.103343 0.439261 0.395110 0.055202 -0.356846 0.296484 0.797755 1.173248 -0.434399 0.506977 -1.082449 -1.537586 -0.099352 -1.945704 -0.049609 -0.896868 -0.722670 1.899062 -0.792572 1.261937 -0.471605 -0.230635 0.332875 0.084587 -0.886327 -3.173707 1.268925 -0.825402 -1.176304 -0.189438 -1.570794 -0.830898 -0.390671 1.202997 -0.312988 -0.714945 -0.879737 -0.647245 1.432887 -1.726949 -0.998625 -2.613730 0.158373 1.483298 -1.072487 -1.574198 1.344103 0.392615 -0.762675 -0.824110 -0.053775 1.024956 -0.237221 1.764594 -0.693704 0.415136 1.053197 -0.502837 0.200420 -1.305855 0.612303 -0.455530 -0.477331 -0.385164 -0.857478 -0.547720 -0.378812 0.286948 2.272255 -1.889599 -1.020847 -1.865233 -0.609592 -0.994907 -0.123048 0.354004 0.115052 1.905166 2.252676 -0.159302 0.839000 1.932357 -0.862957 